/*
 * Copyright (c) 2025 EdgeImpulse Inc.
 *
 * Generated by Edge Impulse and licensed under the applicable Edge Impulse
 * Terms of Service. Community and Professional Terms of Service
 * (https://edgeimpulse.com/legal/terms-of-service) or Enterprise Terms of
 * Service (https://edgeimpulse.com/legal/enterprise-terms-of-service),
 * according to your product plan subscription (the “License”).
 *
 * This software, documentation and other associated files (collectively referred
 * to as the “Software”) is a single SDK variation generated by the Edge Impulse
 * platform and requires an active paid Edge Impulse subscription to use this
 * Software for any purpose.
 *
 * You may NOT use this Software unless you have an active Edge Impulse subscription
 * that meets the eligibility requirements for the applicable License, subject to
 * your full and continued compliance with the terms and conditions of the License,
 * including without limitation any usage restrictions under the applicable License.
 *
 * If you do not have an active Edge Impulse product plan subscription, or if use
 * of this Software exceeds the usage limitations of your Edge Impulse product plan
 * subscription, you are not permitted to use this Software and must immediately
 * delete and erase all copies of this Software within your control or possession.
 * Edge Impulse reserves all rights and remedies available to enforce its rights.
 *
 * Unless required by applicable law or agreed to in writing, the Software is
 * distributed on an "AS IS" BASIS, WITHOUT WARRANTIES OR CONDITIONS OF ANY KIND,
 * either express or implied. See the License for the specific language governing
 * permissions, disclaimers and limitations under the License.
 */
// Generated on: 11.12.2025 10:58:07

#include <stdio.h>
#include <stdlib.h>
#include "edge-impulse-sdk/tensorflow/lite/c/builtin_op_data.h"
#include "edge-impulse-sdk/tensorflow/lite/c/common.h"
#include "edge-impulse-sdk/tensorflow/lite/micro/micro_mutable_op_resolver.h"
#include "edge-impulse-sdk/porting/ei_classifier_porting.h"

#if EI_CLASSIFIER_PRINT_STATE
#if defined(__cplusplus) && EI_C_LINKAGE == 1
extern "C" {
    extern void ei_printf(const char *format, ...);
}
#else
extern void ei_printf(const char *format, ...);
#endif
#endif

#define STRINGIZE(x) #x
#define STRINGIZE_VALUE_OF(x) STRINGIZE(x)

#if defined (__GNUC__)  /* GNU compiler */
#define ALIGN(X) __attribute__((aligned(X)))
#define DEFINE_SECTION(x) __attribute__((section(x)))
#elif defined (_MSC_VER)
#define ALIGN(X) __declspec(align(X))
#elif defined (__TASKING__) /* TASKING Compiler */
#define ALIGN(X) __align(X)
#define DEFINE_SECTION(x) __attribute__((section(x)))
#elif defined (__ARMCC_VERSION) /* Arm Compiler */
#define ALIGN(X) __ALIGNED(x)
#define DEFINE_SECTION(x) __attribute__((section(x)))
#elif defined (__ICCARM__) /* IAR Compiler */
#define ALIGN(x) __attribute__((aligned(x)))
#define DEFINE_SECTION(x) __attribute__((section(x)))
#elif defined (__clang__) /* LLVM/Clang Compiler */
#define ALIGN(X) __ALIGNED(x)
#define DEFINE_SECTION(x) __attribute__((section(x)))
#endif

#if defined(EI_MODEL_SECTION) && (defined(__GNUC__) || defined(__clang__))
#define MODEL_SECTION(X) __attribute__((section(STRINGIZE_VALUE_OF(X))))
#else
#define MODEL_SECTION(X)
#endif

#ifndef EI_MAX_SCRATCH_BUFFER_COUNT
#ifndef CONFIG_IDF_TARGET_ESP32S3
#define EI_MAX_SCRATCH_BUFFER_COUNT 14
#else
#define EI_MAX_SCRATCH_BUFFER_COUNT 28
#endif // CONFIG_IDF_TARGET_ESP32S3
#endif // EI_MAX_SCRATCH_BUFFER_COUNT

#ifndef EI_MAX_OVERFLOW_BUFFER_COUNT
#define EI_MAX_OVERFLOW_BUFFER_COUNT 10
#endif // EI_MAX_OVERFLOW_BUFFER_COUNT

using namespace tflite;
using namespace tflite::ops;
using namespace tflite::ops::micro;

namespace {

#if defined(EI_CLASSIFIER_ALLOCATION_STATIC_HIMAX) || defined(EI_CLASSIFIER_ALLOCATION_STATIC_HIMAX_GNU)
constexpr int kTensorArenaSize = 242640;
#else
constexpr int kTensorArenaSize = 241616;
#endif

#if defined(EI_CLASSIFIER_ALLOCATION_STATIC)
#if defined (EI_TENSOR_ARENA_LOCATION)
uint8_t tensor_arena[kTensorArenaSize] ALIGN(16) DEFINE_SECTION(STRINGIZE_VALUE_OF(EI_TENSOR_ARENA_LOCATION));
#else
uint8_t tensor_arena[kTensorArenaSize] ALIGN(16);
#endif
#elif defined(EI_CLASSIFIER_ALLOCATION_STATIC_HIMAX)
#pragma Bss(".tensor_arena")
uint8_t tensor_arena[kTensorArenaSize] ALIGN(16);
#pragma Bss()
#elif defined(EI_CLASSIFIER_ALLOCATION_STATIC_HIMAX_GNU)
uint8_t tensor_arena[kTensorArenaSize] ALIGN(16) __attribute__((section(".tensor_arena")));
#else
#define EI_CLASSIFIER_ALLOCATION_HEAP 1
uint8_t* tensor_arena = NULL;
#endif

static uint8_t* tensor_boundary;
static uint8_t* current_location;

template <int SZ, class T> struct TfArray {
  int sz; T elem[SZ];
};

enum used_operators_e {
  OP_CONV_2D, OP_DEPTHWISE_CONV_2D, OP_PAD, OP_ADD, OP_SOFTMAX,  OP_LAST
};

struct TensorInfo_t { // subset of TfLiteTensor used for initialization from constant memory
  TfLiteAllocationType allocation_type;
  TfLiteType type;
  void* data;
  TfLiteIntArray* dims;
  size_t bytes;
  TfLiteQuantization quantization;
};

typedef struct {
  TfLiteTensor tensor;
  int16_t index;
} TfLiteTensorWithIndex;

typedef struct {
  TfLiteEvalTensor tensor;
  int16_t index;
} TfLiteEvalTensorWithIndex;

TfLiteContext ctx{};
static const int MAX_TFL_TENSOR_COUNT = 4;
static TfLiteTensorWithIndex tflTensors[MAX_TFL_TENSOR_COUNT];
static const int MAX_TFL_EVAL_COUNT = 4;
static TfLiteEvalTensorWithIndex tflEvalTensors[MAX_TFL_EVAL_COUNT];
TfLiteRegistration registrations[OP_LAST];

namespace g0 {
const TfArray<4, int> tensor_dimension0 = { 4, { 1,96,96,3 } };
const TfArray<1, float> quant0_scale = { 1, { 0.0039215688593685627, } };
const TfArray<1, int> quant0_zero = { 1, { -128 } };
const TfLiteAffineQuantization quant0 = { (TfLiteFloatArray*)&quant0_scale, (TfLiteIntArray*)&quant0_zero, 0 };
const MODEL_SECTION(EI_MODEL_SECTION) ALIGN(16) int32_t tensor_data1[4*2] = { 
  0, 0, 
  0, 1, 
  0, 1, 
  0, 0, 
};
const TfArray<2, int> tensor_dimension1 = { 2, { 4,2 } };
const MODEL_SECTION(EI_MODEL_SECTION) ALIGN(8) int32_t tensor_data2[2] = { 21763, -22623, };
const TfArray<1, int> tensor_dimension2 = { 1, { 2 } };
const TfArray<2, float> quant2_scale = { 2, { 0.00023158678959589452, 0.00022235076176002622, } };
const TfArray<2, int> quant2_zero = { 2, { 0,0 } };
const TfLiteAffineQuantization quant2 = { (TfLiteFloatArray*)&quant2_scale, (TfLiteIntArray*)&quant2_zero, 0 };
const MODEL_SECTION(EI_MODEL_SECTION) ALIGN(16) int8_t tensor_data3[2*1*1*32] = { 
  /* [0][0][][] */ 48,-37,-52,115,-51,-9,-24,71,117,-5,-44,-56,-26,50,-39,32,87,-98,-42,-90,100,57,73,-60,-72,-107,-33,127,-4,-63,50,127, 
  /* [1][0][][] */ 54,67,70,-70,-72,72,-11,10,-38,-25,37,99,107,42,29,-2,-38,10,-75,-86,-78,35,27,104,80,72,-45,-25,101,-99,-127,-50, 
};
const TfArray<4, int> tensor_dimension3 = { 4, { 2,1,1,32 } };
const TfArray<2, float> quant3_scale = { 2, { 0.0039447308517992496, 0.0037874090485274792, } };
const TfLiteAffineQuantization quant3 = { (TfLiteFloatArray*)&quant3_scale, (TfLiteIntArray*)&g0::quant2_zero, 0 };
const MODEL_SECTION(EI_MODEL_SECTION) ALIGN(16) int32_t tensor_data4[32] = { 63, 67, 120, 459, -38, 114, -213, 192, -116, 440, 114, 132, 148, 125, -501, -451, -189, -113, 347, -192, 112, 117, -200, 82, 14, 309, -222, 1166, 98, -80, 1303, 1179, };
const TfArray<1, int> tensor_dimension4 = { 1, { 32 } };
const TfArray<32, float> quant4_scale = { 32, { 4.4993510528001934e-05, 4.4098444050177932e-05, 4.2389332520542666e-05, 5.2623916417360306e-05, 3.8132166082505137e-05, 4.2509571358095855e-05, 4.1945069824578241e-05, 4.1979241359513253e-05, 4.1510873415973037e-05, 5.4212752729654312e-05, 4.4951175368623808e-05, 6.0198472056072205e-05, 4.2629635572666302e-05, 4.2660205508582294e-05, 4.3356223613955081e-05, 4.4948086724616587e-05, 4.4452866859501228e-05, 6.5065032686106861e-05, 7.5078118243254721e-05, 4.7655528760515153e-05, 4.6669458242831752e-05, 4.3233689211774617e-05, 4.2064188164658844e-05, 4.4124437408754602e-05, 4.3175157770747319e-05, 4.5769924327032641e-05, 4.1488539864076301e-05, 5.8343921409687027e-05, 3.9800281228963286e-05, 4.0589042328065261e-05, 5.4690561228198931e-05, 5.8677509514382109e-05, } };
const TfArray<32, int> quant4_zero = { 32, { 0,0,0,0,0,0,0,0,0,0,0,0,0,0,0,0,0,0,0,0,0,0,0,0,0,0,0,0,0,0,0,0 } };
const TfLiteAffineQuantization quant4 = { (TfLiteFloatArray*)&quant4_scale, (TfLiteIntArray*)&quant4_zero, 0 };
const MODEL_SECTION(EI_MODEL_SECTION) ALIGN(16) int8_t tensor_data5[32*1*1*96] = { 
  /* [0][0][][] */ -45,-47,92,6,86,-9,-83,-96,58,-94,-101,8,46,9,-38,54,-52,-30,-60,-36,-64,-100,4,106,-106,13,74,-54,112,3,-22,-75,76,-61,-84,59,-104,-75,-87,27,76,-80,-90,100,45,-98,108,-15,16,-41,-26,100,-67,-48,-83,107,19,68,127,-106,-63,85,-48,41,-2,19,67,86,51,92,85,-109,101,-114,46,81,-95,12,-57,20,52,22,93,-2,-55,-44,-77,104,32,116,-8,-112,4,64,36,16, 
  /* [1][0][][] */ -57,32,-77,5,-29,78,38,8,84,-106,-96,107,72,-20,20,67,102,-38,40,127,-41,-6,38,25,30,26,-37,89,14,22,103,-57,51,114,-12,28,49,59,-25,-63,-61,13,-20,-93,-42,44,-26,-59,-26,-66,118,70,11,101,-74,-47,14,102,75,80,-50,116,-65,-75,-41,41,74,37,107,37,23,15,-102,81,-43,46,96,-43,-39,78,-82,89,-48,-97,27,107,-59,-55,78,82,89,12,86,80,38,-11, 
  /* [2][0][][] */ 46,38,-66,103,-13,-64,92,95,-95,80,-30,120,100,-9,81,-109,-64,-23,39,68,-92,-14,116,21,-29,90,110,-8,-66,96,87,103,-77,-9,-97,-108,-88,97,95,-26,-117,-71,17,-3,-92,127,-21,-85,99,58,100,-78,-48,81,26,20,-84,101,-50,4,-10,63,-35,74,107,53,49,86,-90,78,15,-67,43,-85,38,30,-42,-23,7,18,36,-90,-7,-28,2,-104,-11,-23,92,118,-28,3,-41,-95,-37,-75, 
  /* [3][0][][] */ 56,10,64,-29,-25,72,-75,32,26,17,60,12,45,86,78,5,106,93,-49,6,98,-55,-42,-74,-5,-81,-43,127,38,-101,76,0,-41,-33,26,-9,-56,-17,37,67,-16,-73,-72,11,68,23,-42,-56,60,-89,25,-1,85,9,88,-66,-77,-105,-104,-34,-71,27,-8,79,31,-29,-33,11,-35,-56,9,80,27,-65,41,-20,25,93,95,-69,-60,-87,48,68,35,64,-34,-104,-58,49,16,-61,88,-72,-67,64, 
  /* [4][0][][] */ 69,115,1,61,-11,88,39,26,73,101,-10,89,18,-44,-9,-70,-11,-5,-18,12,118,-97,97,32,-5,-8,70,-18,-22,13,-80,-64,93,122,61,-116,-49,-6,-120,58,-54,-70,-80,-103,46,114,41,94,30,-12,-18,-98,-81,40,-99,30,74,-104,26,20,7,-44,-45,-82,-78,59,7,-33,24,-118,-108,-95,-64,27,107,62,57,-25,-5,-65,9,-49,-98,-32,0,80,102,-4,-127,-85,89,50,28,125,-122,-3, 
  /* [5][0][][] */ 96,-92,75,91,40,-121,29,55,111,-127,3,-69,28,105,33,39,55,64,-69,106,36,53,20,-28,-113,-55,-13,-107,49,43,22,-94,-44,12,-75,17,-118,-37,35,24,-89,-47,43,99,-43,31,37,-61,-111,119,30,41,37,32,37,-22,93,53,-43,-42,38,-70,35,-68,-22,107,-27,28,76,10,109,-66,-41,68,-26,-72,21,-47,14,90,104,47,30,122,-82,76,1,46,69,-97,114,86,-16,16,83,-90, 
  /* [6][0][][] */ 12,-54,115,71,-89,-68,-1,60,-21,-89,3,-83,81,53,119,-126,47,0,-2,106,-82,-122,109,62,-68,-88,-9,-47,-24,-120,44,-84,-94,-127,-35,-119,-9,38,-104,84,86,53,18,-19,-116,102,-95,-42,-86,16,-30,-68,61,-60,96,-25,13,-16,-74,116,-100,2,68,-68,-48,64,103,-46,74,-15,-111,-10,53,-66,-96,-44,-84,-106,-57,-43,35,-33,52,-34,-74,-86,-45,-100,88,96,101,14,-52,-65,78,-31, 
  /* [7][0][][] */ 108,71,-36,-40,-87,119,-15,-6,122,8,-94,13,52,-85,48,83,56,23,2,108,57,41,0,93,-66,115,47,51,-76,121,-17,37,26,29,73,100,-102,91,-17,-25,100,-74,91,75,50,2,107,-115,57,-52,-126,-63,-21,87,20,27,112,-85,16,-54,6,-3,83,-113,-61,-51,75,23,-127,24,76,87,96,17,63,66,-54,61,-98,42,94,-32,-26,-70,93,34,-106,101,83,11,87,63,-66,-44,0,-68, 
  /* [8][0][][] */ -1,32,-40,-103,39,38,-79,-31,-2,42,38,93,-13,-53,-84,-79,-65,95,-72,0,22,-26,81,114,-117,92,43,98,-74,8,-101,109,106,-47,57,-8,122,-1,-16,71,79,98,-119,-127,-7,-41,-32,117,24,-113,-87,-16,-66,-31,-39,-118,57,104,-112,109,102,42,43,109,-48,-56,-21,107,-91,42,26,-12,70,79,3,22,-60,108,84,65,38,75,-126,-105,25,47,68,-55,34,-45,-76,100,-95,-81,-61,71, 
  /* [9][0][][] */ 22,19,103,47,82,-76,-28,-93,42,69,1,33,9,-56,-67,-15,19,16,-74,-58,11,91,-74,-75,104,4,1,41,-11,-52,-62,95,73,14,35,-3,-52,28,-21,-24,49,-45,54,-71,84,17,-70,53,55,-21,-37,-46,59,-45,-50,89,101,-33,-34,12,-66,86,82,-43,-48,8,95,54,-24,93,96,-60,8,95,-76,-69,-66,-83,-22,100,36,30,90,18,-29,-57,33,-8,88,34,-17,127,106,24,52,-2, 
  /* [10][0][][] */ -59,79,84,-55,-5,99,105,27,43,24,29,-61,106,85,-35,15,-38,80,-90,-43,-11,29,57,-67,26,61,-107,-124,-42,92,-83,-70,74,107,110,72,-40,7,-44,35,-32,117,-103,-33,-100,-47,1,-63,-4,21,46,22,59,39,-57,-30,-110,-10,42,-44,5,80,106,44,127,-66,-93,-23,28,-10,-84,-58,91,54,-74,105,-2,63,66,30,72,6,59,113,-96,61,104,-14,36,12,-7,-69,-45,-58,-32,-69, 
  /* [11][0][][] */ 91,15,-7,76,74,45,35,33,79,62,-50,78,-17,-55,22,-46,-40,-79,48,42,27,53,20,-76,-77,-77,-13,50,65,-16,27,-8,-73,-39,29,41,-42,56,-30,-42,-16,80,-47,14,-31,-29,-62,-66,51,90,75,42,-64,-48,23,13,-71,-48,-16,-64,-46,64,72,-4,27,66,-42,13,78,44,-60,-49,33,54,-59,40,-49,27,-32,70,-77,-11,-47,-17,38,-46,14,-16,-70,-6,13,-127,-55,-27,-45,-30, 
  /* [12][0][][] */ 13,70,-58,10,96,7,-32,35,-70,55,-8,18,-37,19,47,-74,-103,-28,-42,-70,33,-8,21,100,-69,-40,106,-114,98,29,-29,124,-92,-59,-47,17,-2,-74,-29,46,119,47,-107,-37,-27,-75,-35,113,-45,-98,-70,117,38,17,-79,89,-31,-54,68,69,66,118,-4,59,127,41,-44,117,62,112,48,79,93,107,-11,-3,-23,39,-114,-86,-59,111,51,29,-34,29,63,125,-92,-104,92,40,106,-24,40,71, 
  /* [13][0][][] */ 107,-59,101,104,93,111,84,63,78,-114,18,-28,92,78,66,-43,-122,-67,-69,35,72,-25,122,-46,-65,50,10,5,-85,-75,89,43,36,114,-23,38,-84,-28,14,73,-62,84,-49,16,-49,36,1,-35,35,120,-35,-96,-99,41,104,-81,-63,33,-8,-74,-23,120,-78,16,-40,-57,-91,87,-39,-5,103,2,-83,28,-72,-39,-93,71,85,-59,52,-92,95,33,-80,-106,102,127,-11,-48,-76,50,112,-60,77,-11, 
  /* [14][0][][] */ -66,-106,75,57,77,-38,-29,-121,-89,-46,56,77,-30,-88,-103,-93,-62,-72,6,12,-51,20,-13,48,-120,-83,-46,21,-119,-118,-87,26,93,-35,-45,2,85,104,29,-121,-18,-123,27,77,54,-122,52,-96,102,37,74,41,87,-26,-29,0,-58,8,41,88,-22,-91,-35,65,-95,-25,65,-112,-97,-93,-94,88,-2,70,40,-82,49,-117,42,28,33,-24,-122,-42,-127,-101,-117,95,99,-5,80,-60,83,92,-26,61, 
  /* [15][0][][] */ -5,-31,-32,59,53,-82,50,-108,46,1,-79,-2,86,-8,-92,-115,80,3,-95,25,34,11,61,97,73,59,29,95,12,49,52,-105,7,-7,-65,-12,-69,100,100,-74,9,98,-52,-31,21,-85,-50,-80,-10,-81,-28,17,-101,-118,-53,-16,62,40,-54,96,-57,-70,-5,91,-47,84,-75,-8,-53,-6,50,-82,8,-18,51,-109,-10,44,92,60,-83,44,-119,-74,-122,-41,-98,26,74,59,-99,-41,26,127,-112,111, 
  /* [16][0][][] */ -70,1,104,-71,22,111,-56,37,38,53,-112,62,-29,-54,-48,-62,109,72,64,46,98,74,-41,50,-26,44,-71,79,-101,-5,32,4,-94,62,55,56,-32,51,-35,-69,20,-52,66,85,69,91,93,-6,-53,-127,-9,94,-39,92,61,40,38,80,52,13,102,102,33,56,38,5,-36,90,33,83,-38,-18,20,98,55,83,-23,92,-109,-23,15,-87,48,-4,10,102,89,-1,72,9,-11,111,58,-19,-91,32, 
  /* [17][0][][] */ 72,-89,-12,78,12,-66,-44,-46,53,-94,78,69,104,58,-96,27,3,30,76,123,-29,-17,14,-53,-35,57,-41,-11,88,0,10,88,-61,32,18,15,-54,48,-95,-25,-78,-8,-9,-17,-49,43,79,-106,24,117,59,62,-18,127,70,-27,-111,69,-24,-86,65,-48,39,75,-27,-29,14,-70,-23,29,87,53,22,-99,-24,30,101,-33,31,7,-7,15,-3,-13,-89,17,76,7,30,42,-63,-93,43,40,47,-13, 
  /* [18][0][][] */ -21,86,73,-33,12,-17,-58,10,-7,63,-54,-18,-9,29,42,-30,20,-8,38,-22,68,-20,23,-40,23,-52,-1,73,3,9,13,55,33,-11,-66,-31,-6,31,-10,36,-17,6,-15,13,-57,20,27,-6,15,-38,63,20,-62,5,8,56,0,38,-18,-61,57,53,30,31,-32,-66,-14,52,32,-34,-20,67,-37,-9,-51,-47,22,43,1,-26,-32,8,-7,-29,64,13,45,44,-57,-34,-50,127,58,-29,33,4, 
  /* [19][0][][] */ 30,23,66,36,77,-23,87,89,84,-53,25,-14,-87,27,-44,49,65,-95,103,56,-20,71,-53,13,67,-75,24,-55,-90,-108,-60,43,68,-74,42,-3,3,-60,-30,-90,41,-104,-75,8,-73,24,69,-73,-28,70,-35,39,-38,16,5,1,27,80,-9,-28,48,-29,92,53,-57,-3,-25,0,17,48,62,-43,-62,-104,-53,-75,-23,-104,13,91,55,-110,-22,68,-77,-5,3,-4,83,24,17,60,-26,127,56,-46, 
  /* [20][0][][] */ -3,70,76,86,-69,88,23,63,14,12,-77,1,-20,79,47,-65,-34,-32,-60,-40,21,-33,-65,-56,81,-73,-92,64,20,-4,-38,99,99,38,-3,56,47,-27,1,-92,-74,-31,-77,-89,-17,-61,-64,108,61,-127,-97,29,49,94,49,3,101,66,78,90,100,-52,-59,-28,-26,-61,-38,25,-83,-71,-60,71,-59,-76,29,26,94,77,106,96,84,3,81,-30,59,116,-13,63,22,89,37,61,19,40,-11,20, 
  /* [21][0][][] */ 91,74,67,-96,95,-86,74,15,0,-68,-67,38,3,42,-54,-85,-107,-27,31,-7,107,-48,73,-83,59,-79,-30,60,16,16,-4,-17,1,28,-96,-114,110,96,-127,-30,-6,11,32,-12,-104,-76,-77,88,-25,-60,-8,94,36,79,-92,23,-60,55,-41,119,56,-74,13,-11,92,36,-35,-71,-109,4,63,77,40,-31,73,68,-100,-28,63,106,10,103,28,-62,25,-100,70,-76,-107,81,102,-125,-50,-85,76,-32, 
  /* [22][0][][] */ 32,-60,-86,-107,73,-68,108,53,-102,77,-80,-127,105,-119,-122,-90,34,83,-121,-78,84,-80,28,28,93,-10,-123,85,-77,-91,-71,-117,51,60,5,8,-5,-19,-68,-118,-2,-18,-3,93,53,-124,91,-27,-63,-97,0,-25,-81,-96,-55,29,-17,-33,-38,-35,106,-95,-81,-127,-75,15,-121,-46,114,101,-29,-9,-69,6,60,-101,34,-58,62,92,104,-104,-88,-123,76,84,96,-38,-65,31,-78,47,13,8,-35,96, 
  /* [23][0][][] */ 58,-90,-3,63,102,-117,4,-101,59,-86,88,76,25,-99,13,-36,80,-31,-101,110,95,-80,103,-36,-22,-6,83,2,72,62,75,-30,-46,53,15,31,92,-10,-127,5,-104,5,10,-106,-82,-80,112,18,71,-88,-79,-38,76,-37,-50,87,-100,-17,109,42,-103,-87,-54,-9,49,42,-115,-111,66,-5,114,-65,1,-52,-32,-93,57,-21,92,119,-57,-45,24,-86,90,-2,118,-12,-88,43,99,-29,105,-62,-20,73, 
  /* [24][0][][] */ -90,-57,-111,-88,-101,-109,-66,-94,59,112,86,58,127,62,-45,-112,-78,43,31,-36,105,-80,-55,-36,47,-31,77,59,119,59,4,-67,19,1,53,18,-51,-85,60,-12,-68,-95,100,8,14,-31,50,83,-66,-34,-11,25,80,47,82,-72,-2,87,40,-2,103,3,43,94,-104,101,-45,-86,-96,45,-49,-18,-31,16,99,103,68,-76,-100,-112,-76,-85,-54,-110,5,60,-10,-92,37,-98,17,-95,-24,22,-84,25, 
  /* [25][0][][] */ -55,-51,-65,4,101,-69,-93,65,54,-108,-25,24,76,6,-103,-14,-71,57,35,-104,70,83,-5,-51,12,-65,-89,36,76,-97,48,115,81,-85,35,71,95,-58,-35,-10,-75,102,-92,12,87,52,66,31,-99,99,-53,8,45,10,-53,-5,-19,51,-92,72,123,41,51,43,-15,79,-14,-9,-109,6,-16,-99,39,-127,69,29,68,75,20,42,46,56,-51,97,-66,-41,-88,-79,-24,-33,87,0,-108,-46,-18,-95, 
  /* [26][0][][] */ 58,-123,-19,-19,-105,-3,-13,-10,-114,-122,106,90,-83,-54,13,-19,121,27,-87,-80,11,73,100,15,54,58,10,64,11,-6,-100,-7,-31,-72,-99,-108,-68,87,-38,112,-104,101,56,31,-69,70,-46,112,-23,17,-8,95,12,-62,-6,-114,112,63,47,26,-2,-99,67,-26,106,-25,-58,62,-91,74,86,96,77,-92,-94,7,38,-113,-101,5,-28,74,84,-87,81,4,-53,8,-86,115,14,21,-58,127,45,96, 
  /* [27][0][][] */ 24,36,18,-62,-78,-42,-27,17,34,105,43,-82,-48,49,93,5,84,3,49,-87,-70,40,4,27,-28,27,-69,42,50,-54,-23,-10,69,47,-28,-45,-22,-19,-45,89,-41,24,41,59,119,22,65,118,89,22,25,-83,-36,-91,17,-21,127,-7,-110,-32,-37,-46,-11,33,-14,-33,-47,100,25,-4,-64,11,60,-7,-12,-17,-11,-15,84,74,79,-3,74,-78,-33,-2,-21,-2,-29,20,-24,22,27,37,38,67, 
  /* [28][0][][] */ 88,-6,91,48,-120,-68,-99,-82,-60,-119,68,80,-95,-95,13,105,100,126,-81,88,-27,28,-117,-69,-124,94,-82,-111,-64,-31,-5,-19,-122,13,91,76,17,-110,-45,33,116,49,-103,55,-108,-11,21,54,18,-66,-95,-23,-127,20,75,32,43,-23,99,50,-11,-40,-101,-6,60,84,-20,62,-105,28,-114,-39,77,18,-4,-111,-117,-71,-87,38,-83,-101,115,-33,63,-118,69,-80,-101,-77,-39,-78,-74,22,-125,-82, 
  /* [29][0][][] */ 55,56,64,-57,-96,26,-121,9,101,-14,-96,-105,103,-110,-43,-52,-98,108,27,-63,-81,-34,58,8,-37,10,-45,-10,-109,-16,109,-7,64,1,-72,-57,-9,108,-5,102,50,110,-51,86,3,106,-58,-21,23,-19,55,-102,75,-106,117,57,-87,53,-63,117,-127,100,-99,-48,-74,-69,58,101,103,-94,31,-78,114,90,63,27,116,-65,-30,31,-2,-92,-4,-86,69,126,44,78,-37,101,79,82,-103,30,-3,58, 
  /* [30][0][][] */ 54,-35,-14,43,-31,58,-16,13,102,27,29,-28,-97,33,85,32,41,53,79,-61,51,-49,-62,56,-48,32,-26,127,15,-84,-55,34,-42,-32,-57,-29,55,26,31,54,107,-39,7,119,121,-12,110,86,-31,51,53,-47,96,-21,33,106,-7,-36,-81,-10,-56,11,3,9,-40,-42,-44,102,-31,97,50,-13,-53,119,62,-40,-27,-27,-30,-45,54,49,-55,-12,-51,77,-74,106,-2,-53,76,107,-1,36,23,-29, 
  /* [31][0][][] */ 78,-52,73,74,40,61,-11,-49,-25,6,-41,-66,28,-77,14,94,-5,-42,33,38,48,59,0,125,69,-77,52,81,-46,-92,43,89,43,15,-22,2,105,19,0,-42,82,-41,-13,57,55,-41,-10,73,79,-19,54,-16,-66,-58,-23,50,-37,30,-33,112,-22,7,94,-15,44,92,1,-12,44,-106,-93,1,-72,13,8,36,-55,-8,66,43,-18,-23,48,26,75,127,-69,13,34,-5,-60,15,6,103,7,21, 
};
const TfArray<4, int> tensor_dimension5 = { 4, { 32,1,1,96 } };
const TfArray<32, float> quant5_scale = { 32, { 0.001912224106490612, 0.0018741838866844773, 0.0018015465466305614, 0.002236516447737813, 0.0016206169966608286, 0.0018066567135974765, 0.0017826653784140944, 0.0017841177759692073, 0.0017642120365053415, 0.0023040419910103083, 0.0019104249076917768, 0.0025584350805729628, 0.0018117594299837947, 0.0018130587413907051, 0.0018426395254209638, 0.0019102937076240778, 0.0018892468651756644, 0.0027652638964354992, 0.0031908198725432158, 0.0020253600087016821, 0.0019834518898278475, 0.0018374316859990358, 0.0017877279315143824, 0.0018752885516732931, 0.0018349442398175597, 0.0019452216802164912, 0.0017632629023864865, 0.0024796165525913239, 0.0016915119485929608, 0.0017250343225896358, 0.0023243487812578678, 0.0024937940761446953, } };
const TfLiteAffineQuantization quant5 = { (TfLiteFloatArray*)&quant5_scale, (TfLiteIntArray*)&g0::quant4_zero, 0 };
const MODEL_SECTION(EI_MODEL_SECTION) ALIGN(16) int32_t tensor_data6[96] = { -1948, 2937, 7762, 2031, -2873, -3301, 15643, 2226, 2521, -1238, 9112, -272, -6089, 2021, 16879, 7345, 10840, 6244, -4041, -4899, 4721, 21572, 20951, 11565, 1207, 852, 4754, 2386, 1776, -4347, 4833, -2857, -208, 3361, -48, 981, 9318, 4568, -2062, 4529, 8382, 5643, 3494, 11362, 5538, 4770, 1788, 9259, 3873, -4475, -5927, 371, -301, -971, 2131, 27, 319, -888, -3793, 11493, -776, 1275, -1019, -2080, -2649, 5804, 17018, 1790, -2337, 696, 1512, 2068, 1748, -1139, 535, 8901, -510, 17489, 11961, -685, 7115, 1647, -398, 1039, 10359, 6905, 4026, 1106, 4525, 3617, -329, -6614, 580, -1572, -1607, -1690, };
const TfArray<1, int> tensor_dimension6 = { 1, { 96 } };
const TfArray<96, float> quant6_scale = { 96, { 0.00031231998582370579, 0.00053456658497452736, 0.00030816826620139182, 0.00043551821727305651, 0.00036752541200257838, 0.00043861125595867634, 0.00021252001170068979, 0.00032628874760121107, 0.0002390230365563184, 0.00051189848454669118, 0.00021537041175179183, 0.00033280547359026968, 0.00041059637442231178, 0.0014048917219042778, 0.00018376328807789832, 0.00015521928435191512, 0.00017020889208652079, 0.00023085155407898128, 0.00048527962644584477, 0.00034520859480835497, 0.00013180980749893934, 0.00012453431554604322, 0.00014658625877927989, 0.00014311693666968495, 0.00015990163956303149, 0.00054074655054137111, 0.00062711158534511924, 0.00046891727834008634, 0.00028715044027194381, 0.00044129291200079024, 0.00030386427533812821, 0.00027502916054800153, 0.00026349452673457563, 0.00034157308982685208, 0.00034035148564726114, 0.00026568112662062049, 0.00020467795548029244, 0.00023355666780844331, 0.00030270143179222941, 0.00038952409522607923, 0.00015254350728355348, 0.00045808681170456111, 0.00042473079520277679, 0.00020383943046908826, 0.0003497356956358999, 0.00020985446462873369, 0.00029213548987172544, 0.00023684535699430853, 0.00034716067602857947, 0.00029762310441583395, 0.00026542411069385707, 0.00023823726223781705, 0.00052113330457359552, 0.00030445377342402935, 0.00036766458651982248, 0.00034988520201295614, 0.00048069751937873662, 0.0003135751758236438, 0.00040349745540879667, 0.00016088654228951782, 0.0010013910941779613, 0.00050006934907287359, 0.00027785770362243056, 0.00037346186581999063, 0.0006962025654502213, 0.0003318311064504087, 0.00012689670256804675, 0.00023910403251647949, 0.00050237332470715046, 0.00048764492385089397, 0.00026718626031652093, 0.00024659739574417472, 0.00077100610360503197, 0.00034483091440051794, 0.00034361687721684575, 0.0002410077431704849, 0.00027241831412538886, 0.00010787929204525426, 0.00015273077588062733, 0.00028068458777852356, 0.00020621276053134352, 0.00020536255033221096, 0.00020348106045275927, 0.00024224260414484888, 0.00017482215480413288, 0.00034607559791766107, 0.000576616614125669, 0.00027771908207796514, 0.00014895934145897627, 0.00056429766118526459, 0.00031952848075889051, 0.00029806711245328188, 0.00037969887489452958, 0.00063787121325731277, 0.00037971496931277215, 0.00024742624373175204, } };
const TfArray<96, int> quant6_zero = { 96, { 0,0,0,0,0,0,0,0,0,0,0,0,0,0,0,0,0,0,0,0,0,0,0,0,0,0,0,0,0,0,0,0,0,0,0,0,0,0,0,0,0,0,0,0,0,0,0,0,0,0,0,0,0,0,0,0,0,0,0,0,0,0,0,0,0,0,0,0,0,0,0,0,0,0,0,0,0,0,0,0,0,0,0,0,0,0,0,0,0,0,0,0,0,0,0,0 } };
const TfLiteAffineQuantization quant6 = { (TfLiteFloatArray*)&quant6_scale, (TfLiteIntArray*)&quant6_zero, 0 };
const MODEL_SECTION(EI_MODEL_SECTION) ALIGN(16) int8_t tensor_data7[96*1*1*16] = { 
  /* [0][0][][] */ -19,82,-14,-127,-58,-29,-24,-73,-7,26,9,58,11,-64,-21,66, 
  /* [1][0][][] */ -34,25,-53,11,-35,-19,16,-78,64,37,-66,24,24,9,39,-127, 
  /* [2][0][][] */ 8,25,-22,56,50,34,-86,-50,127,-23,-16,26,22,103,-71,-4, 
  /* [3][0][][] */ 50,-62,-6,-114,-5,-25,-6,-17,96,11,58,19,-15,24,8,127, 
  /* [4][0][][] */ -80,56,11,36,-5,-13,-1,52,12,14,14,-38,-127,-19,-20,33, 
  /* [5][0][][] */ 0,45,109,-8,-4,72,-76,64,-38,76,-16,-25,27,-38,-127,34, 
  /* [6][0][][] */ 41,-59,98,-127,23,-4,-28,100,-71,-94,54,-49,-10,62,-17,90, 
  /* [7][0][][] */ 40,88,-38,-60,60,3,9,-57,127,92,-21,12,12,-25,51,52, 
  /* [8][0][][] */ 19,-84,11,-105,25,-58,4,-86,28,73,73,-11,33,127,89,77, 
  /* [9][0][][] */ 14,-45,-8,127,17,-17,42,-63,-59,82,31,-25,-4,-64,-16,-6, 
  /* [10][0][][] */ 5,17,-59,-127,9,-17,7,50,19,-36,12,-47,-38,-40,-13,51, 
  /* [11][0][][] */ 2,27,22,-20,108,-21,83,-52,-97,33,-11,23,9,127,-64,-39, 
  /* [12][0][][] */ 20,-3,-127,-52,11,-47,7,-4,4,51,-28,-58,-34,90,11,62, 
  /* [13][0][][] */ -16,5,-29,10,2,-127,2,21,3,-15,5,-5,10,-20,5,13, 
  /* [14][0][][] */ 36,-33,85,-39,50,2,-127,-101,-27,-58,30,4,2,-76,-34,-19, 
  /* [15][0][][] */ -101,17,6,-68,21,-5,127,49,-51,48,120,-15,8,84,71,-15, 
  /* [16][0][][] */ 19,67,127,83,7,9,71,53,-72,13,-56,22,23,-2,1,-102, 
  /* [17][0][][] */ -47,-112,-10,39,-71,-23,-68,10,-127,-39,16,-40,4,49,66,-47, 
  /* [18][0][][] */ 8,33,13,68,25,0,8,-9,79,53,-28,-22,20,127,57,14, 
  /* [19][0][][] */ 35,-38,27,7,85,6,-74,-51,-96,-86,-59,-127,-27,-27,6,-7, 
  /* [20][0][][] */ 100,-3,-85,-60,18,-127,12,34,-72,64,-122,-31,43,-11,-5,-3, 
  /* [21][0][][] */ 58,-18,83,-5,-26,-17,-25,68,13,-54,80,72,-7,127,33,49, 
  /* [22][0][][] */ -11,28,-61,127,-77,1,119,67,-15,13,-13,15,-14,-14,29,25, 
  /* [23][0][][] */ 38,-22,127,-65,89,25,-20,37,-15,-12,38,2,12,1,-73,6, 
  /* [24][0][][] */ -127,39,18,-19,4,115,20,-30,-7,12,111,-3,-80,20,80,-28, 
  /* [25][0][][] */ 22,22,18,22,15,13,66,-51,-3,-127,-3,-17,-10,-24,21,17, 
  /* [26][0][][] */ -36,-8,-10,7,-60,-10,-33,-39,-124,-40,1,-44,3,127,-38,64, 
  /* [27][0][][] */ 1,29,11,63,25,-34,-30,-39,59,6,-28,5,13,127,-22,14, 
  /* [28][0][][] */ 11,68,47,52,127,-5,36,42,-97,-17,-42,-40,10,81,53,-34, 
  /* [29][0][][] */ 9,-14,1,12,16,-11,17,35,-37,-37,-10,-127,0,-14,2,28, 
  /* [30][0][][] */ -21,85,-57,71,-46,-12,45,-127,-39,57,-22,-17,60,28,70,99, 
  /* [31][0][][] */ -47,-19,-6,-82,8,-2,-70,-127,20,103,-18,-121,-38,-62,-4,6, 
  /* [32][0][][] */ -127,-78,-7,60,40,38,-19,5,4,-55,-85,58,68,15,64,72, 
  /* [33][0][][] */ -9,-43,-46,1,-95,5,-66,17,63,11,15,-63,33,-112,127,37, 
  /* [34][0][][] */ 52,4,87,29,75,22,-65,110,-102,-37,70,54,21,15,-13,127, 
  /* [35][0][][] */ -49,47,-91,-1,-16,-24,39,-127,99,122,-69,-5,-13,-12,77,-116, 
  /* [36][0][][] */ -40,47,26,127,33,43,93,21,2,33,-8,-3,2,25,-65,-60, 
  /* [37][0][][] */ -16,12,22,-51,5,9,-49,-54,-73,-13,3,-2,16,-127,59,-48, 
  /* [38][0][][] */ 41,92,-9,-48,127,1,23,-28,109,70,-20,-7,21,-37,45,11, 
  /* [39][0][][] */ -40,70,0,-127,-11,16,-64,34,54,-105,-30,-22,35,84,33,33, 
  /* [40][0][][] */ -32,-10,48,-89,22,9,-33,-49,-127,14,1,-3,18,-111,104,-98, 
  /* [41][0][][] */ -13,-21,-38,-12,-12,-34,15,-18,-17,15,-48,-6,-127,19,30,35, 
  /* [42][0][][] */ 107,89,-16,-15,-47,-45,-21,-48,-2,20,89,-35,-48,56,120,-127, 
  /* [43][0][][] */ -31,113,-44,-1,79,-8,63,-56,51,77,-49,14,53,-127,-86,-68, 
  /* [44][0][][] */ -40,-6,15,-47,58,-4,-112,-127,-26,-10,31,14,-2,-32,77,-68, 
  /* [45][0][][] */ -21,60,-127,-54,35,-97,17,-93,14,36,12,-65,38,-38,71,-37, 
  /* [46][0][][] */ 11,1,-22,-88,-13,12,21,-24,-119,-19,7,4,-13,-127,58,-21, 
  /* [47][0][][] */ 19,45,31,-19,127,-12,-41,20,-51,44,10,32,7,6,112,-29, 
  /* [48][0][][] */ -127,-71,-22,46,64,27,6,-18,4,-28,-126,52,73,8,63,39, 
  /* [49][0][][] */ 6,10,94,85,126,-17,39,24,-113,-26,-24,-55,10,127,7,-60, 
  /* [50][0][][] */ 17,-11,-83,-23,1,-127,-42,-16,7,-5,3,-37,43,-27,-13,16, 
  /* [51][0][][] */ 14,29,34,18,18,7,10,33,-127,56,-7,-115,14,-101,-12,90, 
  /* [52][0][][] */ -9,63,-12,50,59,2,29,39,67,100,-33,-60,26,127,64,26, 
  /* [53][0][][] */ -1,-49,-28,-12,-106,-9,-73,9,52,33,6,-74,20,-127,110,34, 
  /* [54][0][][] */ 52,-2,-36,11,123,81,-127,-49,-67,-3,-31,-71,10,-43,-35,-42, 
  /* [55][0][][] */ 53,-15,2,-4,29,-37,-67,-127,-32,-71,-59,-7,-5,-43,12,6, 
  /* [56][0][][] */ -10,1,28,-30,-15,-33,-105,61,-6,127,10,-18,20,14,-8,23, 
  /* [57][0][][] */ 6,22,-43,-13,-55,-51,125,99,-22,24,-19,-1,35,29,127,-7, 
  /* [58][0][][] */ 48,12,-127,19,88,93,-26,61,-106,-31,-13,-5,-20,34,10,-26, 
  /* [59][0][][] */ -102,72,118,28,-75,-48,121,127,30,-12,30,-13,23,20,72,-1, 
  /* [60][0][][] */ 4,3,-40,5,33,-127,-29,-1,-11,-8,-10,-7,33,-7,6,-11, 
  /* [61][0][][] */ 17,3,26,127,93,26,22,8,-103,-3,3,35,-6,14,34,-56, 
  /* [62][0][][] */ -52,127,10,-66,-33,-19,-80,37,-23,-47,-81,-52,-4,-95,-53,-32, 
  /* [63][0][][] */ -43,30,-33,127,-74,20,-71,-34,-68,-21,-32,-46,22,61,37,41, 
  /* [64][0][][] */ 15,-3,0,45,-15,16,-12,82,13,-18,-22,-62,-14,-127,59,12, 
  /* [65][0][][] */ -10,-46,-3,-112,26,-33,71,-21,-14,36,5,-127,-28,2,13,-26, 
  /* [66][0][][] */ 32,-25,74,-3,13,-6,-9,88,11,-67,36,55,7,127,31,57, 
  /* [67][0][][] */ -9,58,-5,-127,-9,14,-84,37,89,-111,-32,-5,43,79,74,32, 
  /* [68][0][][] */ -20,46,127,23,22,5,-2,0,-39,-20,-29,-33,8,-13,71,-41, 
  /* [69][0][][] */ 127,66,-29,-15,-114,-45,-15,-46,3,17,105,-76,-80,44,64,-72, 
  /* [70][0][][] */ 46,1,-65,-17,-39,25,68,127,-41,82,-27,-9,0,54,-22,36, 
  /* [71][0][][] */ 10,1,0,19,6,-90,-2,21,-34,17,-89,19,-127,9,43,33, 
  /* [72][0][][] */ 15,15,-127,22,2,16,42,89,-28,-33,11,-16,16,20,2,15, 
  /* [73][0][][] */ -46,14,39,9,36,-35,-74,-127,23,-97,40,-30,16,-49,32,-6, 
  /* [74][0][][] */ -2,30,42,121,9,-8,-103,73,-63,24,-43,55,36,-127,34,-89, 
  /* [75][0][][] */ -21,37,-40,13,37,8,6,-7,103,31,-22,11,24,127,-16,-17, 
  /* [76][0][][] */ 1,-10,1,23,5,-17,-17,67,21,-31,-26,-127,-2,-3,4,11, 
  /* [77][0][][] */ -29,32,-24,127,-56,43,82,91,26,47,-1,43,-5,-17,-29,-32, 
  /* [78][0][][] */ 23,0,19,-103,20,-18,-27,50,41,-61,10,-41,17,127,-12,49, 
  /* [79][0][][] */ -10,-73,-73,-60,-79,1,10,-86,127,42,21,48,20,23,31,-38, 
  /* [80][0][][] */ -39,-19,127,-107,14,-9,-19,-87,-33,61,-12,-67,36,88,76,-55, 
  /* [81][0][][] */ -41,38,-127,21,59,-113,-7,50,-6,-37,62,-10,18,-3,3,6, 
  /* [82][0][][] */ 127,-14,-8,11,6,-92,-18,17,-19,-17,-87,-15,91,-1,-2,30, 
  /* [83][0][][] */ -33,74,-119,-80,-46,-10,31,-121,72,60,-47,-127,11,48,44,108, 
  /* [84][0][][] */ -43,52,86,-21,18,-17,55,-127,-32,62,-25,-47,52,72,44,-27, 
  /* [85][0][][] */ -81,127,32,-119,-69,-27,-36,-3,-52,-7,-72,30,16,-5,-93,-31, 
  /* [86][0][][] */ 7,-2,-36,18,-34,-19,127,13,3,-38,-15,-5,3,13,73,-12, 
  /* [87][0][][] */ -18,-35,11,-112,4,-21,30,-20,-4,8,-6,-127,-6,-9,5,-30, 
  /* [88][0][][] */ 110,-58,72,-8,43,-120,1,37,-35,30,-127,-44,22,47,94,-18, 
  /* [89][0][][] */ 24,-16,-34,-45,31,-8,-31,-15,-41,5,33,-60,127,-1,34,-48, 
  /* [90][0][][] */ -4,-43,24,-45,84,3,-52,83,41,-88,-49,-31,-26,102,10,-127, 
  /* [91][0][][] */ -36,-15,-21,-39,19,-27,-30,-99,-2,50,-16,-127,-55,-16,3,9, 
  /* [92][0][][] */ -23,18,36,15,-4,-127,15,-1,3,-26,-1,-22,-1,-32,14,11, 
  /* [93][0][][] */ 42,-36,127,-32,-66,54,40,-40,-15,53,-61,8,-34,15,45,1, 
  /* [94][0][][] */ 27,-5,-16,-19,14,2,-14,-4,-27,-21,20,-78,127,-23,28,-16, 
  /* [95][0][][] */ 127,91,4,48,-87,-8,-75,-14,-15,-36,100,-26,-36,36,90,-98, 
};
const TfArray<4, int> tensor_dimension7 = { 4, { 96,1,1,16 } };
const TfArray<96, float> quant7_scale = { 96, { 0.00077232281910255551, 0.0013219070388004184, 0.00076205626828595996, 0.0010769745567813516, 0.0009088380029425025, 0.001084623159840703, 0.00052553170826286077, 0.00080686563160270452, 0.00059106992557644844, 0.0012658520136028528, 0.00053258036496117711, 0.0008229805389419198, 0.0010153463808819652, 0.0034740970004349947, 0.00045442045666277409, 0.00038383519859053195, 0.00042090233182534575, 0.0005708630196750164, 0.0012000274145975709, 0.00085365166887640953, 0.00032594686490483582, 0.00030795563361607492, 0.00036248692777007818, 0.00035390781704336405, 0.00039541398291476071, 0.0013371892273426056, 0.0015507576754316688, 0.0011595656396821141, 0.00071008212398737669, 0.0010912545258179307, 0.00075141305569559336, 0.00068010791437700391, 0.00065158447250723839, 0.00084466161206364632, 0.00084164075087755919, 0.00065699161496013403, 0.00050613941857591271, 0.0005775523604825139, 0.00074853753903880715, 0.00096323760226368904, 0.00037721835542470217, 0.001132783479988575, 0.0010502988006919622, 0.00050406588707119226, 0.00086484657367691398, 0.00051894021453335881, 0.00072240945883095264, 0.000585684843827039, 0.0008584788884036243, 0.00073597958544269204, 0.00065635604551061988, 0.00058912683743983507, 0.0012886883923783898, 0.00075287080835551023, 0.00090918212663382292, 0.00086521630873903632, 0.0011886964784935117, 0.00077542674262076616, 0.00099779176525771618, 0.00039784950786270201, 0.0024762975517660379, 0.0012366002192720771, 0.00068710255436599255, 0.00092351803323253989, 0.0017216097330674529, 0.00082057103281840682, 0.00031379747088067234, 0.00059127021813765168, 0.0012422977015376091, 0.0012058764696121216, 0.00066071358742192388, 0.00060980021953582764, 0.0019065883243456483, 0.00085271772695705295, 0.00084971560863777995, 0.00059597782092168927, 0.00067365169525146484, 0.00026677013374865055, 0.00037768145557492971, 0.00069409300340339541, 0.00050993479089811444, 0.00050783233018592, 0.00050317967543378472, 0.00059903145302087069, 0.00043231027666479349, 0.00085579568985849619, 0.0014258907176554203, 0.00068675976945087314, 0.00036835522041656077, 0.0013954277383163571, 0.0007901484495960176, 0.00073707749834284186, 0.00093894125893712044, 0.0015773646300658584, 0.00093898101476952434, 0.00061184988589957356, } };
const TfLiteAffineQuantization quant7 = { (TfLiteFloatArray*)&quant7_scale, (TfLiteIntArray*)&g0::quant6_zero, 0 };
const MODEL_SECTION(EI_MODEL_SECTION) ALIGN(16) int32_t tensor_data8[16] = { -5861, 15231, -21364, -9198, -12068, 8878, 35011, -52389, -4168, 19222, 25113, 5170, -15590, 16209, -2532, 19349, };
const TfArray<1, int> tensor_dimension8 = { 1, { 16 } };
const TfArray<16, float> quant8_scale = { 16, { 0.00078618625411763787, 0.00034415631671436131, 0.0002493405481800437, 0.00020215827680658549, 0.00039448682218790054, 0.00028154815663583577, 0.00033096317201852798, 0.00027708598645403981, 0.00032223036396317184, 0.00028570278664119542, 0.00071856891736388206, 0.00058985064970329404, 0.00043151516001671553, 0.000224583491217345, 0.00051130587235093117, 0.00044514687033370137, } };
const TfArray<16, int> quant8_zero = { 16, { 0,0,0,0,0,0,0,0,0,0,0,0,0,0,0,0 } };
const TfLiteAffineQuantization quant8 = { (TfLiteFloatArray*)&quant8_scale, (TfLiteIntArray*)&quant8_zero, 0 };
const MODEL_SECTION(EI_MODEL_SECTION) ALIGN(16) int8_t tensor_data9[16*1*1*96] = { 
  /* [0][0][][] */ -23,-19,1,-31,17,-14,-42,-5,18,3,-7,2,-11,-17,-19,14,-4,5,-9,5,-4,-41,-5,2,-12,9,-5,127,28,-34,31,-13,-6,0,14,-1,-6,16,-33,-4,-20,9,2,23,-4,14,4,21,19,-7,-5,7,21,-9,-17,67,11,5,-30,-26,-11,13,-6,-24,-38,-54,-20,31,6,-4,11,-21,-1,-27,-8,-16,-35,18,6,4,-4,-28,18,12,-12,-12,0,-80,-2,-16,11,-1,37,-27,-27,-14, 
  /* [1][0][][] */ 53,-63,-90,-77,126,-7,88,58,-40,-97,-63,-23,0,4,-77,13,-69,-11,76,45,55,68,5,-47,65,6,-5,-91,27,-13,-38,65,0,35,11,23,4,-25,-11,28,-13,38,-30,9,-26,90,34,-22,25,-66,14,-60,-32,23,59,7,-72,-7,-44,-52,49,-12,10,-47,-101,127,-33,-11,-16,-34,-19,54,48,-103,-39,-3,74,-56,40,21,3,-31,47,17,-58,28,-42,18,40,-31,-15,-12,43,20,34,124, 
  /* [2][0][][] */ 20,59,-52,11,67,74,36,92,-4,-111,-10,-25,15,8,29,3,16,-16,-31,47,69,27,101,13,89,38,33,-42,23,6,86,-48,69,28,-53,57,-127,-67,18,19,61,-53,7,9,49,-5,43,41,-13,63,-37,-4,70,-43,3,81,-10,38,23,12,24,25,45,-13,31,-4,-17,-15,-55,29,-4,-15,-41,-72,0,65,101,45,15,23,18,-32,-3,-7,-23,37,3,35,-7,23,7,-43,18,-4,-64,-7, 
  /* [3][0][][] */ 84,13,102,-4,38,-8,11,-14,-3,-57,18,-47,-2,10,52,116,40,14,36,-12,127,7,38,29,72,-18,8,19,20,30,-4,95,-87,11,40,3,-26,-61,7,40,-60,-19,83,36,22,74,-32,-88,-58,-36,-43,57,3,-114,25,6,-106,91,58,35,5,121,1,-51,59,69,14,-53,36,7,34,-75,54,-9,50,3,3,33,56,62,-22,-68,30,12,-40,28,23,50,31,18,10,35,40,125,45,-28, 
  /* [4][0][][] */ 28,-11,16,-6,127,63,0,-13,-47,-55,-41,-8,-49,15,3,32,17,-91,-26,100,23,13,47,-1,47,-2,33,-50,11,-13,66,-16,104,-12,-29,36,41,11,8,13,-14,6,-17,4,21,-60,18,-15,36,12,-21,25,-9,-65,10,-29,43,21,-51,22,8,77,55,40,39,37,-20,1,-61,31,77,85,23,-62,-40,-21,48,42,75,-32,12,-45,38,6,-72,8,33,48,-39,28,-14,-75,23,27,23,9, 
  /* [5][0][][] */ 16,-10,-16,7,27,-22,49,-17,-25,-40,-10,14,1,33,-6,6,-1,-11,26,-15,56,8,-32,76,23,-1,24,-110,-3,30,27,32,3,5,7,-51,22,22,-12,11,2,-13,32,-5,-10,0,14,-17,-14,-2,18,-13,-5,-38,3,-49,-23,18,-38,5,79,32,12,53,4,59,6,85,13,94,19,46,5,16,-6,66,-18,-11,13,16,-1,-12,4,32,-4,33,-28,127,-4,39,-7,-31,17,30,-55,22, 
  /* [6][0][][] */ 18,-96,5,-46,-12,-2,31,5,14,-2,-9,-91,-48,-26,-27,59,30,-4,-17,4,-81,21,-9,-1,-54,-7,-33,-10,-10,16,17,-9,47,19,71,-25,-5,-17,14,-85,-48,110,21,-67,-18,-26,-51,47,-35,26,-5,84,-13,-41,-19,-36,26,-97,-5,-1,-19,70,33,-86,38,-36,10,-24,12,-6,127,-25,-43,3,-15,36,-109,9,32,-6,33,52,14,-12,-45,5,58,39,8,5,58,-37,-24,-7,-36,-16, 
  /* [7][0][][] */ 0,119,39,21,127,55,26,-45,-23,-34,52,-13,-40,0,28,56,36,-39,7,32,3,-45,22,-6,-20,14,-6,13,29,-27,-4,10,29,3,-30,-13,22,-4,2,77,-59,42,26,-15,-31,-20,6,10,-36,-35,37,16,33,-19,-37,17,70,5,0,8,-23,-23,-14,-16,-55,79,-33,-99,-6,-15,-3,40,-12,-32,19,28,38,62,54,-20,-39,-39,-3,-24,-30,60,9,7,-43,33,-34,-36,-59,-9,33,-1, 
  /* [8][0][][] */ -5,15,57,11,-127,-32,47,-12,34,80,47,9,-15,40,13,-4,-62,20,10,-10,-39,0,-107,63,18,-36,58,-9,-4,5,-2,43,73,-14,2,-7,-15,-3,0,26,9,-42,29,21,-36,-14,36,-14,-98,0,14,7,-65,-33,-30,80,0,-53,-82,-34,23,-45,-14,-23,0,66,-12,-44,22,-38,-47,-20,32,43,46,-23,-6,-60,-18,14,-94,10,-21,3,41,10,50,24,26,-25,34,60,0,-33,39,3, 
  /* [9][0][][] */ -7,-83,-11,18,65,61,-24,-42,38,-42,66,79,-23,36,75,-127,12,-11,-8,0,-15,-46,25,-13,5,10,4,30,-38,-5,16,-10,26,-3,-88,32,12,43,-12,48,36,-71,-10,67,11,-44,-45,-58,19,18,-18,-102,40,1,-27,-8,-1,78,-38,-7,20,-73,-36,110,-84,-29,-12,-11,-6,-4,-61,-67,37,5,-10,6,89,-57,11,-7,5,-31,9,28,6,-74,16,-29,20,-32,-41,23,-38,-30,-2,-31, 
  /* [10][0][][] */ -49,-22,-20,-35,-23,-8,55,-19,41,17,28,27,31,-17,-2,13,4,25,-32,-11,-11,20,16,13,-29,-9,5,-127,26,-44,52,-42,-6,29,-8,-3,-2,42,2,-8,11,-30,18,-63,8,2,20,27,-4,31,-30,-24,-25,-14,-8,-52,18,9,-6,-28,20,-3,-7,4,-41,82,-15,-35,17,-37,0,-17,-28,1,21,67,-16,38,-12,15,-33,0,-12,19,2,-7,0,120,-11,-8,24,19,11,-38,54,-50, 
  /* [11][0][][] */ -69,34,10,-1,16,-58,-4,7,-50,-3,-4,21,35,44,-31,-23,50,0,-54,-56,51,-10,10,10,88,12,80,-4,-41,16,-15,27,17,19,-8,4,-5,9,20,9,6,-11,-5,37,97,15,85,-5,48,34,-9,25,7,-79,28,28,-95,3,-45,-46,6,1,12,17,4,-21,32,9,25,4,3,44,-18,23,23,4,16,82,-112,68,-41,-10,-66,-55,127,17,35,-26,11,54,-24,-74,-10,45,-18,-2, 
  /* [12][0][][] */ 4,2,-43,-6,63,19,10,-6,-22,26,17,-6,9,3,23,-16,-47,-17,17,-24,4,-2,-28,50,-7,38,-14,88,-16,44,-24,11,6,25,6,33,-22,-21,30,10,7,-17,-2,20,-8,-2,37,24,3,7,-4,-37,-25,6,-6,-18,-20,2,28,26,-4,-10,12,39,31,-63,7,69,-35,-127,-6,56,4,4,5,66,20,-23,-16,12,-2,23,-40,9,23,-12,0,-49,6,20,-2,1,-22,42,-15,21, 
  /* [13][0][][] */ -98,53,-3,-6,-54,8,10,3,-32,-42,37,35,87,8,-14,-2,-18,32,-41,3,19,-27,49,-52,58,40,1,2,-10,-18,-22,-91,-99,-24,24,4,11,40,44,-6,-49,93,9,1,43,-5,-19,-5,53,-20,31,90,57,-52,67,-38,-3,58,16,-7,10,35,-24,32,14,-14,9,16,18,12,26,-127,20,-11,-81,2,56,48,-40,-60,90,-28,15,-36,22,-42,92,6,-20,-20,-18,8,53,-36,-8,34, 
  /* [14][0][][] */ -31,16,-21,-40,26,8,-18,27,-89,8,7,7,-14,-72,-80,-18,-90,-18,66,18,29,16,21,-109,-46,18,-49,-29,25,-16,-11,-31,-74,-21,7,7,-19,0,-7,2,7,81,-90,-26,-62,24,7,12,127,-14,23,-12,27,69,-104,27,-32,23,-98,10,9,5,50,20,-11,28,-1,0,-52,31,65,45,27,-17,-29,27,44,-100,-41,-111,1,-31,-5,43,37,-75,-47,3,-59,23,33,72,2,21,11,-33, 
  /* [15][0][][] */ -52,-87,-10,-39,4,2,-16,-77,-22,9,-7,-23,26,-25,49,-9,-91,4,-28,14,-43,-3,-84,-53,-37,-9,-28,18,-19,-16,52,-97,-25,31,23,-16,0,30,-90,-2,5,-69,-2,7,-49,-53,40,45,44,8,-13,-127,2,61,-10,32,51,-30,-16,41,-3,-17,33,-7,6,-13,-13,-15,-19,7,-8,16,-37,-2,-1,-37,-55,-4,11,-1,-6,36,-12,63,-16,-58,-30,-30,-43,49,33,103,-47,-22,2,-19, 
};
const TfArray<4, int> tensor_dimension9 = { 4, { 16,1,1,96 } };
const TfArray<16, float> quant9_scale = { 16, { 0.033412914723157883, 0.014626642689108849, 0.010596972890198231, 0.0085917264223098755, 0.016765689477324486, 0.0119657963514328, 0.014065934345126152, 0.011776153929531574, 0.013694790191948414, 0.012142368592321873, 0.030539177358150482, 0.025068651884794235, 0.01833939366042614, 0.0095447981730103493, 0.021730499342083931, 0.018918741494417191, } };
const TfLiteAffineQuantization quant9 = { (TfLiteFloatArray*)&quant9_scale, (TfLiteIntArray*)&g0::quant8_zero, 0 };
const MODEL_SECTION(EI_MODEL_SECTION) ALIGN(16) int32_t tensor_data10[96] = { 21563, 57208, -3026, 139, 14212, -3483, 719, -352, 4307, 13211, -4552, 227, 541, 5884, 4958, -10347, -4297, -1158, 169, 14604, -8053, 16805, -1205, 6226, 27417, -201, -4859, 16281, 14114, -18766, 1651, 23238, 24533, -13292, 1860, 309, 16, 880, 3514, -7620, -6018, -1297, -8220, -142, 29148, -710, 12132, -2156, -15050, 497, -155, 122, -2545, 21001, -4169, 14093, 17756, 144, 35594, 377, -9137, -2065, 1649, -86, -958, 11582, -1223, -8750, -3121, 3694, -496, -2391, 2120, -369, -2052, -6844, 271, -1304, 41615, -8294, -5305, -12118, -743, 149, 56870, -13408, -10759, -27815, -7401, 7996, -2786, 31287, -46, -1446, -3415, 788, };
const TfArray<96, float> quant10_scale = { 96, { 0.00010624421702232212, 9.847064211498946e-05, 0.0001113113175961189, 0.00022098117915447801, 0.00026420829817652702, 0.00023785441590007395, 6.1795282817911357e-05, 9.7519783594179899e-05, 0.00025879874010570347, 0.00018933606042992324, 0.00024821693659760058, 0.00011004268162650988, 0.00026671364321373403, 0.00021699008357245475, 0.00044691699440591037, 0.00011451794853201136, 0.00019549226271919906, 0.00020432137534953654, 0.00016420097381342202, 7.6098505815025419e-05, 9.3906033725943416e-05, 4.2161522287642583e-05, 0.00013738287088926882, 0.00011398521746741608, 8.8579181465320289e-05, 0.0001189489194075577, 0.00016494609008077532, 0.00019161096133757383, 7.4740120908245444e-05, 0.00047820137115195394, 0.00037881525349803269, 0.0002584921894595027, 0.00011238907609367743, 0.00010963401291519403, 0.00023529391910415143, 0.00047314935363829136, 0.00040718636591918766, 0.0002731489366851747, 0.00023641908774152398, 0.00010463904618518427, 0.00021385941363405436, 0.00020341148774605244, 0.00032351547270081937, 0.00010349204239901155, 0.00035353013663552701, 9.3985494459047914e-05, 0.00010445858060847968, 0.00030888232868164778, 0.00063095358200371265, 0.00011400147923268378, 0.0005224073538556695, 0.0001577350776642561, 0.00022540369536727667, 0.00013540302461478859, 0.00021538705914281309, 0.00012818064715247601, 0.00016351572412531823, 0.00046723437844775617, 4.5072662032907829e-05, 0.00016328527999576181, 0.00032217524130828679, 0.00031649292213842273, 0.00011209281365154311, 0.00015261179942172021, 0.00012466484622564167, 0.00014702863700222224, 0.00028285902226343751, 0.00024771573953330517, 0.00021538868895731866, 0.00011479036038508639, 0.00018726276175584644, 9.5533679996151477e-05, 0.0003020569565705955, 0.00013303694140631706, 0.00038232930819503963, 0.00026363943470641971, 0.00014533063222188503, 8.6587140685878694e-05, 6.1239094065967947e-05, 0.00014711846597492695, 0.00025893282145261765, 0.00022866329527460039, 0.00016445758228655905, 0.00027030135970562696, 6.3796942413318902e-05, 0.00010225993173662573, 7.4549199780449271e-05, 0.00048218519077636302, 0.00024895783280953765, 0.00012555086868815124, 0.00031602827948518097, 3.7634345062542707e-05, 0.00014287568046711385, 0.00010939137428067625, 0.00032322652987204492, 0.00027220998890697956, } };
const TfLiteAffineQuantization quant10 = { (TfLiteFloatArray*)&quant10_scale, (TfLiteIntArray*)&g0::quant6_zero, 0 };
const MODEL_SECTION(EI_MODEL_SECTION) ALIGN(16) int8_t tensor_data11[1*3*3*96] = { 
  /* [0][0][][] */ -46,-72,-10,127,21,70,71,-58,-12,-19,-16,-6,-29,-3,37,0,-10,-38,26,20,26,-127,127,5,-73,10,50,-27,-122,-127,40,23,10,27,61,-17,-33,-9,30,-8,-12,28,-106,69,24,-69,38,47,-18,54,-25,19,3,-9,17,47,-95,-50,-65,-22,-9,4,9,40,68,-24,74,16,-8,15,20,127,21,22,26,-2,-12,20,127,-5,-16,11,-25,19,122,22,-78,-16,2,-33,-16,-40,1,-28,-16,28, 127,-127,79,106,-44,127,31,-115,71,2,-18,127,127,-97,-12,13,9,127,127,-113,127,-79,81,68,-127,-114,-63,-33,-53,46,-58,-21,-91,56,-127,-88,-45,-14,-53,62,2,127,127,82,-49,-115,-113,-49,-15,-127,43,85,69,-33,48,82,-49,43,-86,-117,-42,-39,-61,65,74,-61,26,31,-80,31,-17,92,116,127,14,19,1,60,-31,54,62,127,127,-23,-11,81,-111,127,-120,-98,4,-127,-89,-127,-39,108, -75,-12,34,-83,14,-22,64,-9,82,-36,-27,21,-18,-4,-8,-9,-11,-10,7,-6,-17,-102,27,0,-122,97,5,-55,118,49,-14,9,1,18,14,-30,-13,33,20,13,26,13,-117,67,19,-25,38,15,-14,12,-17,3,-10,-1,-2,20,-66,6,-36,48,4,45,33,2,-7,-38,-31,24,9,2,-2,38,8,-26,-7,2,-14,-6,-82,-1,-22,-21,-20,1,-111,11,-33,-22,-52,28,-27,-35,30,-27,-15,2, 
  /* [0][1][][] */ -64,-76,78,-37,-48,89,20,127,-49,-25,-1,-122,26,-116,77,34,-4,-57,-17,91,50,-71,48,54,-101,-12,127,-23,-21,59,120,-107,-127,89,-86,-56,-39,28,-28,94,-49,-25,-6,48,-48,127,-23,67,15,96,19,-2,15,-58,32,30,127,124,-73,-87,127,-30,-36,127,72,-37,-11,0,127,36,127,97,-42,103,-5,11,13,15,-27,10,-46,119,-75,110,3,35,-57,30,80,-127,-31,-5,127,-70,-23,2, 67,126,60,-115,127,80,89,38,-127,127,127,-39,-67,-127,-127,127,127,-62,-125,-47,97,87,-125,127,-110,-90,-40,127,-127,108,-127,-127,-86,127,107,127,127,-127,-104,127,-65,-96,105,-127,-127,-37,-127,-127,127,-113,86,44,127,127,127,-127,101,-127,-127,127,20,-78,-127,-97,-127,127,-127,127,-120,-127,-107,-87,-127,-79,127,127,-127,127,-74,127,127,34,-43,-127,57,127,93,45,127,14,127,5,-67,35,127,-127, -55,-14,-47,37,-57,-95,35,-26,20,-37,-27,98,2,93,13,14,-5,62,-6,127,-1,-92,-45,9,-84,103,-72,-21,-74,-16,17,-64,-72,41,5,-17,-29,40,-65,41,127,-3,-39,30,-39,-59,18,46,8,121,-10,5,-37,-76,3,18,99,2,-1,21,-31,127,90,-50,-43,14,37,-7,-71,119,-18,-91,-2,-53,-19,-19,23,14,75,-38,-73,-38,50,12,-51,-16,71,23,14,63,-45,20,-44,96,-26,-3, 
  /* [0][2][][] */ -66,3,0,-22,11,-47,69,26,57,-30,-37,-2,19,19,-25,8,-5,63,7,4,-54,-84,1,-6,-23,-51,35,-70,87,38,26,26,13,-9,-12,-45,-9,34,-5,1,-14,-5,-68,106,3,30,11,38,-15,-31,12,-20,25,-3,17,13,-75,23,-16,12,17,4,-21,-1,-3,-47,-48,16,-32,13,28,31,13,-19,29,4,19,6,-75,-8,-8,-11,18,16,-127,7,9,-44,-58,-51,-27,-51,12,54,-19,-9, 122,34,-127,-36,-72,-26,41,33,-64,-28,-19,-109,-76,114,-12,48,4,-51,-10,-125,84,-54,-40,2,-121,127,-50,20,-40,-20,-11,-3,-65,18,28,4,-22,-30,127,58,11,-14,61,-34,-37,74,-71,-43,-33,-5,-127,-127,-49,-29,4,38,-70,-8,10,38,-6,-14,7,-45,-56,33,61,-21,112,111,-22,-74,12,-57,4,3,101,4,51,22,14,-97,-48,4,2,10,127,39,-60,39,-18,-113,42,81,-11,25, -55,15,-16,26,14,-65,-127,-1,-9,-11,-15,6,16,-26,19,6,-4,-15,6,19,-48,-75,13,2,17,-94,19,3,-52,-38,-6,17,40,-20,-5,-25,-37,4,44,-42,22,-2,-50,-33,4,66,22,17,-9,-4,10,-9,18,4,-1,-6,-66,-14,0,-40,-11,14,83,-10,34,-1,-2,30,1,6,-3,20,-18,16,1,14,34,1,79,-12,4,-8,-7,-17,71,0,40,-39,59,43,-19,-62,-8,4,-16,-17, 
};
const TfArray<4, int> tensor_dimension11 = { 4, { 1,3,3,96 } };
const TfArray<96, float> quant11_scale = { 96, { 0.0045153792016208172, 0.0041850022971630096, 0.0047307307831943035, 0.00939169991761446, 0.011228851974010468, 0.010108812712132931, 0.0026262993924319744, 0.0041445908136665821, 0.010998945683240891, 0.0080467825755476952, 0.010549219325184822, 0.0046768137253820896, 0.011335330083966255, 0.0092220781370997429, 0.01899397186934948, 0.0048670126125216484, 0.0083084208890795708, 0.008683658204972744, 0.0069785411469638348, 0.0032341864425688982, 0.0039910064078867435, 0.0017918646335601807, 0.0058387718163430691, 0.0048443716950714588, 0.003764615161344409, 0.005055328831076622, 0.0070102089084684849, 0.0081434659659862518, 0.0031764551531523466, 0.020323557779192924, 0.016099648550152779, 0.010985917411744595, 0.0047765355557203293, 0.0046594454906880856, 0.0099999913945794106, 0.020108846947550774, 0.017305420711636543, 0.011608829721808434, 0.010047811083495617, 0.0044471593573689461, 0.0090890247374773026, 0.0086449878290295601, 0.013749407604336739, 0.0043984116055071354, 0.015025030821561813, 0.0039943833835422993, 0.0044394894503057003, 0.013127499260008335, 0.026815526187419891, 0.0048450627364218235, 0.02220231294631958, 0.0067037404514849186, 0.009579656645655632, 0.0057546282187104225, 0.0091539500281214714, 0.0054476773366332054, 0.0069494182243943214, 0.019857460632920265, 0.0019155880436301231, 0.0069396239705383778, 0.013692446984350681, 0.013450948521494865, 0.0047639445401728153, 0.0064860014244914055, 0.005298255942761898, 0.0062487171962857246, 0.012021508067846298, 0.010527919046580791, 0.009154018945991993, 0.0048785903491079807, 0.0079586673527956009, 0.0040601813234388828, 0.012837420217692852, 0.0056540695950388908, 0.016248995438218117, 0.011204675771296024, 0.0061765518039464951, 0.0036799532826989889, 0.002602661494165659, 0.0062525346875190735, 0.011004644446074963, 0.0097181899473071098, 0.006989446934312582, 0.011487807147204876, 0.002711369888857007, 0.0043460470624268055, 0.0031683410052210093, 0.020492870360612869, 0.010580707341432571, 0.0053359116427600384, 0.013431201688945293, 0.0015994595596566796, 0.0060722162015736103, 0.0046491334214806557, 0.013737127184867859, 0.01156892441213131, } };
const TfLiteAffineQuantization quant11 = { (TfLiteFloatArray*)&quant11_scale, (TfLiteIntArray*)&g0::quant6_zero, 3 };
const MODEL_SECTION(EI_MODEL_SECTION) ALIGN(16) int32_t tensor_data12[96] = { 1563, 7820, 13515, 28851, 19804, -3504, -1938, 5328, 35644, -3280, 7654, 5750, 7816, 10070, 31685, 1366, 1830, 8586, 9544, 4240, -399, 619, 10934, -1008, 3809, -25, 8673, 7880, 4243, 28281, 37763, 21030, 7271, -667, 8171, 2961, 1493, 4225, 23720, -614, 11599, 8481, 27579, -4084, 20806, 7242, 5186, 9139, 51650, 11115, -755, 7998, -3210, -150, -1847, 7367, -340, 15351, 6116, 7279, 4778, 14469, 7073, 5983, 7973, 9176, 4829, -4725, 8600, -2015, 4082, 10238, 14874, 4644, -5207, -5569, 7050, 267, 2034, -1345, 13730, 20211, 3958, 14646, 2050, 31, 8909, 97160, 7957, 10977, 4345, -387, 5359, 6649, 4216, 9996, };
const TfArray<96, float> quant12_scale = { 96, { 0.00027101387968286872, 0.00019818686996586621, 0.00013847759691998363, 8.0078956671059132e-05, 0.0001519994402769953, 0.00030087138293311, 0.0004072963201906532, 0.0003061443567276001, 6.5336702391505241e-05, 0.00041602810961194336, 0.00035434984602034092, 0.00016282894648611546, 0.00016532263543922454, 0.00022941698262002319, 7.5994721555616707e-05, 0.00037577564944513142, 0.00023991354100871831, 0.00014379712229128927, 0.00023087490990292281, 0.00028926259255968034, 0.00031076977029442787, 0.00045306628453545272, 0.00018126289069186896, 0.00063867372227832675, 0.00068103551166132092, 0.00029089476447552443, 0.00025503302458673716, 0.00018232318689115345, 0.0003741841355804354, 0.00012473728565964848, 7.5537944212555885e-05, 0.00011978698603343219, 0.00022759640705771744, 0.00031415501143783331, 0.00023995728406589478, 0.00019356307166162878, 0.0003462118620518595, 0.00036059002741239965, 0.0001156656799139455, 0.00080493139103055, 0.0001580714451847598, 0.00018353459017816931, 9.8005300969816744e-05, 0.00026945435092784464, 0.00015532302495557815, 0.00021914823446422815, 0.0003291766915936023, 0.00028886133804917336, 7.9838297097012401e-05, 0.00019071171118412167, 0.00020445667905732989, 0.00021847456810064614, 0.00032164802541956306, 0.00024872415815480053, 0.00052990223048254848, 0.00015105251804925501, 0.00019768324273172766, 0.00011705835640896112, 0.0003382187569513917, 0.00020605060853995383, 0.00032439600909128785, 9.4100236310623586e-05, 0.00020957995729986578, 0.00015758135123178363, 0.00031017180299386382, 0.00021003730944357812, 0.00026064395206049085, 0.00027782766846939921, 0.0001951585290953517, 0.0003534704155754298, 0.00026927099679596722, 0.00015360741235781461, 0.00014142766303848475, 0.00022622698452323675, 0.00029765121871605515, 0.00023979581601452082, 0.00023743539350107312, 0.00041027014958672225, 0.00035783281782642007, 0.00029242460732348263, 0.00014904623094480485, 8.3107195678167045e-05, 0.00020496819342952222, 0.00013580614177044481, 0.00052489707013592124, 0.00025866655050776899, 0.00026973083731718361, 4.0097704186337069e-05, 0.00017684657359495759, 0.00020795816089957952, 0.00028618244687095284, 0.00033327055280096829, 0.00027137136203236878, 0.00024686005781404674, 0.00026066266582347453, 0.00017148051119875163, } };
const TfLiteAffineQuantization quant12 = { (TfLiteFloatArray*)&quant12_scale, (TfLiteIntArray*)&g0::quant6_zero, 0 };
const MODEL_SECTION(EI_MODEL_SECTION) ALIGN(16) int8_t tensor_data13[96*1*1*16] = { 
  /* [0][0][][] */ -9,87,-13,80,19,30,-1,23,59,21,-56,107,25,-105,64,-127, 
  /* [1][0][][] */ 38,40,-6,-15,22,-17,121,-127,12,98,-14,-12,1,-43,57,9, 
  /* [2][0][][] */ -127,56,-7,-19,-1,29,57,45,7,59,76,10,-68,14,32,-55, 
  /* [3][0][][] */ -93,68,32,46,-59,47,96,120,-4,73,-98,-15,4,-110,-127,-67, 
  /* [4][0][][] */ 14,-12,41,103,-42,69,-20,45,30,5,11,-16,27,-4,-127,-16, 
  /* [5][0][][] */ 9,-32,67,-36,7,-38,-26,21,-79,127,-49,-124,-40,-8,-83,-27, 
  /* [6][0][][] */ 29,-15,24,1,39,61,-66,-67,-30,-18,44,-25,127,-21,-27,-12, 
  /* [7][0][][] */ 39,14,127,-8,-47,-55,27,7,-100,41,-111,-37,19,20,40,-33, 
  /* [8][0][][] */ 21,28,101,100,-46,127,-1,38,68,-6,36,-50,-33,44,-84,-113, 
  /* [9][0][][] */ 44,-111,40,23,-10,-36,12,40,127,37,66,47,-25,33,-93,-22, 
  /* [10][0][][] */ -23,-79,-3,10,-37,4,-1,16,84,127,46,-16,-30,49,55,-30, 
  /* [11][0][][] */ 41,-25,12,-121,21,-21,-123,-127,-86,20,-15,-61,62,-32,50,-53, 
  /* [12][0][][] */ -15,9,7,-37,-59,-55,-62,6,-44,-64,5,4,4,127,103,49, 
  /* [13][0][][] */ -103,-76,-46,0,28,-38,-7,-38,65,36,-1,42,25,0,127,-12, 
  /* [14][0][][] */ 2,-60,70,34,26,15,1,109,20,43,16,-57,32,23,-73,127, 
  /* [15][0][][] */ 28,-40,-5,57,-1,-15,105,26,-6,-127,-5,-51,-4,-18,4,-24, 
  /* [16][0][][] */ 64,-77,-39,13,6,-6,35,-52,127,43,106,6,22,109,88,113, 
  /* [17][0][][] */ -82,-24,83,127,92,123,-18,-18,91,-11,13,15,40,31,-51,-40, 
  /* [18][0][][] */ -15,21,-6,10,-88,-11,-10,49,-61,-10,-12,-49,-2,-127,42,-11, 
  /* [19][0][][] */ 86,-28,34,-25,94,49,-50,82,79,-67,32,24,-41,77,8,127, 
  /* [20][0][][] */ 28,-15,65,-69,-39,-6,-26,74,-38,-72,127,-16,4,29,-35,122, 
  /* [21][0][][] */ -81,7,-13,-68,11,1,-70,-45,-48,87,17,32,-127,-6,39,-19, 
  /* [22][0][][] */ 13,-25,5,-46,9,-77,24,7,-127,26,-13,-38,-28,-2,54,-20, 
  /* [23][0][][] */ 10,16,11,-18,3,-3,-2,3,-17,-13,52,-11,127,-3,1,-33, 
  /* [24][0][][] */ -43,20,0,-81,-8,-4,47,2,-28,12,-8,-127,27,-118,57,-16, 
  /* [25][0][][] */ -59,9,-27,0,48,-32,-65,-127,-46,32,-56,-45,-54,-70,-6,-32, 
  /* [26][0][][] */ 38,5,34,-103,95,-15,-17,-3,127,-5,50,-10,-13,91,6,51, 
  /* [27][0][][] */ 89,-42,22,-43,-32,-52,-5,-21,-37,15,-127,17,15,-23,-2,37, 
  /* [28][0][][] */ -127,-22,-101,-41,53,-4,49,-74,-17,36,-61,16,74,-21,-55,16, 
  /* [29][0][][] */ -64,-40,-28,127,-16,-14,31,-29,-3,10,-73,81,14,-54,17,-15, 
  /* [30][0][][] */ 27,-1,127,-2,65,46,-27,64,-15,-67,65,-26,18,12,-53,64, 
  /* [31][0][][] */ 6,-89,-2,-76,6,-65,12,-55,-19,39,116,8,-20,82,98,127, 
  /* [32][0][][] */ -19,66,-42,34,-127,14,-77,-60,-66,-40,7,46,11,51,52,70, 
  /* [33][0][][] */ 52,-23,19,127,3,-5,40,-39,-119,48,62,-29,-7,14,30,110, 
  /* [34][0][][] */ 4,15,17,-15,79,-33,-127,-12,-52,100,-39,20,-6,5,24,-26, 
  /* [35][0][][] */ 102,-22,-44,-5,16,-127,-25,-10,-27,-2,-63,-9,59,28,33,63, 
  /* [36][0][][] */ 25,3,-127,18,39,12,-20,52,-43,-30,1,13,-10,28,-29,-2, 
  /* [37][0][][] */ 1,13,127,16,-72,10,19,-56,17,53,-70,36,31,-2,31,-24, 
  /* [38][0][][] */ -112,22,-6,11,22,76,25,-18,22,-12,127,-21,-29,17,17,-39, 
  /* [39][0][][] */ -16,-10,8,24,28,-20,-127,28,9,25,9,-48,-8,-10,-5,6, 
  /* [40][0][][] */ 0,60,-6,127,31,72,57,46,-88,-55,-46,90,25,27,-64,-34, 
  /* [41][0][][] */ 24,17,-45,-29,-47,-6,127,88,-43,91,-40,12,-1,73,34,-26, 
  /* [42][0][][] */ 5,-71,-31,-17,24,3,-46,22,44,-91,127,8,-21,39,-19,53, 
  /* [43][0][][] */ -68,40,27,-5,54,19,-66,-127,-37,55,0,-16,-127,-16,21,-24, 
  /* [44][0][][] */ 27,-6,-4,24,-4,-11,-5,-26,127,1,-9,59,25,77,-13,33, 
  /* [45][0][][] */ -31,-90,12,-96,27,-46,-6,45,-20,-56,-3,34,12,116,-4,127, 
  /* [46][0][][] */ -34,14,-34,66,-89,-47,-10,-81,-127,24,-47,-2,-14,29,8,-13, 
  /* [47][0][][] */ -26,-14,-86,127,11,50,-26,-27,6,15,26,57,-6,-20,36,-12, 
  /* [48][0][][] */ -33,10,16,-127,43,-25,-10,5,-29,18,35,11,-30,33,76,7, 
  /* [49][0][][] */ -14,41,67,127,-21,41,-80,19,52,-62,-112,-28,6,-26,-61,-124, 
  /* [50][0][][] */ -12,50,39,-124,59,18,-27,57,127,-34,-34,-21,6,-42,-4,-19, 
  /* [51][0][][] */ -2,-25,6,-9,55,-15,-47,-127,11,-68,-13,-9,-14,-20,-11,2, 
  /* [52][0][][] */ 8,19,-3,31,40,2,-72,81,-65,127,-40,-32,73,85,-9,-41, 
  /* [53][0][][] */ -3,96,12,-110,-73,-8,36,-27,-90,-87,-85,44,16,-127,-125,-5, 
  /* [54][0][][] */ 6,-4,9,36,33,-26,11,-41,-4,27,-29,-41,-13,127,-57,-1, 
  /* [55][0][][] */ -106,127,81,-5,40,9,-9,3,-29,38,95,-17,-7,-27,116,-22, 
  /* [56][0][][] */ 105,-15,0,-88,88,18,-27,48,37,-34,49,98,7,11,127,77, 
  /* [57][0][][] */ -11,14,25,38,-13,36,56,127,-13,18,-17,15,21,83,21,-2, 
  /* [58][0][][] */ 6,123,12,-127,10,53,-9,25,111,-6,24,83,4,-67,40,60, 
  /* [59][0][][] */ 17,60,50,-127,-47,11,13,-16,16,11,7,-60,-13,-101,-53,6, 
  /* [60][0][][] */ 74,-1,127,-58,-45,126,43,-34,-24,40,-52,-20,38,29,28,10, 
  /* [61][0][][] */ 17,33,-63,-17,-83,15,106,127,-37,43,3,-41,-18,105,16,-21, 
  /* [62][0][][] */ 7,-16,-22,-26,-64,19,-44,13,-71,-57,10,-60,-3,-127,71,10, 
  /* [63][0][][] */ 32,2,-38,-127,46,4,-108,-116,-84,72,26,-1,36,-17,-7,-30, 
  /* [64][0][][] */ -34,-19,22,48,71,-13,-11,-127,23,-97,-1,-39,-10,-24,-22,15, 
  /* [65][0][][] */ -127,19,38,-47,19,76,33,-63,-64,31,38,-13,7,19,-20,-34, 
  /* [66][0][][] */ 74,5,127,17,-9,5,-55,37,-119,-64,80,-89,-6,36,-99,-4, 
  /* [67][0][][] */ 39,-18,-37,59,39,-64,-77,-102,50,-127,-50,-74,-78,-4,-74,33, 
  /* [68][0][][] */ 5,-33,-97,63,-87,-122,10,-66,-45,4,57,-48,-30,54,127,-16, 
  /* [69][0][][] */ -36,19,-66,36,-31,-127,31,90,8,23,31,1,103,35,-30,6, 
  /* [70][0][][] */ 20,-14,-35,-40,-27,14,127,86,-33,49,-10,-13,10,44,18,21, 
  /* [71][0][][] */ 38,-10,-51,-58,29,-2,14,121,-76,-81,-25,-12,1,-127,53,1, 
  /* [72][0][][] */ 37,31,-23,20,18,-38,-24,-127,8,48,-56,-7,53,54,48,63, 
  /* [73][0][][] */ -30,-127,-42,-45,-65,-14,29,-31,-26,-9,-20,-21,4,-38,57,12, 
  /* [74][0][][] */ -38,30,77,108,-6,7,-127,107,30,-24,-40,-38,1,2,-21,-14, 
  /* [75][0][][] */ -35,17,-31,7,-21,95,93,127,-1,47,17,-26,-115,95,79,34, 
  /* [76][0][][] */ -4,-22,-22,-44,46,-70,-92,-127,-6,-29,15,15,42,6,91,-56, 
  /* [77][0][][] */ -10,-4,-45,-35,-63,-37,5,-49,127,1,-80,-10,-21,43,32,-79, 
  /* [78][0][][] */ -78,-127,-50,111,52,56,-15,49,-7,-89,-120,40,20,2,80,70, 
  /* [79][0][][] */ 79,-40,-1,-34,127,-1,111,41,73,39,-14,26,-31,-49,32,-47, 
  /* [80][0][][] */ -11,-31,66,-120,-34,-57,-27,7,-77,-69,-30,-29,19,127,-35,17, 
  /* [81][0][][] */ 51,-14,83,86,8,47,-67,14,4,-22,-45,-13,47,30,-127,-26, 
  /* [82][0][][] */ -17,9,52,-127,39,-42,-26,-26,-14,-9,-32,-112,2,-112,-105,5, 
  /* [83][0][][] */ 48,20,-5,-52,-34,26,-7,19,-95,-9,2,-97,44,-127,7,73, 
  /* [84][0][][] */ 127,42,-4,75,-41,13,-55,22,-14,-32,101,-14,-90,7,46,-61, 
  /* [85][0][][] */ -29,-21,7,-46,25,-3,-20,107,-94,-127,-24,-14,-54,84,120,-113, 
  /* [86][0][][] */ -2,-1,-2,-10,-19,24,-37,21,-73,-32,40,18,-32,-127,14,22, 
  /* [87][0][][] */ 127,-22,31,2,-27,-24,-12,20,5,21,-109,10,37,-18,-9,37, 
  /* [88][0][][] */ 29,58,-38,-20,-57,-30,32,9,38,30,24,20,-21,-22,127,-70, 
  /* [89][0][][] */ 38,74,-118,-19,-44,-39,45,-72,61,51,23,-32,-64,7,-21,-127, 
  /* [90][0][][] */ -8,-38,-15,-91,-75,-22,127,-37,63,-86,-2,-45,14,-2,-44,1, 
  /* [91][0][][] */ 21,24,-15,-124,-38,-1,18,-49,-64,-11,72,93,40,11,72,127, 
  /* [92][0][][] */ 19,19,1,-4,60,-16,-48,-127,26,-39,5,-6,-45,-11,1,-29, 
  /* [93][0][][] */ 62,4,42,-127,-38,-32,-23,40,43,-44,89,34,-30,110,2,31, 
  /* [94][0][][] */ -72,35,-84,-5,44,-127,-3,-3,-9,-48,61,-20,-5,-9,-16,7, 
  /* [95][0][][] */ 10,84,-3,-127,7,-20,-29,15,4,-27,-62,-40,-10,13,-83,2, 
};
const TfArray<96, float> quant13_scale = { 96, { 0.00075364421354606748, 0.00055112451082095504, 0.00038508299621753395, 0.00022268616885412484, 0.00042268497054465115, 0.0008366729598492384, 0.0011326228268444538, 0.0008513361681252718, 0.00018169042596127838, 0.0011569045018404722, 0.00098538759630173445, 0.00045280001359060407, 0.00045973458327353001, 0.00063797022448852658, 0.00021132858819328249, 0.0010449691908434033, 0.00066715938737615943, 0.00039987571653909981, 0.0006420244462788105, 0.00080439081648364663, 0.00086419866420328617, 0.001259901444427669, 0.00050406175432726741, 0.001776044606231153, 0.0018938457360491157, 0.00080892961705103517, 0.00070920411963015795, 0.0005070102633908391, 0.0010405434295535088, 0.00034687350853346288, 0.0002100583806168288, 0.00033310754224658012, 0.00063290749676525593, 0.00087361247278749943, 0.00066728104138746858, 0.000538266496732831, 0.00096275721443817019, 0.0010027404641732574, 0.00032164689037017524, 0.0022383793257176876, 0.00043957022717222571, 0.00051037897355854511, 0.00027253633015789092, 0.00074930739356204867, 0.00043192732846364379, 0.000609414535574615, 0.00091538525884971023, 0.00080327503383159637, 0.00022201692627277225, 0.00053033733274787664, 0.00056855980074033141, 0.00060754118021577597, 0.00089444930199533701, 0.00069166027242317796, 0.0014735694276168942, 0.00042005174327641726, 0.0005497239762917161, 0.00032551967888139188, 0.00094052974600344896, 0.00057299225591123104, 0.00090209097834303975, 0.00026167699252255261, 0.00058280676603317261, 0.00043820735299959779, 0.00086253584595397115, 0.00058407860342413187, 0.00072480720700696111, 0.00077259220415726304, 0.00054270320106297731, 0.00098294205963611603, 0.00074879755266010761, 0.00042715648305602372, 0.00039328666753135622, 0.00062909937696531415, 0.00082771823508664966, 0.00066683202749118209, 0.0006602680659852922, 0.0011408926220610738, 0.00099507311824709177, 0.00081318384036421776, 0.00041447259718552232, 0.00023110720212571323, 0.00056998222135007381, 0.00037765412707813084, 0.0014596508117392659, 0.00071930832928046584, 0.00075007625855505466, 0.00011150500358780846, 0.00049178069457411766, 0.00057829683646559715, 0.00079582544276490808, 0.0009267695713788271, 0.00075463828397914767, 0.00068647647276520729, 0.00072485924465581775, 0.00047685857862234116, } };
const TfLiteAffineQuantization quant13 = { (TfLiteFloatArray*)&quant13_scale, (TfLiteIntArray*)&g0::quant6_zero, 0 };
const MODEL_SECTION(EI_MODEL_SECTION) ALIGN(16) int32_t tensor_data14[16] = { 856, 7225, -10071, 25525, 12831, 4069, -7151, -3984, 29531, 2413, 29192, 21531, -12522, 13021, 37402, -26068, };
const TfArray<16, float> quant14_scale = { 16, { 0.00042059557745233178, 0.00024145761562976986, 0.00028547851252369583, 0.00023272390535566956, 0.00037811140646226704, 0.0003407932526897639, 0.00025224927230738103, 0.00041372879059053957, 0.00021676905453205109, 0.00030828567105345428, 0.00035122645203955472, 0.00065227283630520105, 0.00045898457756265998, 0.00040785977034829557, 0.00050521275261417031, 0.00030543236061930656, } };
const TfLiteAffineQuantization quant14 = { (TfLiteFloatArray*)&quant14_scale, (TfLiteIntArray*)&g0::quant8_zero, 0 };
const MODEL_SECTION(EI_MODEL_SECTION) ALIGN(16) int8_t tensor_data15[16*1*1*96] = { 
  /* [0][0][][] */ -3,23,1,10,52,77,-28,-41,61,8,-2,-9,-20,3,18,80,5,-4,-14,-3,107,-71,4,-23,-23,-36,-46,-109,-7,0,46,58,127,8,0,-26,12,-22,-20,11,-19,14,12,-40,9,-14,-20,45,-3,-4,31,8,-33,-11,-8,2,34,24,-27,-35,-49,33,-1,1,16,12,49,-8,26,9,6,-55,-75,4,-1,-17,3,-89,14,-24,39,-22,-73,-59,16,-2,-2,16,-18,-7,22,-32,26,32,-25,126, 
  /* [1][0][][] */ 64,-101,22,62,-2,-86,4,-62,-45,-91,-35,28,-2,-66,-38,-62,-72,-3,44,12,-54,-122,-43,11,127,-67,-79,32,-50,95,-30,49,-1,-1,-32,36,-2,-27,15,-38,-13,-79,61,-42,-57,17,39,-34,31,44,-19,-54,56,-78,53,-36,-5,10,-59,-103,26,-80,12,-65,-7,-100,36,64,29,48,-43,-1,-91,10,-18,86,13,84,11,-27,42,14,-91,17,-86,33,-17,53,-36,11,18,-1,35,-49,57,2, 
  /* [2][0][][] */ 8,31,-20,-34,22,21,-1,14,54,-9,6,68,13,5,70,-11,3,-30,33,-5,-26,-51,16,-64,-18,-14,-18,21,-11,31,114,-47,18,-107,-6,78,27,127,-50,-26,-11,-25,1,52,-18,-71,-67,11,24,50,-53,-27,30,0,6,-55,-36,15,-6,39,9,-4,67,92,33,-84,44,-74,-6,-16,7,28,-36,-11,-23,32,10,56,2,13,34,113,46,-6,-7,17,21,11,12,27,-5,-75,-24,9,21,77, 
  /* [3][0][][] */ -26,-21,-43,20,37,0,2,-12,-8,18,0,11,11,-5,58,-13,55,-42,35,6,-18,0,-6,3,-10,14,7,-10,21,-40,46,-22,-1,-23,-17,39,-1,-9,-33,14,15,-71,12,-23,-8,19,21,13,-127,51,-25,29,-104,-40,-13,-43,28,19,1,47,-17,9,1,7,-10,-71,-42,14,37,12,-19,49,-41,-18,-15,-28,-43,-53,18,-19,23,-33,14,55,41,53,47,-3,15,13,-11,-1,2,-12,2,-20, 
  /* [4][0][][] */ 6,-12,25,-50,11,3,-43,15,-9,-43,-23,6,22,51,3,13,49,-11,3,8,-8,23,43,-12,-7,-1,21,21,2,-4,10,-16,-21,-14,14,21,41,-17,12,-14,-4,12,-65,-16,25,-9,-14,0,3,76,-27,-22,-30,-13,14,-2,-6,-27,9,34,21,6,12,-12,37,-101,32,-10,-31,7,-6,10,-13,29,-9,23,-12,68,46,-8,-7,18,127,-29,38,1,-6,4,63,15,-1,17,-27,36,3,-28, 
  /* [5][0][][] */ -5,3,-12,-13,8,1,-1,99,52,-16,-15,-20,-7,24,31,31,-9,-18,15,-26,-47,-2,-13,-53,16,6,19,61,53,5,61,35,-50,7,8,2,-38,-57,-32,-20,-36,-18,-14,-4,52,18,3,-1,-3,28,-20,4,-31,-19,12,-9,-25,-14,7,22,-49,9,-27,-39,6,3,-23,13,-18,15,6,7,28,-1,7,8,-12,29,10,113,7,-42,25,24,15,2,28,-25,-10,-12,11,-127,-12,-14,9,-99, 
  /* [6][0][][] */ -27,-7,-1,-61,-16,-10,-18,3,9,30,-14,0,31,-71,-5,-5,-23,-77,23,29,11,-8,-5,18,89,-8,-10,-19,33,-27,27,-5,-36,7,-36,-29,10,20,24,38,9,-33,-52,-29,-9,-15,52,-127,15,21,24,19,22,-6,-17,-30,51,-7,4,4,3,14,13,15,35,88,21,-25,-28,10,-6,-30,27,6,59,-13,-27,17,12,22,-15,-28,55,-30,2,64,17,-40,18,11,-52,2,-42,14,-31,15, 
  /* [7][0][][] */ 20,7,32,-17,5,20,-13,-36,6,-9,-15,-13,-18,-80,30,10,3,-39,-14,0,14,-26,-33,-4,-9,-14,-4,-41,15,4,15,-3,-21,6,-14,-39,-6,-4,-29,22,12,-6,-18,20,-2,29,-22,75,-11,14,-1,-11,-28,7,-1,-44,35,-4,17,-11,-4,5,-9,7,-15,35,6,-29,-12,-3,-1,19,-10,4,-9,12,49,8,6,-25,12,-42,45,-3,-26,127,3,-3,-42,-20,-3,13,-15,1,-9,2, 
  /* [8][0][][] */ -78,27,-67,17,44,-28,-19,42,5,69,-49,10,10,30,49,-13,-23,30,-66,-5,9,41,-45,-4,-52,-22,23,30,44,-88,-10,-1,27,31,24,13,-23,5,-73,45,14,5,-10,-127,-40,-10,56,-43,-40,42,19,65,-108,67,14,8,5,-10,-38,-11,-2,-31,-20,16,-23,22,30,-37,-4,0,43,81,-19,18,27,26,-7,-83,-11,-37,-6,-44,32,-8,-68,-7,12,-45,9,33,-42,-2,34,-27,-2,-18, 
  /* [9][0][][] */ 9,-55,-32,-26,15,3,-12,27,14,-17,-1,6,-38,-20,4,10,-8,5,24,-39,-30,14,-26,-31,18,21,25,7,-48,-29,-35,-3,-4,18,15,50,14,23,-44,24,5,5,-19,-72,7,-33,38,-127,-31,7,-4,21,-9,6,3,-4,-55,34,-20,13,5,14,-10,19,19,92,37,41,3,-12,5,-21,10,-15,-38,4,45,-11,10,13,-14,11,3,-33,-3,1,4,3,-37,40,-22,0,10,-5,34,-17, 
  /* [10][0][][] */ 30,52,-26,21,88,-118,0,-41,0,52,22,4,-8,13,24,-67,-5,52,-26,54,-72,-33,15,-46,-60,-15,-39,60,27,-1,10,50,-15,-22,47,-23,73,-13,-6,-17,-13,51,33,-18,-49,-8,-30,18,-25,-29,-45,4,-7,-6,11,-6,25,29,-27,-2,8,-6,-24,26,20,45,43,30,33,3,29,39,-69,-17,-39,-17,13,19,-7,14,58,1,-70,-51,51,-35,89,-3,-28,17,21,-18,85,45,-10,-127, 
  /* [11][0][][] */ 45,45,-35,19,7,8,48,14,-5,-12,-15,-1,17,11,47,3,3,-3,-93,-16,2,25,-9,-5,-50,-15,2,10,-3,23,-3,-5,-6,9,18,41,20,1,-12,27,-4,22,46,-87,33,-58,4,-24,-127,27,2,-44,22,23,-5,12,-15,6,8,6,24,-17,-22,8,-38,38,-11,22,7,-9,36,11,-50,-24,5,35,1,-29,-43,-3,24,14,91,51,5,-26,-8,-8,13,29,-19,-9,16,5,-10,15, 
  /* [12][0][][] */ -27,6,18,-3,-27,31,8,16,127,6,-7,0,4,9,-44,-39,23,15,20,65,48,46,-25,-22,-7,4,18,-13,-105,8,34,-41,8,-14,-2,-3,29,-13,47,-7,-54,-9,8,16,1,21,-7,-14,25,13,-45,1,-2,-9,0,6,72,-24,0,18,17,-12,16,-17,-2,26,-26,6,-4,6,0,-15,17,11,-70,8,27,8,11,-63,-31,18,38,44,-5,-18,-19,-15,23,13,-14,46,-8,-16,20,14, 
  /* [13][0][][] */ 28,-12,-22,38,28,3,10,-5,4,11,9,-2,15,-11,13,-2,18,-67,-43,13,-2,-22,11,9,7,16,6,-15,-10,-39,-4,17,-7,15,14,38,20,-3,3,21,-1,10,36,41,21,11,-6,-127,18,-4,8,9,-10,3,19,16,-16,19,15,11,6,16,-7,10,-7,-25,-21,-55,10,19,-8,-35,-18,43,-8,16,-21,-1,24,2,28,-16,0,20,22,29,8,16,-1,8,21,-10,9,15,-12,-12, 
  /* [14][0][][] */ -101,-50,33,26,29,-36,-48,9,-29,15,-8,9,73,12,-122,-11,69,-5,-22,30,-24,-4,38,6,-116,14,40,-8,-27,-79,-30,10,13,2,34,-68,10,42,13,3,18,30,-23,-39,27,125,75,47,-127,47,2,39,-49,-11,52,0,29,25,79,72,38,51,17,54,-5,-19,-45,62,1,86,-54,-83,-73,15,-4,53,8,47,97,-1,77,13,15,20,43,6,48,45,27,41,85,-4,-21,26,20,-30, 
  /* [15][0][][] */ 94,-32,43,22,-22,75,-4,-31,-15,65,14,-2,-101,-12,-20,29,-8,43,41,-9,15,18,-97,87,19,11,47,-39,26,36,-70,-73,0,-22,33,-13,10,-39,-72,-120,13,20,-8,14,3,66,-26,-28,99,-63,-20,36,47,-123,49,-98,27,-61,17,24,-127,-1,16,36,83,-19,-67,41,-38,91,-28,-10,56,31,16,-15,41,-67,84,-17,-29,-8,29,84,-28,-2,-14,-62,-9,-9,73,4,-79,55,22,-20, 
};
const TfArray<16, float> quant15_scale = { 16, { 0.017875311896204948, 0.010261948220431805, 0.012132836505770683, 0.0098907658830285072, 0.016069734469056129, 0.014483712613582611, 0.010720593854784966, 0.017583472654223442, 0.0092126848176121712, 0.01310214027762413, 0.014927123673260212, 0.027721595019102097, 0.019506843760609627, 0.017334040254354477, 0.021471541374921799, 0.012980874627828598, } };
const TfLiteAffineQuantization quant15 = { (TfLiteFloatArray*)&quant15_scale, (TfLiteIntArray*)&g0::quant8_zero, 0 };
const MODEL_SECTION(EI_MODEL_SECTION) ALIGN(16) int32_t tensor_data16[96] = { 10070, -9196, 3865, 60575, -1785, -3835, -10851, 2906, -2836, 197, 2887, -1309, 2185, -7458, 6474, -8092, -1443, 17008, 26004, 1980, 1270, -2954, -607, -1207, 16171, 196, -817, -3537, -5538, -7850, 7549, -9528, -1274, -1511, 346, 12844, 1117, -4759, 19183, 400, 22, 1635, -10967, -7983, -7161, 65919, -969, 17162, 36073, -13219, -630, 8774, 7020, -1334, -5423, 2555, -10365, 2226, 1437, -6918, -716, -1123, -13539, 230, 1334, 16755, 27943, 26705, -13459, 826, -10733, -559, 46798, 10100, -760, 318, 18824, 33410, 675, -4284, -2774, -7588, 1166, -2918, 437, -1704, 798, -631, 2142, -2912, 305, 96, -479, -573, 171, 49446, };
const TfArray<96, float> quant16_scale = { 96, { 0.0001835229923017323, 0.00012829194020014256, 0.00023562346177641302, 3.5643486626213416e-05, 0.00016213349590543658, 0.00018590851686894894, 0.00031826586928218603, 8.2026388554368168e-05, 0.00012562506890390068, 0.00044333864934742451, 0.00017625933105591685, 0.00031822669552639127, 0.00010843643394764513, 0.00036761155934073031, 0.00016327900812029839, 9.5392882940359414e-05, 9.9757635325659066e-05, 0.00028003653278574347, 5.9640929976012558e-05, 0.00022603695106226951, 5.2747465815627947e-05, 0.00018616054148878902, 0.00012481969315558672, 0.00036107536288909614, 0.0002136934781447053, 0.00026043422985821962, 0.00012965143832843751, 0.00018772641487885267, 0.00010088454291690141, 0.00010454645234858617, 0.00012188283290015534, 0.00016572771710343659, 0.00012022562441416085, 0.00013901189959142357, 0.00019507149409037083, 0.00019105248793493956, 0.00044991617323830724, 0.00011668234947137535, 6.3591076468583196e-05, 0.00013514977763406932, 0.00026505961432121694, 0.00028118907357566059, 0.00033154070843011141, 0.00015976429858710617, 0.00019332721421960741, 6.2064551457297057e-05, 0.0001885031524579972, 0.00020320365729276091, 7.4689625762403011e-05, 0.00017475291679147631, 0.00022274420189205557, 0.000151081956573762, 0.00024822191335260868, 0.0002217057190136984, 0.00025158465723507106, 0.00039515792741440237, 0.00035869106068275869, 0.00023867638083174825, 0.00011453365004854277, 9.1121029981877655e-05, 0.00030334922485053539, 0.00014004393597133458, 0.00028112283325754106, 0.00012661934306379408, 0.0001654516818234697, 0.00016215513460338116, 8.2747959822881967e-05, 7.0645626692567021e-05, 0.0003465613117441535, 0.00025447533698752522, 0.0001617622037883848, 0.00010433421994093806, 0.0001228090695803985, 0.00014743096835445613, 0.0001333241380052641, 0.00023771093401592225, 0.00051560008432716131, 5.2073144615860656e-05, 0.00028766621835529804, 0.00041888747364282608, 0.00016309399507008493, 0.0002777980116661638, 0.00013930014392826706, 0.00015407640603370965, 0.00012564999633468688, 0.00011194633407285437, 0.0001378220331389457, 0.00017059783567674458, 0.00018015476234722883, 0.00011006214481312782, 0.00019728811457753181, 0.00012154913565609604, 0.00014165007451083511, 0.00045831099851056933, 0.0068559120409190655, 7.8462471719831228e-05, } };
const TfLiteAffineQuantization quant16 = { (TfLiteFloatArray*)&quant16_scale, (TfLiteIntArray*)&g0::quant6_zero, 0 };
const MODEL_SECTION(EI_MODEL_SECTION) ALIGN(16) int8_t tensor_data17[1*3*3*96] = { 
  /* [0][0][][] */ -18,12,-21,106,-16,19,-62,-55,18,-3,102,-10,3,-8,-5,52,6,17,-34,6,76,3,33,-31,3,15,43,48,23,16,24,50,-4,31,8,-16,6,47,-60,-26,21,9,28,18,-85,-51,25,-7,-11,-18,-4,-7,49,7,-10,1,-1,-35,31,-32,25,-2,127,25,-13,-10,11,-52,66,34,-2,-10,80,-30,71,5,15,-127,29,64,5,16,127,-13,37,28,-27,-17,33,-6,-13,84,5,20,-1,11, -49,15,-9,11,52,-11,-10,-127,39,16,-127,-5,-16,-14,3,95,19,-30,-12,-14,79,-95,127,27,-60,-33,-103,-17,30,37,-48,18,123,15,-15,-2,-23,127,-60,-127,10,-19,-29,18,46,-127,127,-46,-79,50,53,6,38,-63,30,55,38,41,-96,83,127,36,4,-20,43,-37,-90,-2,37,-31,-19,44,-51,-48,111,-3,-31,-58,-33,61,-62,64,-11,8,-10,47,55,-40,-28,54,-14,71,-127,-31,24,-127, 0,-3,-25,-75,10,18,37,22,-3,0,5,60,0,-13,-12,2,-12,17,-19,18,6,25,24,-31,1,-34,12,13,-8,9,48,-81,47,19,9,-24,13,5,-32,-21,7,4,-16,9,22,-34,22,-1,6,-8,10,-6,4,7,-8,8,-8,45,10,-3,9,-16,4,-18,-26,-17,27,-49,-104,-8,41,-18,-127,-25,-9,18,10,-11,6,9,-15,22,-33,-2,-40,21,26,36,-29,-16,24,-11,19,8,-2,-48, 
  /* [0][1][][] */ -41,59,-18,41,-81,-16,-10,-46,27,97,-44,-22,-32,-25,-9,60,127,-25,-92,-12,56,-127,-26,18,-34,-49,-127,-3,38,37,-50,27,-127,-76,-59,3,66,-3,-48,46,-21,87,4,-3,35,-48,-12,-33,127,46,-3,19,44,12,-36,-18,31,9,-123,127,-39,-89,23,127,-60,-35,-80,127,-33,127,-21,50,-34,-52,40,9,-37,-69,127,48,127,38,10,-1,127,28,-93,48,-39,-36,-101,41,101,105,29,-59, 127,127,127,127,-43,-127,127,22,127,-127,16,-127,-106,127,127,127,-14,-127,-66,-127,127,24,-66,127,127,127,-56,-127,127,127,-127,127,-10,-127,-124,127,-127,-43,98,107,-127,-127,127,127,127,-108,-105,127,-13,127,-127,-127,-127,127,127,-127,127,-127,-38,41,-108,-28,-67,-68,127,127,-65,125,127,-106,-127,127,-43,127,-127,-127,-127,124,-76,127,-38,127,77,127,-36,-127,-24,-106,-127,-127,-23,-127,-21,-127,-127,115, -25,64,-38,1,127,69,-20,47,5,25,-16,-4,-28,-31,-12,-8,-103,-22,-127,39,28,77,-12,-111,-33,-42,121,73,10,37,73,9,125,-49,127,-4,57,8,-87,15,34,24,-23,2,-26,-54,-11,-44,81,16,-11,37,-6,-1,-77,-13,23,20,127,-89,1,127,0,-36,-112,-28,-69,101,15,-16,110,22,-19,-55,16,48,-29,-8,-46,-2,-45,9,41,23,-88,35,127,-47,31,-22,127,-10,-117,37,35,17, 
  /* [0][2][][] */ -2,-39,-22,-60,-3,13,40,33,-2,11,-21,49,23,-33,-8,8,38,1,7,24,-12,32,-18,-25,2,-25,6,4,-7,-5,49,-74,-38,64,-31,-27,31,-34,-61,17,9,10,-31,17,13,-80,-12,-2,-9,10,16,-10,9,4,-22,6,-4,44,-48,36,-8,-15,6,16,-6,-10,17,-54,-52,10,-24,-10,-118,-29,1,15,14,-12,53,16,24,23,-38,14,12,25,-19,11,4,25,21,-6,18,40,-7,-28, -27,-8,-29,26,-44,73,-26,67,4,-5,53,-12,127,-6,-19,-16,-3,-42,-59,26,-24,79,-46,-108,-46,-45,100,70,17,47,53,0,-121,60,-15,-23,-29,-25,-127,-3,42,-13,-13,37,-27,-44,-18,-49,-61,33,67,21,-11,-79,29,51,15,24,73,-53,20,-59,-9,0,20,-25,-127,-56,-9,-28,-63,24,36,-46,-28,-10,-44,24,-61,-1,50,36,16,9,5,64,-94,127,16,126,-33,-19,116,-22,46,83, -9,-34,-26,28,11,64,-43,17,4,-5,-1,14,11,-51,-8,-11,-45,-7,13,21,-25,3,-21,4,-4,20,-1,54,1,0,36,31,20,45,15,-24,-6,-26,-27,8,11,-11,21,8,-75,-36,-12,3,-2,-13,1,-5,-7,11,-18,-5,-2,-52,14,-29,-22,49,9,-32,-12,-1,31,-55,46,5,52,-20,32,-55,-16,21,12,9,-7,20,-30,33,83,-15,-19,53,38,-9,111,11,0,-20,10,-23,-6,-50, 
};
const TfArray<96, float> quant17_scale = { 96, { 0.0077997269108891487, 0.0054524070583283901, 0.010013996623456478, 0.0015148482052609324, 0.0068906736560165882, 0.0079011116176843643, 0.01352629903703928, 0.0034861215390264988, 0.0053390651009976864, 0.01884189248085022, 0.007491021417081356, 0.013524634763598442, 0.0046085482463240623, 0.015623491257429123, 0.0069393576122820377, 0.0040541975758969784, 0.004239699337631464, 0.01190155278891325, 0.0025347394403070211, 0.0096065700054168701, 0.0022417672444134951, 0.0079118227586150169, 0.0053048371337354183, 0.01534570287913084, 0.0090819727629423141, 0.011068454012274742, 0.0055101863108575344, 0.0079783722758293152, 0.0042875930666923523, 0.0044432240538299084, 0.0051800203509628773, 0.0070434277877211571, 0.0051095890812575817, 0.0059080058708786964, 0.008290538564324379, 0.0081197302788496017, 0.019121436402201653, 0.0049589998088777065, 0.0027026208117604256, 0.0057438653893768787, 0.011265032924711704, 0.011950535699725151, 0.014090479351580143, 0.0067899823188781738, 0.0082164062187075615, 0.0026377432513982058, 0.0080113839358091354, 0.0086361551657319069, 0.0031743089202791452, 0.0074269985780119896, 0.0094666285440325737, 0.0064209830015897751, 0.010549431666731834, 0.0094224931672215462, 0.010692347772419453, 0.016794212162494659, 0.015244370326399803, 0.010143745690584183, 0.0048676799051463604, 0.0038726436905562878, 0.012892341241240501, 0.005951867438852787, 0.011947720311582088, 0.0053813220001757145, 0.0070316963829100132, 0.006891593337059021, 0.0035167883615940809, 0.0030024389270693064, 0.014728855341672897, 0.010815201327204704, 0.0068748937919735909, 0.0044342041946947575, 0.0052193854935467243, 0.0062658162787556648, 0.0056662759743630886, 0.010102714411914349, 0.021913003176450729, 0.0022131085861474276, 0.012225814163684845, 0.017802717164158821, 0.0069314949214458466, 0.011806415393948555, 0.0059202560223639011, 0.0065482468344271183, 0.0053401244804263115, 0.0047577191144227982, 0.0058574359863996506, 0.0072504081763327122, 0.0076565775088965893, 0.0046776412054896355, 0.0083847446367144585, 0.0051658381707966328, 0.0060201282612979412, 0.019478216767311096, 0.2913762629032135, 0.0033346549607813358, } };
const TfLiteAffineQuantization quant17 = { (TfLiteFloatArray*)&quant17_scale, (TfLiteIntArray*)&g0::quant6_zero, 3 };
const MODEL_SECTION(EI_MODEL_SECTION) ALIGN(16) int32_t tensor_data18[96] = { 14096, 1602, 6974, -505, 5167, 6826, 15368, 5127, -1206, 16554, 7291, 1840, 7381, 41334, -464, -1979, 10315, 10147, 2629, -122, -469, 14239, 4307, 3948, 7670, 5418, 2834, 4380, 53, 67, 7098, 9957, 13712, 1834, 5613, -556, 24533, 5952, 862, 5410, 1390, 11604, 14248, 3944, 3127, 10282, 12454, 5289, 4477, 3122, 194, -549, 15443, 6865, 7181, 15888, -405, 6777, 2738, 4123, 18044, 7056, 3018, 6726, 6656, 4483, 6354, -956, 15621, 6745, 8019, -1019, -1688, 3014, 1990, 3499, 20844, 21198, 15471, -3040, 4187, -4917, -2323, 622, 7308, 6613, 8446, 4433, 10668, 3728, 7925, 3526, 14814, 22445, -8317, 16362, };
const TfArray<96, float> quant18_scale = { 96, { 0.00018097806605510414, 0.00021027038746979088, 0.00019998574862256646, 0.001167218666523695, 0.00029706602799706161, 0.00013807197683490813, 0.00020050362218171358, 0.0006816348759457469, 0.00042570271762087941, 0.00010985448898281902, 0.00020144977315794677, 0.00046082097105681896, 0.00037401539157144725, 0.00011662346514640376, 0.00026810175040736794, 0.00034283762215636671, 0.00022025629004929215, 0.00022750976495444775, 0.0001875656598713249, 0.00078419875353574753, 0.00044423382496461272, 0.00016876972222235054, 0.0003576579038053751, 0.00017158492119051516, 0.00022324995370581746, 0.00038926981505937874, 0.00049862859304994345, 0.0001902460353448987, 0.00067029998172074556, 0.00048290949780493975, 0.00020753743592649698, 0.00018777094373945147, 0.00014056904183235019, 0.00057655735872685909, 0.00029406248359009624, 0.00050644483417272568, 9.39041274250485e-05, 0.00044691027142107487, 0.00057892123004421592, 0.00017334209405817091, 0.00041725370101630688, 0.00016513529408257455, 0.00015024674939922988, 0.00020063502597622573, 0.0003680368245113641, 0.00031751545611768961, 0.00022468427778221667, 0.00028040510369464755, 0.00035405679955147207, 0.0002736584865488112, 0.00039257240132428706, 0.0011251375544816256, 0.00017403217498213053, 0.00023242732277140021, 0.00032240102882497013, 0.00011864937550853938, 0.00043033357360400259, 0.00025580998044461012, 0.00027679628692567348, 0.00038188570761121809, 9.5464973128400743e-05, 0.00020889885490760207, 0.0003444791364017874, 0.00041336638969369233, 0.00015359531971625984, 0.00023602883447892964, 0.00030968498322181404, 0.00036214166902936995, 0.00017295611905865371, 0.00016816282004583627, 0.00024657859466969967, 0.00046530517283827066, 0.00027686089742928743, 0.0004382854385767132, 0.00020419599604792893, 0.00035827609826810658, 0.000113601767225191, 0.00021242597722448409, 0.00010796931019285694, 0.00039521782309748232, 0.00024166126968339086, 0.000419067800976336, 0.00020360853523015976, 0.00049554894212633371, 0.00022167978750076145, 0.00023044216504786164, 0.00018985320639330894, 0.00031665372080169618, 0.00015779973182361573, 0.00043420636211521924, 0.00017153454245999455, 0.0004662326246034354, 0.0001414955040672794, 0.00012349218013696373, 0.00035203373408876359, 0.00020139360276516527, } };
const TfLiteAffineQuantization quant18 = { (TfLiteFloatArray*)&quant18_scale, (TfLiteIntArray*)&g0::quant6_zero, 0 };
const MODEL_SECTION(EI_MODEL_SECTION) ALIGN(16) int8_t tensor_data19[96*1*1*16] = { 
  /* [0][0][][] */ 39,-14,112,101,76,-49,28,-34,127,15,-40,-71,36,71,-23,-91, 
  /* [1][0][][] */ 68,70,-4,21,59,-23,3,36,75,126,-64,127,27,-30,101,-124, 
  /* [2][0][][] */ 31,-73,16,8,-57,44,-74,95,-61,-72,-2,85,4,-89,93,-127, 
  /* [3][0][][] */ 99,102,-12,37,-127,-19,-59,-42,-4,-2,115,-65,-65,73,-45,-31, 
  /* [4][0][][] */ 7,-28,-13,7,-38,6,4,57,-79,-40,10,-32,-32,-127,27,16, 
  /* [5][0][][] */ 124,-41,-23,16,-26,-119,-17,36,-10,-17,-127,0,22,14,-17,40, 
  /* [6][0][][] */ -87,-27,-19,60,-31,16,-55,-6,-127,-86,-40,-39,21,28,-9,73, 
  /* [7][0][][] */ -51,-4,-89,35,52,-127,-19,38,22,-6,37,0,-28,16,-41,-3, 
  /* [8][0][][] */ 21,-51,-9,-13,6,32,-66,-56,-17,8,-73,3,-127,4,-3,20, 
  /* [9][0][][] */ 13,-43,61,127,5,14,-10,-74,126,-52,-9,-2,11,59,-47,23, 
  /* [10][0][][] */ -65,-93,3,-27,86,42,37,96,127,-90,-116,2,112,-53,-105,86, 
  /* [11][0][][] */ 63,-14,-127,16,83,29,-26,34,-5,-53,-30,-18,-7,22,-46,3, 
  /* [12][0][][] */ 127,-67,-4,-11,-22,-74,-68,-31,76,24,-96,-29,-67,-28,-8,53, 
  /* [13][0][][] */ 58,-91,8,-69,127,12,-102,-107,29,-103,52,-8,18,-35,-9,-14, 
  /* [14][0][][] */ -48,39,-84,-66,74,-127,48,-70,45,46,-7,-101,25,86,-13,32, 
  /* [15][0][][] */ 26,-20,36,22,57,-43,-59,-29,-1,-62,-50,-8,-127,-49,-2,56, 
  /* [16][0][][] */ -84,75,-45,1,-48,43,95,102,-30,6,127,4,-32,20,46,11, 
  /* [17][0][][] */ -2,-22,-44,-31,-33,10,14,64,-6,127,-15,28,-3,73,75,7, 
  /* [18][0][][] */ -8,126,-56,-48,-4,-48,49,-93,-16,92,-41,80,10,-106,53,-127, 
  /* [19][0][][] */ 15,-24,20,21,-8,25,-4,17,3,-5,-32,-13,-127,13,-5,26, 
  /* [20][0][][] */ 118,-98,-12,-86,-34,44,33,-74,-73,37,-127,-39,32,11,35,17, 
  /* [21][0][][] */ 26,7,127,41,-3,68,18,3,22,33,-18,2,-6,62,-17,-18, 
  /* [22][0][][] */ 32,19,13,-5,-11,-10,24,127,-2,1,-1,18,-12,18,-3,31, 
  /* [23][0][][] */ -35,13,-102,8,6,-127,53,39,0,-43,-21,-17,-96,-5,-8,48, 
  /* [24][0][][] */ 22,-63,15,-73,35,-30,-35,-15,17,9,78,99,-48,89,127,40, 
  /* [25][0][][] */ -118,-127,-58,30,-6,-20,23,-25,-72,-12,-72,24,4,64,53,51, 
  /* [26][0][][] */ 7,9,48,8,-24,10,-32,70,-54,-19,-27,21,33,-127,16,-17, 
  /* [27][0][][] */ -116,37,-54,50,41,-19,5,29,42,-12,127,49,-37,-11,-25,-48, 
  /* [28][0][][] */ -14,-12,14,29,-9,-8,12,74,25,16,-14,-10,-127,-13,-3,46, 
  /* [29][0][][] */ -11,50,41,-29,33,-17,1,-29,-127,15,-33,-1,2,32,-71,2, 
  /* [30][0][][] */ 2,-15,-127,-32,22,-60,7,27,-4,-1,-16,-25,-37,-35,6,4, 
  /* [31][0][][] */ 127,-30,-116,18,34,-14,-41,65,-1,22,-88,-25,4,-10,-49,20, 
  /* [32][0][][] */ -81,36,25,51,15,96,7,7,41,8,127,35,-15,-7,2,-27, 
  /* [33][0][][] */ -14,-14,127,-14,-76,35,-12,-39,-7,7,-2,3,5,30,30,9, 
  /* [34][0][][] */ -8,-29,-39,-87,0,-12,6,12,-21,-3,-4,-127,-1,5,36,27, 
  /* [35][0][][] */ 19,-24,24,71,31,-26,31,-10,-99,26,-14,10,-25,127,-43,-22, 
  /* [36][0][][] */ -127,77,-10,-13,-6,35,32,126,10,55,127,9,20,53,26,-38, 
  /* [37][0][][] */ -28,28,127,-22,-80,-61,37,-14,31,21,-8,8,9,-47,58,12, 
  /* [38][0][][] */ 17,-22,9,38,17,-29,-73,5,-12,-27,59,-13,127,30,-4,-1, 
  /* [39][0][][] */ -40,1,-34,1,-110,-127,79,95,-20,25,38,-65,-10,38,65,113, 
  /* [40][0][][] */ 86,-6,-13,8,-2,82,-22,27,6,-3,16,3,127,29,-55,-27, 
  /* [41][0][][] */ 10,8,-30,-127,14,-18,-28,-55,2,-35,-7,-16,-3,-10,-27,39, 
  /* [42][0][][] */ 63,42,0,86,-127,-18,-93,-6,-93,-57,64,-111,-44,113,-17,15, 
  /* [43][0][][] */ 13,94,-33,127,4,18,37,-56,-40,78,-12,21,-16,-33,35,36, 
  /* [44][0][][] */ -5,-18,-127,34,61,91,-58,74,-11,-45,29,-20,7,-9,-60,-18, 
  /* [45][0][][] */ 2,33,-2,-127,-1,7,39,-19,15,39,-37,32,19,-81,21,-52, 
  /* [46][0][][] */ 11,38,68,-31,24,-12,-67,48,6,-49,-17,11,-2,127,45,-7, 
  /* [47][0][][] */ 8,-23,37,-52,-28,10,-84,44,1,-30,8,26,18,-127,45,14, 
  /* [48][0][][] */ 16,-17,4,-127,11,-14,-13,-8,10,-44,27,8,15,38,-1,67, 
  /* [49][0][][] */ 33,-22,5,127,87,29,-5,48,-61,7,31,70,-4,46,83,-14, 
  /* [50][0][][] */ -26,-29,89,-45,2,94,-39,-42,25,-39,127,-12,90,19,-4,-59, 
  /* [51][0][][] */ 54,34,-4,16,19,-13,-30,13,23,-10,-16,127,5,24,12,-20, 
  /* [52][0][][] */ -27,68,111,25,8,-36,22,-53,-34,27,8,59,-1,86,-127,-20, 
  /* [53][0][][] */ -3,-16,-65,-127,-72,4,46,-26,-42,56,4,-22,22,-21,67,20, 
  /* [54][0][][] */ 12,15,-42,-49,-1,23,13,31,43,-44,1,-34,13,127,-13,28, 
  /* [55][0][][] */ -1,-42,-51,-2,8,-31,-20,-127,15,-93,-12,-14,2,-58,-59,-25, 
  /* [56][0][][] */ 41,41,14,46,3,-19,23,127,8,-29,-3,-59,62,-27,-48,46, 
  /* [57][0][][] */ 82,-9,127,-15,-42,-18,-27,-21,12,1,-50,30,47,-24,21,-37, 
  /* [58][0][][] */ 93,105,35,118,-127,1,-31,53,-17,15,51,20,-61,-38,-71,-92, 
  /* [59][0][][] */ 127,-19,-17,14,-34,-16,-13,3,-21,6,-114,-17,4,-2,2,19, 
  /* [60][0][][] */ -122,46,-10,-9,22,42,21,33,-11,6,127,42,-27,-15,3,-20, 
  /* [61][0][][] */ -35,68,-24,93,-39,-20,-118,-42,127,-77,62,46,47,-1,-125,-67, 
  /* [62][0][][] */ -38,-34,-101,56,55,83,2,127,31,-33,33,-22,-50,35,-114,-24, 
  /* [63][0][][] */ -41,14,127,-51,-77,-72,36,-27,1,7,-7,4,-11,-34,77,28, 
  /* [64][0][][] */ 5,83,2,-17,70,-2,82,-121,-24,102,-11,-36,-28,-127,4,41, 
  /* [65][0][][] */ 23,0,14,-24,98,15,15,-127,-30,-90,-47,-53,-19,-32,44,24, 
  /* [66][0][][] */ -127,6,-26,-2,-38,7,10,-54,-101,-50,-79,46,41,17,47,94, 
  /* [67][0][][] */ -7,-76,6,127,-9,-30,-21,64,70,15,-23,-6,-9,-9,-98,-22, 
  /* [68][0][][] */ 14,-14,2,127,-36,-16,-15,-27,-23,14,-18,4,9,-46,-31,-36, 
  /* [69][0][][] */ 54,70,41,127,81,8,30,-121,41,84,-12,71,29,-4,39,-19, 
  /* [70][0][][] */ -6,-43,7,-96,127,-41,33,3,80,-12,76,-27,6,91,67,102, 
  /* [71][0][][] */ 18,57,17,98,41,-127,-43,89,54,-71,14,32,20,-34,-65,20, 
  /* [72][0][][] */ -127,-71,-46,33,-1,7,-7,8,-62,-25,-81,11,23,1,-4,108, 
  /* [73][0][][] */ -41,28,-1,38,40,-1,-13,-53,85,43,-3,-16,10,127,-52,-86, 
  /* [74][0][][] */ 88,-63,13,-8,-49,-35,70,4,-29,-13,-127,34,-111,-1,45,69, 
  /* [75][0][][] */ -32,-31,-10,127,-43,-2,-12,-44,-101,13,-7,-43,-29,-74,-13,-46, 
  /* [76][0][][] */ -8,-16,-11,46,24,0,-17,-119,0,-127,-9,31,-29,-25,30,-30, 
  /* [77][0][][] */ 127,-37,68,47,-57,24,-47,-15,89,-7,-32,34,83,32,-87,44, 
  /* [78][0][][] */ -57,-19,87,3,49,-23,-99,-2,71,-19,-48,-10,34,127,44,-42, 
  /* [79][0][][] */ -10,21,52,20,46,56,-48,-58,21,-47,83,-13,127,-17,-23,-45, 
  /* [80][0][][] */ -127,-61,-87,116,-19,12,14,14,-79,30,-108,42,25,-73,12,32, 
  /* [81][0][][] */ 57,54,-122,30,99,92,-4,-6,-30,-69,-42,-106,-27,-12,-127,38, 
  /* [82][0][][] */ 96,120,-31,16,-127,-30,-56,-15,-72,9,113,-56,-47,80,10,-39, 
  /* [83][0][][] */ 127,47,24,-16,1,1,-10,34,38,18,89,-44,-53,-24,-30,-105, 
  /* [84][0][][] */ -6,-34,-46,-24,42,13,-12,-127,-7,-29,29,28,-20,-16,-2,-14, 
  /* [85][0][][] */ 1,-44,-58,1,-26,4,69,127,-17,105,-16,-55,22,98,45,-4, 
  /* [86][0][][] */ 84,-55,26,21,5,-8,-12,-5,15,12,-127,27,46,47,14,17, 
  /* [87][0][][] */ 0,35,30,-60,-30,78,-41,76,-18,-46,35,9,-1,-127,20,-29, 
  /* [88][0][][] */ -21,-77,-75,-36,58,-26,-49,-127,43,-15,-40,-54,-2,-18,22,-16, 
  /* [89][0][][] */ 41,-15,9,-127,-9,-67,-38,111,66,-71,9,19,-42,18,66,51, 
  /* [90][0][][] */ -3,16,-16,69,89,26,60,-100,82,127,-13,64,29,21,2,-45, 
  /* [91][0][][] */ 29,-20,-31,-2,-3,-127,-18,-10,-3,-8,-39,-7,50,-9,-7,15, 
  /* [92][0][][] */ 9,44,127,63,39,29,-6,38,-44,24,-35,47,48,76,-18,-8, 
  /* [93][0][][] */ 95,-33,-32,5,-32,-56,3,55,-7,36,-127,-5,7,42,27,31, 
  /* [94][0][][] */ 3,5,71,57,127,-23,-12,34,13,-18,0,48,-5,122,-20,-99, 
  /* [95][0][][] */ -127,37,47,38,34,51,-1,10,15,7,124,-5,-16,36,-6,-38, 
};
const TfArray<96, float> quant19_scale = { 96, { 0.0005546442698687315, 0.00064441660651937127, 0.00061289721634238958, 0.0035771804396063089, 0.00091041962150484324, 0.00042314978782087564, 0.0006144843646325171, 0.0020890093874186277, 0.0013046530075371265, 0.00033667153911665082, 0.00061738403746858239, 0.001412280136719346, 0.0011462466791272163, 0.00035741645842790604, 0.00082165264757350087, 0.0010506960097700357, 0.00067502044839784503, 0.00069725018693134189, 0.0005748333060182631, 0.0024033375084400177, 0.0013614454073831439, 0.00051722931675612926, 0.0010961157968267798, 0.00052585708908736706, 0.00068419513991102576, 0.0011929969768971205, 0.0015281493542715907, 0.00058304786216467619, 0.002054271288216114, 0.0014799749478697777, 0.00063604093156754971, 0.00057546247262507677, 0.00043080258183181286, 0.0017669779481366277, 0.00090121460380032659, 0.0015521036693826318, 0.00028778839623555541, 0.0013696479145437479, 0.0017742224736139178, 0.00053124228725209832, 0.0012787593295797706, 0.00050609087338671088, 0.00046046188799664378, 0.00061488704523071647, 0.0011279240716248751, 0.00097309105331078172, 0.00068859092425554991, 0.00085935881361365318, 0.0010850795079022646, 0.00083868240471929312, 0.0012031183578073978, 0.0034482141491025686, 0.00053335720440372825, 0.00071232108166441321, 0.00098806386813521385, 0.00036362526589073241, 0.0013188451994210482, 0.00078398198820650578, 0.00084829883417114615, 0.0011703668860718608, 0.00029257193091325462, 0.00064021325670182705, 0.0010557267814874649, 0.0012668458512052894, 0.00047072427696548402, 0.00072335865115746856, 0.00094909296603873372, 0.0011098572285845876, 0.00053005939116701484, 0.00051536934915930033, 0.00075569050386548042, 0.0014260228490456939, 0.00084849685663357377, 0.001343215350061655, 0.00062580039957538247, 0.0010980103397741914, 0.00034815585240721703, 0.00065102282678708434, 0.00033089402131736279, 0.0012112258700653911, 0.00074062036583200097, 0.0012843189761042595, 0.00062399997841566801, 0.0015187110984697938, 0.0006793830543756485, 0.00070623715873807669, 0.00058184395311400294, 0.00097045011352747679, 0.00048360956134274602, 0.0013307142071425915, 0.00052570266416296363, 0.0014288652455434203, 0.00043364192242734134, 0.00037846702616661787, 0.0010788793442770839, 0.00061721185920760036, } };
const TfLiteAffineQuantization quant19 = { (TfLiteFloatArray*)&quant19_scale, (TfLiteIntArray*)&g0::quant6_zero, 0 };
const MODEL_SECTION(EI_MODEL_SECTION) ALIGN(16) int32_t tensor_data20[16] = { -44855, 6159, 3302, -8201, 5755, -7789, -15065, -43827, 638, 24134, 33014, -3981, -3227, -25605, 39685, -46409, };
const TfArray<16, float> quant20_scale = { 16, { 0.00067089434014633298, 0.00075532670598477125, 0.0010524315293878317, 0.00097788649145513773, 0.00088544911704957485, 0.00099007284734398127, 0.0011146091856062412, 0.00061264965916052461, 0.00068390258820727468, 0.00071666744770482183, 0.00076223403448238969, 0.00068651791661977768, 0.0011460932437330484, 0.0011945900041610003, 0.00051998428534716368, 0.00063629628857597709, } };
const TfLiteAffineQuantization quant20 = { (TfLiteFloatArray*)&quant20_scale, (TfLiteIntArray*)&g0::quant8_zero, 0 };
const MODEL_SECTION(EI_MODEL_SECTION) ALIGN(16) int8_t tensor_data21[16*1*1*48] = { 
  /* [0][0][][] */ -15,-9,-21,11,23,2,-1,104,-55,11,26,-8,9,-7,-2,22,14,-25,-7,-5,65,4,7,125,-16,86,-5,-12,35,-11,19,-31,-19,42,22,-42,28,38,20,-13,-99,-10,19,35,45,26,-127,-38, 
  /* [1][0][][] */ -38,-15,25,12,-30,7,-1,55,-61,-32,2,-43,-16,-20,-12,-8,-27,127,-11,25,13,4,-27,-16,32,-37,25,20,-28,-89,-43,21,-21,-8,30,-5,-8,-45,-1,22,-22,-28,127,7,3,-5,23,-12, 
  /* [2][0][][] */ -18,-6,-8,-40,-2,-63,9,-16,-2,22,9,29,17,4,-14,10,-8,-13,-28,-16,-4,-4,-4,-127,-14,75,-8,7,3,-19,-4,-2,-14,54,3,1,20,4,22,6,-39,1,-15,-7,4,-13,18,0, 
  /* [3][0][][] */ -2,45,2,-30,0,2,1,-9,-18,-4,-1,42,-127,0,-3,-6,-1,9,-18,0,-30,9,1,16,-8,-13,6,27,-12,20,3,10,5,4,15,22,-10,28,37,9,13,6,28,-28,15,-10,6,16, 
  /* [4][0][][] */ 33,-22,-6,10,16,29,19,-24,-23,11,-9,-17,7,10,5,13,16,-1,-78,6,-7,3,11,64,0,-28,6,41,5,-73,20,6,6,-34,26,-127,13,34,-7,17,-19,10,10,-16,-9,-21,12,4, 
  /* [5][0][][] */ 27,2,-21,50,-6,-4,4,27,-5,3,40,9,6,46,6,-3,-24,25,22,-2,7,5,2,-27,-5,-46,1,-14,-2,-9,3,2,57,-127,-2,27,-10,-17,16,0,-89,56,14,-7,0,-3,-90,-15, 
  /* [6][0][][] */ 24,-9,2,7,-14,-3,-1,-11,-6,2,-2,6,-21,12,9,2,4,-14,127,6,6,16,19,-33,3,3,19,-10,-13,-2,0,5,3,-10,31,-37,2,-42,74,12,2,1,-5,7,-6,4,1,-7, 
  /* [7][0][][] */ -44,-16,-7,38,-15,71,-8,43,-7,26,-16,127,72,3,-1,-11,6,-25,-5,-16,-26,-4,-13,69,-3,-39,-51,-22,-2,-6,-6,-11,0,4,-19,8,9,-63,90,-3,26,30,-59,-51,16,-5,-6,-3, 
  /* [8][0][][] */ -50,-44,-12,5,-5,0,-4,34,7,-65,11,40,44,12,16,13,-14,52,-30,-9,-51,20,-10,-15,6,8,2,42,-7,109,-12,26,-1,6,-14,-127,-96,58,34,14,13,-7,105,-32,5,28,26,32, 
  /* [9][0][][] */ -35,13,-10,20,24,-24,3,6,54,-39,14,53,-57,-2,5,7,-11,22,-41,-25,47,7,-11,-25,2,11,45,-23,-4,14,1,-8,1,6,67,-107,-13,-127,-88,6,-37,34,57,3,4,9,-6,-48, 
  /* [10][0][][] */ -13,-16,-30,-127,43,84,12,-21,0,30,24,5,50,-52,-39,22,35,-46,56,-28,35,-23,38,53,-42,-111,11,-42,54,37,47,-35,-14,-79,30,-5,23,-41,1,-30,-35,-61,-9,11,7,19,23,-27, 
  /* [11][0][][] */ 0,67,-10,59,30,-70,-71,-16,13,68,-22,4,-3,38,-2,-65,18,54,6,-8,-51,-99,10,0,6,-40,20,-21,49,-36,18,-92,25,-15,-41,-88,83,26,4,-127,-7,50,96,-63,-3,-53,37,25, 
  /* [12][0][][] */ 123,-4,-17,13,-1,22,2,101,18,-3,-55,-25,-3,16,-11,-3,-20,6,-8,-10,-3,3,-8,17,-4,19,-2,10,0,7,-4,11,-3,-67,-13,6,-9,-15,-27,-1,-17,-82,3,-127,-51,-17,75,-8, 
  /* [13][0][][] */ 12,7,-2,6,8,-9,0,1,-1,6,2,23,-6,0,7,-2,8,3,12,5,15,-14,8,-1,-1,1,16,127,9,-1,5,-7,6,-2,-36,24,12,-3,7,-14,-12,1,5,5,5,-1,-8,-15, 
  /* [14][0][][] */ 61,-38,47,-66,49,28,38,-99,-51,-53,2,121,-69,-4,64,19,58,25,-49,76,24,15,85,-15,25,56,-33,-120,33,-39,65,57,0,75,-127,-49,-49,48,95,3,-34,7,50,-2,-9,5,16,-22, 
  /* [15][0][][] */ -4,-65,-69,-31,54,22,65,-42,-18,11,-28,-43,75,25,-90,64,62,41,83,-80,-100,-21,64,-9,-90,40,19,48,55,48,48,-36,26,48,102,127,-11,-104,-10,-33,97,68,113,-45,6,-19,-30,68, 
};
const TfArray<4, int> tensor_dimension21 = { 4, { 16,1,1,48 } };
const TfArray<16, float> quant21_scale = { 16, { 0.02851300872862339, 0.032101385295391083, 0.044728338718414307, 0.041560176759958267, 0.037631586194038391, 0.04207809641957283, 0.047370888292789459, 0.026037611067295074, 0.029065860435366631, 0.030458366498351097, 0.032394945621490479, 0.029177011922001839, 0.048708964139223099, 0.050770074129104614, 0.022099332883954048, 0.027042591944336891, } };
const TfLiteAffineQuantization quant21 = { (TfLiteFloatArray*)&quant21_scale, (TfLiteIntArray*)&g0::quant8_zero, 0 };
const MODEL_SECTION(EI_MODEL_SECTION) ALIGN(16) int32_t tensor_data22[48] = { 6578, 34932, -1740, 46752, 3831, 126128, -3192, 49673, 3424, 31552, 24925, 252, 4473, 28476, -935, -808, -1085, 130, 2483, -2480, 164, -1670, 539, -16840, -4385, 49436, 127704, 104084, 3626, 2150, -1144, 1355, 23462, -538, 26792, -6329, 55987, 2731, 60026, 763, 1461, 63609, -392, 5650, 44081, -484, 6424, 52874, };
const TfArray<1, int> tensor_dimension22 = { 1, { 48 } };
const TfArray<48, float> quant22_scale = { 48, { 6.3961102569010109e-05, 3.6982517485739663e-05, 0.00015599974722135812, 4.8603829782223329e-05, 0.00015750914462842047, 6.7161498009227216e-05, 0.00016021291958168149, 0.00011729918333003297, 7.7986398537177593e-05, 4.0325179725186899e-05, 4.1344268538523465e-05, 0.00010398536687716842, 4.0595012251287699e-05, 2.8677764930762351e-05, 0.00015776367217767984, 0.00021950331574771553, 0.0001824451464926824, 8.0917503510136157e-05, 0.00013629099703393877, 0.00014090113108977675, 0.00010805401689140126, 0.00025075787561945617, 0.00010509353887755424, 0.00011119568080175668, 0.00011383539822418243, 8.924530993681401e-05, 3.0315344702103175e-05, 6.7054359533358365e-05, 0.00011195750994374976, 0.00011681643081828952, 0.00011680643365252763, 0.00015652214642614126, 4.474386150832288e-05, 0.0001420014159521088, 3.2305139029631391e-05, 6.2196973885875195e-05, 0.00010235868830932304, 8.4601895650848746e-05, 9.4639137387275696e-05, 9.6163035777863115e-05, 9.25516287679784e-05, 8.998638077173382e-05, 8.8384746049996465e-05, 7.1369009674526751e-05, 2.8861149985459633e-05, 0.00014378583000507206, 7.4301438871771097e-05, 3.0437357054324821e-05, } };
const TfArray<48, int> quant22_zero = { 48, { 0,0,0,0,0,0,0,0,0,0,0,0,0,0,0,0,0,0,0,0,0,0,0,0,0,0,0,0,0,0,0,0,0,0,0,0,0,0,0,0,0,0,0,0,0,0,0,0 } };
const TfLiteAffineQuantization quant22 = { (TfLiteFloatArray*)&quant22_scale, (TfLiteIntArray*)&quant22_zero, 0 };
const MODEL_SECTION(EI_MODEL_SECTION) ALIGN(16) int8_t tensor_data23[1*3*3*48] = { 
  /* [0][0][][] */ 69,-99,99,70,53,-34,105,-63,58,-90,-79,49,52,-37,-71,-89,101,80,53,79,65,-76,-84,51,-32,-40,-63,-66,-66,63,-64,-116,-15,42,68,64,-65,51,-50,-22,51,-73,59,61,-92,10,76,-30, 83,-94,127,85,-77,-70,-58,-81,96,-103,-60,74,77,-109,-93,92,-40,95,85,127,88,-114,52,70,-50,-77,-66,-81,54,81,-31,-127,-85,79,80,83,-81,83,-81,-15,75,-95,81,88,-71,-127,92,-99, 34,-45,68,37,19,-43,-46,-38,45,-27,7,35,29,-78,-54,-2,-53,35,36,69,34,-54,30,25,-26,-47,-44,-24,30,31,85,-90,-82,43,34,34,-29,38,-37,-9,42,-41,35,43,-6,-10,37,-72, 
  /* [0][1][][] */ 94,-116,-41,94,57,-82,127,-89,85,-116,-74,84,84,-108,-13,-127,127,113,75,-38,83,106,-127,71,72,-75,-96,-99,-127,86,-71,-10,-88,71,107,96,-85,80,-82,89,85,-103,89,92,-90,104,92,-90, 127,-127,-65,127,-127,-127,-94,-127,127,-127,-127,127,127,-127,-21,97,-66,127,127,-52,127,127,71,127,127,-127,-127,-127,54,127,-30,15,-127,127,127,127,-127,127,-127,127,127,-127,127,127,-127,-15,127,-127, 63,-82,-34,67,36,-62,-49,-62,57,-40,-59,57,49,-53,-17,11,-59,48,59,-29,59,64,49,66,65,-61,-64,-47,36,53,127,14,-59,70,47,51,-46,62,-61,58,63,-57,55,60,-63,-68,61,-56, 
  /* [0][2][][] */ 44,-60,-46,50,26,-52,66,-43,43,-73,-7,42,58,-76,82,-81,78,54,39,-30,27,-13,-80,33,-23,-44,-46,-51,-72,31,-42,91,-72,38,48,45,-28,37,-42,-87,51,-51,41,45,-25,21,42,-73, 71,-82,-49,82,-56,-62,-74,-67,52,-81,-69,63,77,-49,127,33,-43,62,65,-44,56,-21,42,70,-45,-67,-77,-63,33,59,-24,117,-54,65,57,58,-50,64,-66,-105,73,-68,60,62,-87,51,64,-49, 40,-49,-27,47,28,-19,-19,-33,17,-26,-51,29,34,0,65,26,-34,23,32,-32,29,-3,39,43,-23,-30,-50,-25,33,32,62,67,-1,34,15,25,-22,31,-30,-54,31,-33,26,28,-68,10,34,-2, 
};
const TfArray<4, int> tensor_dimension23 = { 4, { 1,3,3,48 } };
