/*
 * Copyright (c) 2025 EdgeImpulse Inc.
 *
 * Generated by Edge Impulse and licensed under the applicable Edge Impulse
 * Terms of Service. Community and Professional Terms of Service
 * (https://edgeimpulse.com/legal/terms-of-service) or Enterprise Terms of
 * Service (https://edgeimpulse.com/legal/enterprise-terms-of-service),
 * according to your product plan subscription (the “License”).
 *
 * This software, documentation and other associated files (collectively referred
 * to as the “Software”) is a single SDK variation generated by the Edge Impulse
 * platform and requires an active paid Edge Impulse subscription to use this
 * Software for any purpose.
 *
 * You may NOT use this Software unless you have an active Edge Impulse subscription
 * that meets the eligibility requirements for the applicable License, subject to
 * your full and continued compliance with the terms and conditions of the License,
 * including without limitation any usage restrictions under the applicable License.
 *
 * If you do not have an active Edge Impulse product plan subscription, or if use
 * of this Software exceeds the usage limitations of your Edge Impulse product plan
 * subscription, you are not permitted to use this Software and must immediately
 * delete and erase all copies of this Software within your control or possession.
 * Edge Impulse reserves all rights and remedies available to enforce its rights.
 *
 * Unless required by applicable law or agreed to in writing, the Software is
 * distributed on an "AS IS" BASIS, WITHOUT WARRANTIES OR CONDITIONS OF ANY KIND,
 * either express or implied. See the License for the specific language governing
 * permissions, disclaimers and limitations under the License.
 */
// Generated on: 01.12.2025 20:09:55

#include <stdio.h>
#include <stdlib.h>
#include "edge-impulse-sdk/tensorflow/lite/c/builtin_op_data.h"
#include "edge-impulse-sdk/tensorflow/lite/c/common.h"
#include "edge-impulse-sdk/tensorflow/lite/micro/micro_mutable_op_resolver.h"
#include "edge-impulse-sdk/porting/ei_classifier_porting.h"

#if EI_CLASSIFIER_PRINT_STATE
#if defined(__cplusplus) && EI_C_LINKAGE == 1
extern "C" {
    extern void ei_printf(const char *format, ...);
}
#else
extern void ei_printf(const char *format, ...);
#endif
#endif

#define STRINGIZE(x) #x
#define STRINGIZE_VALUE_OF(x) STRINGIZE(x)

#if defined (__GNUC__)  /* GNU compiler */
#define ALIGN(X) __attribute__((aligned(X)))
#define DEFINE_SECTION(x) __attribute__((section(x)))
#elif defined (_MSC_VER)
#define ALIGN(X) __declspec(align(X))
#elif defined (__TASKING__) /* TASKING Compiler */
#define ALIGN(X) __align(X)
#define DEFINE_SECTION(x) __attribute__((section(x)))
#elif defined (__ARMCC_VERSION) /* Arm Compiler */
#define ALIGN(X) __ALIGNED(x)
#define DEFINE_SECTION(x) __attribute__((section(x)))
#elif defined (__ICCARM__) /* IAR Compiler */
#define ALIGN(x) __attribute__((aligned(x)))
#define DEFINE_SECTION(x) __attribute__((section(x)))
#elif defined (__clang__) /* LLVM/Clang Compiler */
#define ALIGN(X) __ALIGNED(x)
#define DEFINE_SECTION(x) __attribute__((section(x)))
#endif

#if defined(EI_MODEL_SECTION) && (defined(__GNUC__) || defined(__clang__))
#define MODEL_SECTION(X) __attribute__((section(STRINGIZE_VALUE_OF(X))))
#else
#define MODEL_SECTION(X)
#endif

#ifndef EI_MAX_SCRATCH_BUFFER_COUNT
#ifndef CONFIG_IDF_TARGET_ESP32S3
#define EI_MAX_SCRATCH_BUFFER_COUNT 14
#else
#define EI_MAX_SCRATCH_BUFFER_COUNT 28
#endif // CONFIG_IDF_TARGET_ESP32S3
#endif // EI_MAX_SCRATCH_BUFFER_COUNT

#ifndef EI_MAX_OVERFLOW_BUFFER_COUNT
#define EI_MAX_OVERFLOW_BUFFER_COUNT 10
#endif // EI_MAX_OVERFLOW_BUFFER_COUNT

using namespace tflite;
using namespace tflite::ops;
using namespace tflite::ops::micro;

namespace {

#if defined(EI_CLASSIFIER_ALLOCATION_STATIC_HIMAX) || defined(EI_CLASSIFIER_ALLOCATION_STATIC_HIMAX_GNU)
constexpr int kTensorArenaSize = 242640;
#else
constexpr int kTensorArenaSize = 241616;
#endif

#if defined(EI_CLASSIFIER_ALLOCATION_STATIC)
#if defined (EI_TENSOR_ARENA_LOCATION)
uint8_t tensor_arena[kTensorArenaSize] ALIGN(16) DEFINE_SECTION(STRINGIZE_VALUE_OF(EI_TENSOR_ARENA_LOCATION));
#else
uint8_t tensor_arena[kTensorArenaSize] ALIGN(16);
#endif
#elif defined(EI_CLASSIFIER_ALLOCATION_STATIC_HIMAX)
#pragma Bss(".tensor_arena")
uint8_t tensor_arena[kTensorArenaSize] ALIGN(16);
#pragma Bss()
#elif defined(EI_CLASSIFIER_ALLOCATION_STATIC_HIMAX_GNU)
uint8_t tensor_arena[kTensorArenaSize] ALIGN(16) __attribute__((section(".tensor_arena")));
#else
#define EI_CLASSIFIER_ALLOCATION_HEAP 1
uint8_t* tensor_arena = NULL;
#endif

static uint8_t* tensor_boundary;
static uint8_t* current_location;

template <int SZ, class T> struct TfArray {
  int sz; T elem[SZ];
};

enum used_operators_e {
  OP_CONV_2D, OP_DEPTHWISE_CONV_2D, OP_PAD, OP_ADD, OP_SOFTMAX,  OP_LAST
};

struct TensorInfo_t { // subset of TfLiteTensor used for initialization from constant memory
  TfLiteAllocationType allocation_type;
  TfLiteType type;
  void* data;
  TfLiteIntArray* dims;
  size_t bytes;
  TfLiteQuantization quantization;
};

typedef struct {
  TfLiteTensor tensor;
  int16_t index;
} TfLiteTensorWithIndex;

typedef struct {
  TfLiteEvalTensor tensor;
  int16_t index;
} TfLiteEvalTensorWithIndex;

TfLiteContext ctx{};
static const int MAX_TFL_TENSOR_COUNT = 4;
static TfLiteTensorWithIndex tflTensors[MAX_TFL_TENSOR_COUNT];
static const int MAX_TFL_EVAL_COUNT = 4;
static TfLiteEvalTensorWithIndex tflEvalTensors[MAX_TFL_EVAL_COUNT];
TfLiteRegistration registrations[OP_LAST];

namespace g0 {
const TfArray<4, int> tensor_dimension0 = { 4, { 1,96,96,3 } };
const TfArray<1, float> quant0_scale = { 1, { 0.0039215688593685627, } };
const TfArray<1, int> quant0_zero = { 1, { -128 } };
const TfLiteAffineQuantization quant0 = { (TfLiteFloatArray*)&quant0_scale, (TfLiteIntArray*)&quant0_zero, 0 };
const MODEL_SECTION(EI_MODEL_SECTION) ALIGN(16) int32_t tensor_data1[4*2] = { 
  0, 0, 
  0, 1, 
  0, 1, 
  0, 0, 
};
const TfArray<2, int> tensor_dimension1 = { 2, { 4,2 } };
const MODEL_SECTION(EI_MODEL_SECTION) ALIGN(8) int32_t tensor_data2[2] = { 18600, -20177, };
const TfArray<1, int> tensor_dimension2 = { 1, { 2 } };
const TfArray<2, float> quant2_scale = { 2, { 0.00027330053853802383, 0.0002511874190531671, } };
const TfArray<2, int> quant2_zero = { 2, { 0,0 } };
const TfLiteAffineQuantization quant2 = { (TfLiteFloatArray*)&quant2_scale, (TfLiteIntArray*)&quant2_zero, 0 };
const MODEL_SECTION(EI_MODEL_SECTION) ALIGN(16) int8_t tensor_data3[2*1*1*32] = { 
  /* [0][0][][] */ 45,-41,-45,93,-42,-10,-27,66,113,-10,-39,-60,-25,43,-28,29,86,-91,-3,-87,92,50,66,-58,-62,-95,-24,127,-2,-49,55,124, 
  /* [1][0][][] */ 51,64,67,-55,-68,69,-8,9,-38,-25,35,96,100,41,31,-4,-37,14,-79,-80,-74,32,27,98,79,71,-43,-27,92,-93,-127,-46, 
};
const TfArray<4, int> tensor_dimension3 = { 4, { 2,1,1,32 } };
const TfArray<2, float> quant3_scale = { 2, { 0.0043747914023697376, 0.0040208213031291962, } };
const TfLiteAffineQuantization quant3 = { (TfLiteFloatArray*)&quant3_scale, (TfLiteIntArray*)&g0::quant2_zero, 0 };
const MODEL_SECTION(EI_MODEL_SECTION) ALIGN(16) int32_t tensor_data4[32] = { -47, 27, 92, -50, -191, 65, -294, 127, 2, 324, 75, 134, 90, 85, -51, -462, -147, -130, 772, -270, 12, 23, -113, 48, 108, 214, -233, 712, 42, -66, 1411, 1102, };
const TfArray<1, int> tensor_dimension4 = { 1, { 32 } };
const TfArray<32, float> quant4_scale = { 32, { 4.5904129365226254e-05, 4.3755739170592278e-05, 4.2199808376608416e-05, 4.2190273234155029e-05, 4.1914176108548418e-05, 4.4395303120836616e-05, 4.286070543457754e-05, 4.1458955820417032e-05, 4.1693674575071782e-05, 5.135524770594202e-05, 4.562772301142104e-05, 5.187629722058773e-05, 4.2087154724868014e-05, 4.2760333599289879e-05, 4.5760043576592579e-05, 4.2986259359167889e-05, 4.4760865421267226e-05, 6.5410458773840219e-05, 6.4740917878225446e-05, 4.2219133320031688e-05, 4.6356657549040392e-05, 4.271651414455846e-05, 4.4861226342618465e-05, 4.2521223804214969e-05, 4.22289376729168e-05, 4.709231507149525e-05, 4.1613096982473508e-05, 8.0492383858654648e-05, 4.1217586840502918e-05, 4.163312041782774e-05, 6.0113157815067098e-05, 6.6457207140047103e-05, } };
const TfArray<32, int> quant4_zero = { 32, { 0,0,0,0,0,0,0,0,0,0,0,0,0,0,0,0,0,0,0,0,0,0,0,0,0,0,0,0,0,0,0,0 } };
const TfLiteAffineQuantization quant4 = { (TfLiteFloatArray*)&quant4_scale, (TfLiteIntArray*)&quant4_zero, 0 };
const MODEL_SECTION(EI_MODEL_SECTION) ALIGN(16) int8_t tensor_data5[32*1*1*96] = { 
  /* [0][0][][] */ -42,-50,93,3,69,-14,-87,-95,52,-88,-103,5,47,6,-41,49,-52,-34,-55,-37,-63,-101,2,101,-112,11,69,-52,110,10,-21,-73,74,-62,-90,58,-101,-80,-86,21,69,-81,-94,100,40,-98,98,-20,14,-34,-32,98,-65,-51,-85,97,19,64,127,-107,-67,82,-39,40,12,16,62,79,59,82,82,-114,97,-100,36,79,-92,11,-61,24,46,20,86,-2,-58,-46,-80,99,26,111,-10,-108,-2,58,30,7, 
  /* [1][0][][] */ -52,32,-78,7,-35,80,37,8,86,-117,-98,104,78,-19,19,67,99,-39,42,127,-40,-6,37,24,24,24,-41,85,11,22,105,-57,56,115,-22,27,46,57,-24,-62,-63,11,-20,-95,-45,44,-28,-64,-27,-64,111,69,10,103,-78,-44,11,105,78,79,-51,113,-67,-81,-50,40,73,44,113,38,24,15,-106,83,-51,47,98,-45,-40,82,-83,89,-44,-96,26,104,-59,-55,80,83,90,18,85,83,40,-15, 
  /* [2][0][][] */ 52,37,-67,105,-16,-63,91,96,-93,72,-30,117,104,-8,80,-110,-68,-24,42,67,-91,-15,116,20,-33,89,108,-12,-70,96,89,104,-72,-9,-107,-111,-92,96,97,-25,-119,-72,17,-4,-95,127,-22,-89,100,62,93,-79,-49,83,22,24,-88,104,-47,3,-11,60,-40,69,101,53,49,93,-86,79,16,-67,40,-85,30,30,-41,-24,7,20,36,-91,-3,-27,1,-108,-11,-23,95,119,-28,5,-42,-95,-35,-80, 
  /* [3][0][][] */ 71,2,48,-31,-36,58,-113,40,43,24,65,39,91,98,78,3,114,101,-52,15,119,-87,-65,-114,-14,-117,-79,127,49,-100,89,4,-58,-39,-14,-14,-88,-28,51,51,-28,-95,-96,1,74,28,-54,-83,67,-89,42,-4,102,24,94,-100,-112,-123,-123,-57,-99,38,-29,80,56,-36,-60,-28,-34,-58,5,103,21,-111,59,-47,36,102,100,-72,-90,-123,45,92,31,51,-46,-124,-81,45,16,-33,99,-90,-89,47, 
  /* [4][0][][] */ 60,106,-6,54,-12,13,30,17,63,116,-11,82,22,-39,-13,-65,-27,-7,-44,19,104,-95,85,23,-5,-11,60,-63,-39,38,-75,-60,78,112,45,-99,-53,-7,-109,46,-52,-67,-77,-95,38,104,36,72,22,-42,-14,-88,-108,41,-92,17,65,-94,19,16,8,-76,-36,-81,-53,53,0,-40,31,-106,-103,-91,-61,25,97,50,53,-26,-10,-53,3,-41,-99,-30,-4,70,90,-4,-127,-79,60,44,38,89,-100,-3, 
  /* [5][0][][] */ 95,-90,70,88,37,-114,27,53,109,-127,3,-66,31,101,30,38,49,60,-62,105,36,49,18,-27,-109,-54,-14,-108,47,43,23,-90,-43,11,-80,14,-116,-36,34,24,-86,-46,42,94,-42,29,36,-61,-107,125,22,39,36,31,34,-17,86,53,-35,-43,35,-68,31,-71,-29,102,-27,31,79,10,104,-64,-42,66,-36,-69,21,-47,13,87,100,45,32,117,-79,70,1,45,68,-92,106,84,-17,12,81,-90, 
  /* [6][0][][] */ 12,-52,109,69,-85,-63,-4,58,-20,-90,2,-83,80,50,112,-122,43,0,-2,100,-82,-121,106,57,-62,-87,-10,-51,-26,-119,41,-83,-90,-127,-36,-113,-10,35,-111,80,83,52,17,-20,-114,99,-94,-44,-86,13,-29,-70,63,-64,92,-32,16,-11,-71,112,-100,2,66,-68,-53,61,99,-48,76,-13,-107,-10,53,-66,-93,-44,-85,-105,-59,-39,33,-32,41,-34,-75,-86,-45,-100,82,91,99,14,-57,-66,75,-29, 
  /* [7][0][][] */ 103,71,-35,-42,-89,125,-18,-6,123,3,-98,8,56,-88,49,82,54,22,8,110,56,39,-3,93,-69,115,45,53,-81,123,-19,38,27,27,61,101,-106,92,-16,-26,101,-77,93,75,51,2,108,-117,57,-53,-127,-69,-20,85,20,34,111,-88,15,-58,8,-7,76,-116,-73,-53,73,24,-123,23,72,86,95,20,64,67,-56,60,-101,43,97,-33,-29,-71,93,32,-110,102,83,12,82,63,-70,-51,-1,-71, 
  /* [8][0][][] */ -7,32,-37,-103,40,35,-75,-31,-1,52,40,102,-15,-53,-80,-77,-58,97,-71,8,22,-23,84,117,-112,98,50,105,-65,10,-100,110,102,-46,71,-7,127,3,-19,73,83,100,-117,-124,-2,-39,-29,124,25,-115,-81,-11,-61,-31,-32,-113,60,102,-113,112,103,48,48,116,-44,-53,-18,104,-88,42,26,-11,73,87,14,23,-60,110,86,62,43,75,-126,-103,29,51,69,-53,36,-43,-77,97,-91,-84,-58,77, 
  /* [9][0][][] */ 18,21,107,53,94,-80,-31,-92,51,83,0,38,-3,-63,-73,-15,16,10,-90,-54,4,93,-83,-79,110,-6,-4,35,-10,-67,-77,95,72,5,52,1,-62,29,-12,-29,51,-49,50,-75,92,14,-76,61,61,-26,-19,-48,61,-58,-49,85,110,-46,-19,6,-62,94,82,-58,-48,6,99,52,-23,89,98,-67,8,92,-71,-76,-80,-93,-23,113,33,34,93,9,-33,-59,31,-14,86,32,-17,127,113,7,58,-9, 
  /* [10][0][][] */ -51,77,82,-53,-9,100,103,27,45,13,28,-64,107,84,-36,14,-42,78,-87,-44,-10,27,55,-66,21,58,-109,-127,-46,89,-80,-69,77,106,100,68,-43,6,-42,36,-33,115,-102,-35,-100,-47,1,-67,-4,24,38,20,56,39,-60,-26,-112,-8,44,-45,3,75,102,37,118,-65,-92,-17,33,-9,-82,-57,87,55,-81,103,-2,61,65,31,70,5,61,113,-95,56,103,-14,37,12,-6,-65,-45,-54,-30,-73, 
  /* [11][0][][] */ 106,13,-10,89,70,37,41,37,92,63,-59,88,-24,-65,24,-55,-46,-92,59,54,35,61,23,-89,-99,-91,-29,51,75,-12,31,-21,-77,-45,24,41,-53,60,-33,-49,-19,91,-54,13,-45,-37,-68,-80,62,101,39,49,-74,-56,20,13,-86,-46,-14,-74,-81,77,86,-4,42,77,-50,24,89,56,-68,-57,35,55,-70,46,-53,31,-38,79,-92,-21,-59,-19,41,-66,18,-17,-75,-1,24,-127,-85,-20,-29,-41, 
  /* [12][0][][] */ 17,69,-61,10,91,9,-34,35,-70,46,-9,14,-35,20,46,-76,-109,-30,-41,-72,34,-9,20,99,-75,-42,105,-122,96,29,-28,126,-88,-59,-57,14,-6,-76,-29,47,118,47,-110,-39,-31,-77,-36,110,-45,-96,-78,117,37,19,-83,94,-36,-52,71,67,65,116,-8,55,121,41,-46,124,68,113,49,80,92,108,-19,-4,-22,38,-116,-87,-61,111,55,30,-36,25,64,127,-91,-106,91,43,106,-22,41,66, 
  /* [13][0][][] */ 107,-61,100,105,86,110,83,63,79,-121,17,-32,95,78,65,-44,-126,-67,-66,32,73,-26,121,-47,-69,48,8,1,-88,-71,90,43,39,114,-31,34,-87,-30,15,73,-63,82,-49,14,-50,36,1,-39,35,124,-41,-97,-99,42,100,-76,-75,36,-4,-76,-24,116,-84,14,-48,-57,-92,92,-35,-5,103,1,-85,29,-86,-39,-91,69,84,-58,51,-92,99,34,-81,-109,101,127,-9,-47,-83,52,110,-63,78,-13, 
  /* [14][0][][] */ -58,-93,81,64,64,-44,-16,-127,-76,-54,65,59,-30,-79,-86,-98,-51,-56,-2,20,-43,31,-2,56,-109,-67,-31,11,-125,-123,-73,35,99,-20,-37,-5,80,109,14,-105,-6,-106,30,80,62,-107,60,-87,108,22,61,49,75,-12,-17,11,-63,3,30,89,-35,-97,-28,69,-98,-13,72,-100,-101,-86,-97,69,-10,76,29,-72,55,-101,51,30,41,-36,-114,-35,-110,-87,-112,99,102,7,64,-59,78,98,-15,60, 
  /* [15][0][][] */ -16,-33,-32,60,44,-85,53,-115,47,11,-82,5,89,-10,-95,-121,87,2,-95,27,36,11,64,102,75,69,32,102,16,62,52,-110,2,-8,-70,-13,-70,105,102,-80,10,102,-55,-31,21,-87,-51,-82,-12,-86,-17,20,-101,-123,-54,-11,63,41,-56,100,-59,-73,-6,96,-40,89,-79,-13,-56,-9,49,-90,10,-17,56,-115,-9,47,96,62,-86,45,-120,-77,-127,-44,-103,29,76,63,-117,-45,31,116,-113,121, 
  /* [16][0][][] */ -76,2,105,-72,27,109,-55,38,35,61,-110,67,-30,-55,-47,-61,113,73,64,49,97,75,-40,51,-21,43,-69,85,-95,-4,30,3,-97,61,64,58,-28,52,-36,-69,22,-52,66,86,70,92,94,-1,-52,-127,0,94,-34,89,64,38,42,78,51,14,105,105,35,65,45,6,-35,83,28,80,-38,-18,23,98,63,83,-24,93,-108,-27,17,-83,44,-5,12,105,88,-2,70,10,-9,108,58,-23,-92,37, 
  /* [17][0][][] */ 103,-103,-18,86,18,-83,-39,-33,59,-113,79,70,98,63,-93,31,-7,26,68,121,-28,-14,12,-48,-36,52,-45,-20,84,-16,22,91,-56,31,11,-7,-67,39,-85,-10,-88,-4,-11,-29,-56,31,75,-118,22,127,29,58,-38,117,59,-21,-126,71,-21,-86,52,-48,58,50,-33,-29,18,-39,-17,34,91,61,6,-96,-45,27,102,-36,36,10,-15,8,0,-14,-91,14,81,5,39,33,-44,-73,37,61,48,-24, 
  /* [18][0][][] */ -33,110,110,-34,12,12,-59,20,1,78,-58,-23,-24,36,63,-39,37,-2,46,-23,83,-14,33,-31,33,-64,5,104,17,-2,14,51,37,-3,-69,-31,3,40,4,48,-12,12,-7,23,-51,24,25,9,20,-40,76,22,-62,16,21,68,35,24,0,-66,72,71,42,60,-23,-77,-7,57,34,-28,-26,80,-45,-10,-49,-42,24,58,8,-25,-33,9,-1,-40,80,24,51,35,-59,-41,-38,127,68,-25,24,26, 
  /* [19][0][][] */ 28,28,74,37,59,-80,95,96,92,-55,26,-9,-102,32,-55,54,74,-109,113,58,-23,78,-59,12,70,-85,28,-54,-92,-122,-66,46,78,-85,37,-2,4,-71,-51,-105,43,-119,-88,7,-86,26,76,-93,-31,38,-41,46,-41,15,5,-5,46,92,-6,-31,54,-55,102,62,-67,-5,-29,-6,-6,51,71,-52,-69,-127,-55,-85,-27,-117,13,104,58,-122,-21,75,-88,-8,4,-7,94,27,-1,62,-26,120,69,-55, 
  /* [20][0][][] */ -4,69,71,86,-69,84,20,63,13,20,-79,-4,-16,80,43,-66,-37,-34,-62,-43,21,-37,-67,-61,84,-76,-95,63,23,2,-38,101,98,40,0,58,44,-26,0,-96,-75,-33,-79,-91,-16,-60,-63,109,59,-127,-92,32,55,98,48,-1,107,67,80,89,102,-52,-58,-27,-16,-62,-42,17,-87,-72,-61,71,-59,-71,32,21,95,75,104,98,82,6,81,-29,57,115,-15,63,20,89,28,63,23,27,-8,17, 
  /* [21][0][][] */ 88,74,66,-100,87,-78,72,14,-1,-78,-71,38,6,41,-58,-88,-111,-30,33,-2,109,-50,71,-86,56,-85,-35,57,14,21,-5,-24,7,26,-101,-117,108,95,-126,-32,-8,8,31,-14,-108,-78,-80,86,-24,-51,-16,91,39,77,-96,22,-63,59,-37,118,55,-80,6,-17,86,34,-38,-69,-107,0,64,76,38,-38,66,68,-101,-30,61,107,8,104,29,-65,23,-106,69,-80,-108,82,102,-127,-57,-89,75,-38, 
  /* [22][0][][] */ 22,-53,-68,-95,68,-67,101,52,-94,75,-74,-110,110,-112,-113,-85,33,79,-116,-74,81,-73,28,27,86,-7,-114,94,-74,-88,-68,-111,44,56,2,10,2,-19,-66,-114,-2,-14,-1,89,51,-115,84,-27,-66,-93,-7,-35,-78,-93,-49,27,-27,-32,-20,-35,98,-78,-82,-127,-76,15,-111,-52,103,98,-22,-5,-60,1,57,-87,25,-51,59,91,97,-98,-86,-115,72,77,93,-35,-61,27,-71,42,2,16,-47,93, 
  /* [23][0][][] */ 69,-96,-4,68,101,-116,4,-102,64,-100,92,74,31,-101,13,-39,78,-34,-103,114,101,-84,105,-38,-27,-7,83,-2,70,65,80,-29,-44,57,7,28,91,-12,-127,7,-110,5,11,-112,-87,-83,116,13,73,-89,-92,-40,78,-37,-56,98,-106,-15,117,41,-107,-94,-59,-15,42,44,-121,-108,73,-4,118,-68,-2,-47,-43,-97,60,-23,95,127,-60,-47,32,-88,92,-8,123,-11,-89,46,103,-20,110,-63,-16,72, 
  /* [24][0][][] */ -105,-55,-111,-83,-87,-114,-67,-83,61,118,90,76,127,65,-48,-103,-78,45,37,-48,105,-81,-55,-30,55,-44,79,64,123,62,6,-67,0,-6,51,25,-45,-95,77,-13,-67,-97,106,18,8,-24,41,89,-81,-31,-18,27,88,41,80,-93,8,89,39,4,103,1,50,89,-121,112,-45,-96,-93,48,-45,-23,-27,17,89,112,70,-74,-102,-102,-71,-82,-69,-111,11,78,-6,-86,30,-95,13,-82,-27,22,-86,22, 
  /* [25][0][][] */ -47,-51,-78,-3,101,-75,-92,54,47,-110,-27,28,79,6,-108,-11,-67,62,35,-71,72,80,-6,-51,15,-56,-90,29,80,-76,44,102,87,-96,39,67,93,-60,-28,-8,-73,98,-92,10,75,48,68,31,-94,105,-57,9,41,-16,-51,-11,-24,57,-80,71,123,45,61,51,0,75,-14,-6,-82,3,-11,-91,40,-127,63,26,72,72,16,38,45,60,-47,88,-69,-39,-81,-77,-22,-28,94,16,-106,-27,-9,-84, 
  /* [26][0][][] */ 54,-123,-19,-22,-101,-5,-13,-13,-119,-117,105,92,-86,-56,12,-19,124,27,-88,-78,9,73,100,15,55,58,11,67,14,-8,-102,-7,-37,-74,-88,-109,-65,86,-45,110,-103,101,55,32,-70,68,-46,114,-25,14,-6,97,11,-66,-4,-120,114,59,44,26,-4,-96,71,-21,111,-26,-58,56,-95,73,86,97,78,-99,-87,6,37,-113,-102,-1,-28,72,79,-88,81,7,-54,7,-88,113,15,18,-63,127,43,100, 
  /* [27][0][][] */ 2,21,4,-52,-38,3,-21,-2,23,93,29,-60,-46,36,65,10,60,10,64,-63,-54,26,0,10,-7,24,-43,31,42,-30,-23,-3,36,31,-7,-32,-17,-14,-28,61,-25,17,35,39,87,20,51,96,57,6,32,-57,-11,-65,13,-22,127,-3,-63,-20,-18,-35,2,40,8,-20,-38,64,6,4,-52,6,48,-2,-8,-23,-2,-15,59,50,68,8,43,-58,-23,6,-19,9,-29,13,-19,12,24,4,30,56, 
  /* [28][0][][] */ 86,0,94,45,-127,-84,-104,-81,-43,-124,63,57,-82,-88,2,104,93,115,-90,54,-26,23,-111,-77,-127,84,-90,-82,-80,-89,0,-19,-122,18,58,77,22,-113,-52,28,108,45,-96,59,-117,-5,14,40,20,-83,-88,-40,-113,24,55,28,36,-14,88,51,-5,-51,-97,-7,54,77,-24,79,-100,27,-107,-45,78,19,-5,-99,-114,-65,-93,48,-86,-95,105,-26,64,-117,69,-84,-113,-70,-48,-84,-57,43,-108,-75, 
  /* [29][0][][] */ 52,54,62,-56,-100,13,-117,7,99,-12,-93,-94,97,-108,-43,-49,-93,106,22,-70,-80,-32,57,9,-34,7,-41,-10,-103,-20,107,-8,54,-2,-65,-58,-8,106,-10,100,50,108,-47,84,4,103,-57,-19,20,-17,53,-100,70,-108,115,49,-90,52,-63,115,-125,101,-94,-48,-79,-68,57,96,99,-89,31,-75,111,86,61,26,110,-63,-28,29,0,-91,-8,-85,69,127,43,76,-36,98,80,80,-102,23,-6,72, 
  /* [30][0][][] */ 42,-9,2,38,-47,49,-15,23,94,27,26,-13,-101,30,81,35,42,52,89,-52,46,-37,-51,53,-24,25,-28,127,19,-103,-58,24,-42,-35,-24,-3,55,29,38,48,104,-31,16,121,121,-9,102,96,-25,59,49,-55,89,-30,36,88,10,-22,-61,-2,-41,14,1,-3,-36,-42,-31,87,-24,87,46,-8,-32,108,46,-25,-52,-17,-25,-34,53,58,-59,-33,-44,77,-67,85,-3,-50,82,86,-3,26,13,-16, 
  /* [31][0][][] */ 49,-21,64,62,23,55,-14,-39,-26,24,-40,-42,17,-69,14,81,7,-44,36,22,48,52,4,110,46,-72,45,68,-29,-81,42,75,28,11,-11,41,99,20,15,-55,78,-36,-5,64,61,-32,-13,78,64,-1,64,-14,-52,-54,-30,30,-21,32,-34,103,-13,-1,82,-6,54,81,-1,-42,51,-85,-75,2,-55,7,11,32,-56,-1,51,47,-18,-30,39,27,72,127,-61,7,28,-10,-59,-6,17,88,-11,39, 
};
const TfArray<4, int> tensor_dimension5 = { 4, { 32,1,1,96 } };
const TfArray<32, float> quant5_scale = { 32, { 0.0019509254489094019, 0.0018596189329400659, 0.0017934917705133557, 0.001793086645193398, 0.0017813524464145303, 0.0018868003971874714, 0.0018215799937024713, 0.0017620056169107556, 0.0017719811294227839, 0.0021825979929417372, 0.0019391782116144896, 0.0022047425154596567, 0.0017887040739879012, 0.0018173140706494451, 0.0019448017701506615, 0.0018269160063937306, 0.0019023367203772068, 0.0027799445670098066, 0.0027514889370650053, 0.0017943130806088448, 0.0019701579585671425, 0.0018154517747461796, 0.0019066020613536239, 0.0018071519443765283, 0.0017947298474609852, 0.0020014233887195587, 0.0017685565399006009, 0.0034209261648356915, 0.0017517474479973316, 0.0017694076523184776, 0.002554809208959341, 0.0028244312852621078, } };
const TfLiteAffineQuantization quant5 = { (TfLiteFloatArray*)&quant5_scale, (TfLiteIntArray*)&g0::quant4_zero, 0 };
const MODEL_SECTION(EI_MODEL_SECTION) ALIGN(16) int32_t tensor_data6[96] = { -1571, 2689, 7705, 1869, -2514, -2326, 14157, 2159, 2124, -1112, 9133, -263, -5658, 1909, 15021, 6646, 10413, 5280, -3779, -4819, 4159, 19769, 19749, 9342, 1190, 729, 4780, 2190, 1479, -3486, 3905, -2337, -200, 3202, -20, 843, 7862, 4212, -1903, 4366, 6829, 5198, 2899, 9092, 5420, 4363, 1463, 8032, 3681, -3267, -5892, 330, -333, -867, 1751, 25, 330, -872, -3215, 10702, -695, 1175, -673, -1762, -2633, 4999, 13770, 1614, -2202, 541, 1401, 1825, 1528, -1051, 515, 7400, -404, 15002, 13374, -572, 7489, 1691, -397, 936, 8873, 5993, 3339, 1120, 4602, 3133, -323, -5643, 511, -1864, -1388, -1495, };
const TfArray<1, int> tensor_dimension6 = { 1, { 96 } };
const TfArray<96, float> quant6_scale = { 96, { 0.00038248012424446642, 0.00058957294095307589, 0.00031072404817678034, 0.00047024039668031037, 0.00042061414569616318, 0.00061289331642910838, 0.00023474666522815824, 0.00033697567414492369, 0.00028481028857640922, 0.00054950901539996266, 0.00021518357971217483, 0.00036550941877067089, 0.00043888273648917675, 0.0014815398026257753, 0.0002064288710244, 0.00017302745254710317, 0.00017769313126336783, 0.0002738097682595253, 0.00051409547450020909, 0.00035430880961939692, 0.0001479603088228032, 0.00013561276136897504, 0.00015537790022790432, 0.00017848289280664176, 0.00017177649715449661, 0.00063660304294899106, 0.0006234994507394731, 0.00051536719547584653, 0.00033180485479533672, 0.00054731738055124879, 0.00037473594420589507, 0.00033499204437248409, 0.00026855181204155087, 0.00035709072835743427, 0.0003858960117213428, 0.00030657046590931714, 0.00024270513677038252, 0.0002546813921071589, 0.00032865363755263388, 0.00040563318179920316, 0.00018815739895217121, 0.00049789209151640534, 0.00051633798284456134, 0.00025504117365926504, 0.00035766127984970808, 0.00022945337696000934, 0.00035761349136009812, 0.00027175227296538651, 0.00036417177761904895, 0.00040679291123524308, 0.00026526092551648617, 0.00027799417148344219, 0.0004933713935315609, 0.00033800702658481896, 0.00044882189831696451, 0.00039266527164727449, 0.00053697451949119568, 0.00032008520793169737, 0.00047756926505826414, 0.00017230375669896603, 0.0010921647772192955, 0.00054243573686107993, 0.00036781156086362898, 0.00043195864418521523, 0.00070374069036915898, 0.00038408971158787608, 0.00015695994079578668, 0.0002619736478663981, 0.00053847080562263727, 0.00062123942188918591, 0.00028731673955917358, 0.00028119364287704229, 0.00088767812121659517, 0.00038398164906539023, 0.00037008067010901868, 0.00029011914739385247, 0.00034839866566471756, 0.00012596833403222263, 0.00013604508421849459, 0.00032906568958424032, 0.00019728209008462727, 0.00019785399490501732, 0.00021986781212035567, 0.00025903471396304667, 0.00020436313934624195, 0.00039862431003712118, 0.00069777900353074074, 0.00026688259094953537, 0.00015025622269604355, 0.00065056770108640194, 0.00036677662865258753, 0.00035057679633609951, 0.00042758576455526054, 0.00056115671759471297, 0.00043364660814404488, 0.00027048934134654701, } };
const TfArray<96, int> quant6_zero = { 96, { 0,0,0,0,0,0,0,0,0,0,0,0,0,0,0,0,0,0,0,0,0,0,0,0,0,0,0,0,0,0,0,0,0,0,0,0,0,0,0,0,0,0,0,0,0,0,0,0,0,0,0,0,0,0,0,0,0,0,0,0,0,0,0,0,0,0,0,0,0,0,0,0,0,0,0,0,0,0,0,0,0,0,0,0,0,0,0,0,0,0,0,0,0,0,0,0 } };
const TfLiteAffineQuantization quant6 = { (TfLiteFloatArray*)&quant6_scale, (TfLiteIntArray*)&quant6_zero, 0 };
const MODEL_SECTION(EI_MODEL_SECTION) ALIGN(16) int8_t tensor_data7[96*1*1*16] = { 
  /* [0][0][][] */ -4,67,-14,-127,-68,-29,-17,-70,-4,19,4,44,4,-56,-13,80, 
  /* [1][0][][] */ -25,17,-55,7,-36,-33,21,-83,62,38,-73,24,19,4,35,-127, 
  /* [2][0][][] */ 3,40,-25,57,59,34,-108,-84,127,-23,-6,23,22,120,-105,0, 
  /* [3][0][][] */ 45,-61,-5,-107,-8,-42,-5,-15,102,21,58,19,-14,24,12,127, 
  /* [4][0][][] */ -74,46,1,34,0,-23,1,45,6,23,10,-25,-127,-16,-8,35, 
  /* [5][0][][] */ 4,48,100,-20,-3,46,-71,50,-42,69,-6,-26,15,-34,-127,42, 
  /* [6][0][][] */ 54,-66,94,-127,23,-9,-27,84,-57,-90,48,-46,-7,64,-7,92, 
  /* [7][0][][] */ 53,84,-38,-68,60,-1,13,-61,127,82,-26,6,18,-30,57,64, 
  /* [8][0][][] */ 15,-78,11,-98,20,-65,3,-78,25,76,76,-5,23,127,91,64, 
  /* [9][0][][] */ 11,-47,-3,127,22,-23,42,-73,-48,85,51,-32,-5,-82,-12,1, 
  /* [10][0][][] */ 9,10,-55,-127,5,-12,5,41,31,-39,7,-49,-41,-37,-13,64, 
  /* [11][0][][] */ 1,26,23,-12,113,-24,91,-50,-100,39,-15,21,10,127,-71,-50, 
  /* [12][0][][] */ 12,-3,-127,-43,7,-43,18,15,-7,55,-24,-59,-47,86,7,61, 
  /* [13][0][][] */ -13,5,-30,10,4,-127,-2,17,9,-13,4,-5,11,-21,10,11, 
  /* [14][0][][] */ 40,-33,83,-39,49,1,-127,-100,-19,-51,26,5,3,-74,-20,-19, 
  /* [15][0][][] */ -101,20,8,-48,7,-11,127,52,-44,45,111,-23,-1,84,56,-11, 
  /* [16][0][][] */ 11,68,127,90,18,15,57,40,-66,16,-53,26,11,2,-4,-110, 
  /* [17][0][][] */ -45,-99,-8,33,-64,-19,-62,9,-127,-35,19,-35,-1,47,55,-43, 
  /* [18][0][][] */ 13,35,15,73,23,-7,0,-9,75,43,-34,-27,12,127,58,30, 
  /* [19][0][][] */ 32,-33,39,32,115,20,-80,-55,-104,-114,-76,-127,-29,-30,-6,-31, 
  /* [20][0][][] */ 92,7,-84,-44,40,-121,7,47,-74,85,-127,-24,50,-17,10,-33, 
  /* [21][0][][] */ 42,8,78,14,-4,10,-24,73,-7,-71,41,49,-3,127,14,38, 
  /* [22][0][][] */ 0,31,-62,127,-80,-1,118,67,-8,19,-20,13,-10,-11,36,27, 
  /* [23][0][][] */ 28,0,127,-51,73,19,-18,30,-21,-27,20,2,12,10,-93,2, 
  /* [24][0][][] */ -127,44,19,-20,6,114,27,-29,-10,6,116,-6,-87,18,71,-26, 
  /* [25][0][][] */ 23,21,18,24,14,10,63,-50,-4,-127,-4,-15,-11,-21,16,19, 
  /* [26][0][][] */ -30,-11,-10,5,-59,-8,-33,-38,-115,-45,-1,-45,5,127,-39,63, 
  /* [27][0][][] */ -2,35,14,56,27,-26,-29,-34,59,15,-22,9,7,127,-17,9, 
  /* [28][0][][] */ 4,67,45,51,127,5,27,31,-79,-10,-44,-35,25,64,42,-34, 
  /* [29][0][][] */ 18,-17,-5,1,14,-18,23,32,-29,-29,-8,-127,0,-6,4,31, 
  /* [30][0][][] */ -14,82,-55,63,-45,-10,43,-127,-27,62,-15,-14,62,27,76,95, 
  /* [31][0][][] */ -57,-13,-4,-72,12,-7,-78,-123,11,101,-17,-127,-21,-72,3,-2, 
  /* [32][0][][] */ -127,-74,-6,51,43,33,-18,2,-1,-44,-82,59,73,7,70,66, 
  /* [33][0][][] */ -10,-31,-57,-5,-110,7,-78,1,90,29,15,-77,45,-124,127,44, 
  /* [34][0][][] */ 41,-1,95,29,72,30,-72,107,-98,-34,82,51,16,9,-16,127, 
  /* [35][0][][] */ -44,52,-93,7,-23,-24,44,-119,108,121,-68,-4,-15,-12,86,-127, 
  /* [36][0][][] */ -51,57,31,127,30,43,89,27,-3,20,3,1,7,24,-58,-61, 
  /* [37][0][][] */ -11,3,24,-67,2,22,-51,-45,-87,-22,6,-1,12,-127,84,-49, 
  /* [38][0][][] */ 43,91,-11,-51,127,2,25,-35,105,67,-19,-4,15,-34,64,6, 
  /* [39][0][][] */ -29,71,5,-127,-15,20,-56,28,38,-111,-27,-12,18,97,30,32, 
  /* [40][0][][] */ -39,-2,45,-73,16,14,-36,-39,-127,9,-3,6,12,-98,96,-94, 
  /* [41][0][][] */ -2,-16,-38,-14,-9,-25,19,-10,-32,4,-58,-9,-127,29,31,41, 
  /* [42][0][][] */ 101,91,-17,-13,-38,-45,-27,-47,-5,26,90,-31,-52,60,110,-127, 
  /* [43][0][][] */ -40,127,-32,19,83,8,49,-49,20,60,-49,18,42,-88,-85,-69, 
  /* [44][0][][] */ -53,-5,19,-50,73,1,-120,-127,-34,-2,35,21,1,-39,85,-85, 
  /* [45][0][][] */ -33,60,-127,-43,39,-102,14,-94,-12,30,20,-63,41,-36,71,-40, 
  /* [46][0][][] */ 10,-2,-23,-90,-14,5,19,-24,-116,-15,7,6,-12,-127,52,-24, 
  /* [47][0][][] */ 11,54,31,-16,127,-13,-41,21,-57,47,13,37,0,6,110,-30, 
  /* [48][0][][] */ -127,-74,-17,46,62,23,9,-17,15,-22,-115,45,68,7,75,40, 
  /* [49][0][][] */ -7,18,75,44,113,-8,34,15,-127,-25,-22,-53,25,81,10,-50, 
  /* [50][0][][] */ 26,-17,-88,-21,2,-127,-48,-17,-6,-8,-7,-42,39,-32,-11,24, 
  /* [51][0][][] */ 29,33,29,16,15,3,14,33,-117,53,-21,-127,20,-105,-10,97, 
  /* [52][0][][] */ -6,71,-5,50,54,12,27,49,75,89,-38,-72,35,127,78,34, 
  /* [53][0][][] */ 3,-50,-32,-20,-115,-9,-75,4,60,35,-1,-76,25,-127,117,39, 
  /* [54][0][][] */ 37,-5,-35,13,120,81,-127,-54,-67,3,-19,-66,-3,-34,-27,-42, 
  /* [55][0][][] */ 52,-12,1,-7,31,-44,-69,-127,-27,-69,-60,0,-4,-41,15,0, 
  /* [56][0][][] */ 0,4,32,-37,-8,-32,-106,54,2,127,4,-12,23,2,-3,26, 
  /* [57][0][][] */ 0,31,-46,-19,-46,-51,123,105,-35,38,-23,-1,39,32,127,-13, 
  /* [58][0][][] */ 56,13,-127,34,90,87,-26,60,-100,-32,-20,-11,-29,12,-11,-20, 
  /* [59][0][][] */ -101,76,121,26,-77,-59,126,127,19,-2,34,-13,26,21,69,-3, 
  /* [60][0][][] */ -6,1,-48,8,27,-127,-27,5,-17,-5,-5,-10,33,-4,6,-13, 
  /* [61][0][][] */ 18,-3,27,127,88,30,23,10,-100,-4,4,32,-2,12,27,-58, 
  /* [62][0][][] */ -44,127,12,-46,-28,-22,-64,47,-40,-49,-84,-44,-10,-93,-60,-34, 
  /* [63][0][][] */ -44,25,-30,127,-70,29,-62,-31,-54,-23,-27,-42,16,59,21,31, 
  /* [64][0][][] */ 9,-3,-3,54,-1,31,-10,92,19,-8,-31,-58,-17,-127,50,2, 
  /* [65][0][][] */ -8,-43,-3,-102,26,-27,68,-20,-2,43,-4,-127,-21,-1,10,-26, 
  /* [66][0][][] */ 21,-17,71,-6,9,-3,-7,75,4,-67,34,50,3,127,3,52, 
  /* [67][0][][] */ -5,59,-7,-127,-10,9,-77,38,84,-114,-33,-3,35,86,68,28, 
  /* [68][0][][] */ -20,29,127,35,30,5,3,5,-42,-34,-33,-42,10,-12,70,-46, 
  /* [69][0][][] */ 127,69,-27,-18,-98,-40,-19,-43,0,10,93,-70,-69,42,68,-70, 
  /* [70][0][][] */ 46,-1,-66,-19,-36,20,66,127,-40,83,-29,-6,4,55,-19,38, 
  /* [71][0][][] */ 3,4,1,24,11,-80,-6,22,-34,23,-86,18,-127,9,44,34, 
  /* [72][0][][] */ 19,20,-127,17,3,20,46,97,-29,-26,10,-12,13,24,-6,21, 
  /* [73][0][][] */ -37,12,41,5,38,-33,-75,-127,20,-89,29,-26,14,-42,29,-9, 
  /* [74][0][][] */ -15,47,42,119,5,-21,-106,75,-65,34,-39,56,16,-127,44,-87, 
  /* [75][0][][] */ -31,38,-41,14,30,9,11,-1,93,34,-10,10,22,127,-35,-17, 
  /* [76][0][][] */ -2,-10,1,22,4,-25,-16,67,12,-30,-25,-127,-4,-2,1,11, 
  /* [77][0][][] */ -27,28,-23,127,-41,49,79,89,18,26,-2,32,-4,-27,-13,-32, 
  /* [78][0][][] */ 35,-24,15,-127,12,-45,-19,40,65,-67,17,-57,22,121,25,76, 
  /* [79][0][][] */ -8,-79,-78,-60,-95,-4,14,-88,127,33,12,46,15,28,37,-31, 
  /* [80][0][][] */ -69,0,127,-96,43,-14,-14,-82,-80,40,-3,-53,6,104,85,-60, 
  /* [81][0][][] */ -38,40,-127,21,61,-114,-10,51,-7,-41,58,-8,19,-3,6,4, 
  /* [82][0][][] */ 127,-10,-11,12,5,-99,-15,11,-13,-14,-89,-18,98,-4,-1,35, 
  /* [83][0][][] */ -34,73,-126,-81,-44,-10,46,-118,64,65,-46,-127,12,52,48,108, 
  /* [84][0][][] */ -52,46,86,-22,14,-12,49,-127,-26,56,-24,-48,49,64,23,-24, 
  /* [85][0][][] */ -75,127,34,-112,-65,-23,-38,-4,-54,-7,-66,30,14,-4,-83,-33, 
  /* [86][0][][] */ 14,-11,-37,4,-38,-24,127,1,18,-39,-12,-4,1,15,66,-3, 
  /* [87][0][][] */ -18,-35,12,-125,6,-26,33,-22,-3,10,-11,-127,-3,-14,10,-33, 
  /* [88][0][][] */ 90,-39,61,-11,42,-127,-9,24,-57,28,-123,-54,54,49,94,6, 
  /* [89][0][][] */ 20,-14,-33,-44,30,-5,-30,-9,-47,10,29,-58,127,-1,33,-47, 
  /* [90][0][][] */ -15,-46,28,-48,81,3,-57,83,47,-80,-41,-31,-13,99,8,-127, 
  /* [91][0][][] */ -54,-10,-20,-32,21,-25,-35,-98,1,60,-9,-127,-37,-18,-3,2, 
  /* [92][0][][] */ -18,17,34,13,-5,-127,14,-4,8,-24,-1,-21,1,-29,19,14, 
  /* [93][0][][] */ 34,-10,127,-16,-49,52,22,-22,-21,49,-64,-1,-27,11,27,-3, 
  /* [94][0][][] */ 51,-7,-20,-18,12,-2,-5,-3,-34,-33,5,-80,127,-15,36,-8, 
  /* [95][0][][] */ 127,97,4,45,-87,-20,-76,-5,-30,-40,99,-22,-45,43,90,-96, 
};
const TfArray<4, int> tensor_dimension7 = { 4, { 96,1,1,16 } };
const TfArray<96, float> quant7_scale = { 96, { 0.00086011533858254552, 0.0013258224353194237, 0.00069875142071396112, 0.0010574692860245705, 0.00094587053172290325, 0.0013782649766653776, 0.00052789464825764298, 0.00075778563041239977, 0.00064047693740576506, 0.0012357273371890187, 0.00048390150186605752, 0.00082195189315825701, 0.00098695268388837576, 0.0033316635526716709, 0.00046421404113061726, 0.00038910144940018654, 0.00039959355490282178, 0.00061573914717882872, 0.0011560899438336492, 0.00079676415771245956, 0.00033273085136897862, 0.00030496387626044452, 0.00034941142075695097, 0.00040136955794878304, 0.00038628830225206912, 0.0014315829612314701, 0.0014021159149706364, 0.0011589496862143278, 0.00074615760240703821, 0.0012307987781241536, 0.00084270036313682795, 0.00075332488631829619, 0.00060391513397917151, 0.00080302008427679539, 0.0008677969453856349, 0.00068941089557483792, 0.00054579152492806315, 0.00057272356934845448, 0.00073907116893678904, 0.00091218156740069389, 0.00042312542791478336, 0.0011196519481018186, 0.0011611328227445483, 0.00057353259762749076, 0.00080430309753865004, 0.0005159911816008389, 0.00080419564619660378, 0.00061111227842047811, 0.00081894383765757084, 0.0009147895616479218, 0.00059651467017829418, 0.00062514893943443894, 0.0011094858637079597, 0.00076010497286915779, 0.0010093037271872163, 0.00088301952928304672, 0.0012075399281457067, 0.00071980262873694301, 0.0010739503195509315, 0.00038747399230487645, 0.0024560431484133005, 0.0012198210461065173, 0.00082712894072756171, 0.00097138190176337957, 0.0015825610607862473, 0.00086373498197644949, 0.0003529690729919821, 0.00058912223903462291, 0.0012109047966077924, 0.0013970335712656379, 0.00064611341804265976, 0.00063234387198463082, 0.0019961968064308167, 0.00086349196499213576, 0.00083223165711387992, 0.00065241544507443905, 0.00078347348608076572, 0.00028327564359642565, 0.00030593606061302125, 0.00073999783489853144, 0.00044364490895532072, 0.00044493097811937332, 0.00049443531315773726, 0.00058251322479918599, 0.00045956866233609617, 0.0008964201551862061, 0.0015691545559093356, 0.00060016143834218383, 0.00033789387089200318, 0.0014629865763708949, 0.00082480156561359763, 0.00078837166074663401, 0.00096154818311333656, 0.0012619205517694354, 0.00097517773974686861, 0.0006082722102291882, } };
const TfLiteAffineQuantization quant7 = { (TfLiteFloatArray*)&quant7_scale, (TfLiteIntArray*)&g0::quant6_zero, 0 };
const MODEL_SECTION(EI_MODEL_SECTION) ALIGN(16) int32_t tensor_data8[16] = { -7151, 21240, -20095, -4634, -11864, 6864, 33439, -51044, 7681, 28784, 22411, 7060, -10566, 16145, -2738, 17695, };
const TfArray<1, int> tensor_dimension8 = { 1, { 16 } };
const TfArray<16, float> quant8_scale = { 16, { 0.00075552699854597449, 0.0003626337565947324, 0.00024107046192511916, 0.00025302168796770275, 0.00038381238118745387, 0.00033394386991858482, 0.00032120803371071815, 0.00031663724803365767, 0.00030631900881417096, 0.00030561888706870377, 0.00066275929566472769, 0.00064160022884607315, 0.00045073227374814451, 0.00023442009114660323, 0.00051940366392955184, 0.00043412632658146322, } };
const TfArray<16, int> quant8_zero = { 16, { 0,0,0,0,0,0,0,0,0,0,0,0,0,0,0,0 } };
const TfLiteAffineQuantization quant8 = { (TfLiteFloatArray*)&quant8_scale, (TfLiteIntArray*)&quant8_zero, 0 };
const MODEL_SECTION(EI_MODEL_SECTION) ALIGN(16) int8_t tensor_data9[16*1*1*96] = { 
  /* [0][0][][] */ -16,-16,1,-25,17,-13,-36,-4,17,7,-14,-4,-14,-16,-22,10,-2,4,-10,1,-6,-44,-9,-3,-10,18,-8,127,23,-40,27,-12,-12,2,3,-3,-4,16,-36,-4,-21,8,2,22,0,6,3,14,18,-4,2,7,13,-7,-11,70,16,7,-35,-27,-8,17,-8,-25,-36,-58,-18,27,1,5,7,-21,-5,-27,-1,-15,-42,16,8,3,-9,-21,11,10,-12,-21,-6,-76,-11,-21,8,10,37,-31,-24,-20, 
  /* [1][0][][] */ 46,-47,-69,-74,104,-3,76,42,-46,-99,-52,-9,9,0,-93,21,-73,-6,58,33,65,76,1,-55,56,-36,5,-98,37,-25,-42,40,3,39,6,23,-1,-13,-4,36,-19,37,-39,-4,-24,72,39,-8,22,-69,-2,-63,-29,10,37,14,-84,-15,-25,-45,38,1,14,-42,-87,99,-33,-12,4,-40,-19,21,38,-109,-53,-9,88,-82,42,20,15,-51,60,4,-45,52,-19,5,50,-21,-3,-13,62,9,10,127, 
  /* [2][0][][] */ 8,67,-43,12,60,74,23,73,-3,-118,-1,-8,28,6,29,20,19,-12,-34,63,65,45,96,3,67,0,13,-44,38,14,91,-32,69,25,-35,66,-127,-81,33,22,44,-40,-4,0,35,-8,30,65,-10,49,-45,-5,66,-42,-7,58,-1,33,31,10,9,35,34,-18,13,-3,-6,0,-37,14,7,-25,-48,-69,0,61,92,53,2,4,19,-41,30,-1,-11,46,20,20,1,26,12,-49,25,-7,-69,17, 
  /* [3][0][][] */ 64,21,97,-4,36,-17,24,-21,-1,-66,19,-31,4,17,39,95,42,1,42,16,120,21,43,28,66,-23,3,-8,19,19,12,78,-68,-4,21,6,-31,-44,-3,27,-61,-16,70,34,19,55,-23,-74,-57,-49,-32,51,-7,-127,-5,13,-98,75,46,25,24,102,-4,-38,48,60,24,-61,31,6,21,-59,39,-9,38,-18,35,32,45,50,-21,-63,31,13,-27,-21,4,26,24,22,20,16,48,113,36,-1, 
  /* [4][0][][] */ 25,0,30,-17,127,53,-7,-7,-49,-70,-36,2,-31,20,3,34,22,-90,-26,107,25,31,55,-6,51,-35,32,-60,16,-1,83,-14,114,21,-34,43,31,1,3,32,-20,2,-33,14,25,-56,4,-1,45,0,-34,34,-10,-77,-4,-32,32,0,-36,25,-4,79,64,51,57,49,-14,0,-49,46,60,84,25,-76,-40,-42,52,46,78,-40,8,-56,36,-7,-70,14,42,44,-29,38,-9,-78,23,27,23,3, 
  /* [5][0][][] */ 14,-4,-2,1,29,-12,39,-13,-27,-35,-12,8,11,39,2,11,-7,-14,17,-14,54,17,-30,77,30,-13,12,-104,5,34,27,31,2,11,12,-43,21,21,-13,11,-10,-8,29,-18,-3,-1,15,-18,-12,-6,17,-20,-3,-38,2,-51,-20,20,-10,12,77,30,10,42,-5,53,13,84,12,88,22,30,3,15,-2,63,-20,-18,12,21,2,-7,16,32,-7,33,-12,127,2,35,-6,-34,12,26,-53,34, 
  /* [6][0][][] */ 26,-99,1,-40,-18,0,42,20,15,14,-32,-98,-59,-4,-25,56,27,-2,-14,-3,-77,16,-7,0,-57,19,-32,0,-21,12,20,-12,38,13,65,-36,0,-1,-6,-96,-45,110,21,-62,-19,-21,-42,36,-41,37,-4,74,-15,-37,-9,-24,23,-85,-17,5,-4,63,27,-93,35,-40,11,-34,-4,-17,126,-16,-44,1,-9,30,-127,-3,38,-1,33,65,-3,-9,-51,-2,37,41,3,3,57,-24,-31,-7,-33,-29, 
  /* [7][0][][] */ -2,103,41,14,127,37,43,-43,-13,-16,31,-9,-30,-1,32,47,39,-34,15,31,6,-48,33,-13,-13,23,6,18,8,-24,-6,11,24,6,-18,-4,24,6,-29,58,-63,47,23,6,-37,-20,14,-5,-34,-40,32,23,15,-25,-18,28,67,17,-26,-1,-20,-29,1,-7,-46,72,-26,-91,-16,-26,3,68,-14,-11,18,24,25,70,51,-23,-29,-24,-26,2,-37,54,-11,13,-50,20,-36,-29,-57,-6,26,-14, 
  /* [8][0][][] */ -18,-11,52,9,-127,-30,43,-25,39,90,54,7,-27,16,14,-1,-75,13,3,-2,-70,-25,-124,60,-12,-34,53,-9,-7,1,-17,36,50,-31,1,-28,-15,3,29,20,-7,-47,24,-5,-46,-5,26,-1,-108,6,5,11,-53,-15,-34,69,-8,-63,-82,-32,11,-59,-34,-23,-2,80,-24,-61,26,-32,-61,-33,41,41,54,-31,-15,-51,-18,10,-114,-3,-28,-7,30,-1,51,22,11,-56,45,72,-7,-21,48,-4, 
  /* [9][0][][] */ -12,-88,-37,24,58,65,-33,-40,24,-43,55,74,-22,3,63,-127,3,-22,-8,-2,-22,-36,18,-15,-12,-17,-3,16,-36,-5,-12,-13,20,17,-80,28,9,28,14,65,36,-76,-7,57,17,-37,-43,-44,12,26,-14,-96,52,14,-26,-25,-15,60,-33,-4,1,-67,-29,105,-84,-10,-20,-13,1,34,-72,-72,43,-10,-15,-3,71,-60,7,-4,5,-45,8,16,-7,-87,15,-24,4,-40,-47,20,-52,-23,14,-35, 
  /* [10][0][][] */ -45,-22,-20,-34,-29,-4,61,-21,43,16,27,20,33,-7,-1,9,1,30,-37,-12,-8,26,11,18,-31,-1,5,-127,26,-47,61,-43,-7,27,-10,-2,0,44,20,-9,22,-27,18,-61,11,-7,23,31,-5,37,-26,-26,-35,-13,-11,-52,32,23,-17,-30,26,12,-10,7,-41,80,-9,-29,13,-28,-3,-21,-30,-2,25,69,-19,45,-17,17,-33,4,-4,19,8,-18,0,125,-11,-12,22,19,23,-45,64,-47, 
  /* [11][0][][] */ -71,33,16,3,8,-43,-17,7,-46,-10,3,15,40,32,-24,-18,35,4,-56,-41,45,9,7,7,74,-7,62,-10,-18,22,-2,22,12,15,-6,8,-11,6,25,11,-1,-5,-13,12,84,18,77,5,43,25,-21,18,7,-73,14,19,-85,-4,-19,-32,2,-5,12,9,-10,-23,27,10,31,3,9,27,-25,15,17,0,15,69,-107,52,-38,-14,-39,-45,127,18,41,-28,23,50,-16,-69,-6,43,-22,5, 
  /* [12][0][][] */ -2,2,-35,-4,55,24,3,-11,-19,22,29,-4,5,-12,20,-11,-43,-10,11,-21,-3,5,-27,43,-12,32,-20,77,-7,34,-23,7,4,15,1,24,-23,-27,20,11,10,-20,-4,13,-8,15,30,28,7,13,-8,-39,-13,1,-10,-18,-25,-10,21,18,-18,-21,2,27,25,-55,8,52,-24,-127,-5,46,-2,-1,-1,64,15,-13,-14,12,-5,21,-32,0,21,-14,1,-41,8,21,3,1,-27,47,-19,22, 
  /* [13][0][][] */ -95,53,6,-14,-63,3,1,3,-22,-31,18,23,82,16,-10,-9,-21,27,-50,-9,16,-20,40,-40,49,35,0,2,2,-26,-32,-80,-87,-29,19,-3,4,29,18,-8,-58,90,-6,7,45,-2,-16,7,48,-15,27,71,61,-43,61,-30,-1,30,21,7,22,29,-23,20,13,-19,5,6,15,-1,19,-127,11,-8,-75,-5,49,18,-23,-50,89,-37,-3,-37,17,-47,98,-6,-13,-20,-16,16,53,-38,-10,-9, 
  /* [14][0][][] */ -29,15,-28,-51,32,-1,-19,18,-96,3,21,11,-30,-59,-83,-30,-99,-21,68,14,31,1,6,-103,-19,29,-46,-27,14,-15,-27,-30,-67,-32,11,-2,-15,5,17,-24,16,64,-74,-29,-41,-11,2,5,127,-19,29,-20,37,61,-97,25,-5,22,-105,4,9,2,23,20,-10,32,-2,-5,-53,18,45,45,35,-15,-22,31,35,-88,-38,-91,1,-40,-3,30,42,-74,-42,8,-48,9,27,75,0,0,14,-25, 
  /* [15][0][][] */ -49,-94,-15,-38,5,-1,-9,-75,-16,20,-17,-33,17,-25,52,-10,-85,5,-25,5,-45,-23,-85,-50,-36,17,-23,29,-22,-15,46,-98,-28,17,24,-19,2,34,-92,-7,15,-76,1,11,-53,-44,40,35,44,24,-5,-127,-6,65,-7,40,46,-20,-32,45,5,-20,30,-12,4,-12,-12,-14,-24,11,-2,30,-36,6,6,-30,-74,-4,13,4,-11,43,-22,65,-17,-61,-40,-25,-55,49,33,109,-56,-15,7,-33, 
};
const TfArray<4, int> tensor_dimension9 = { 4, { 16,1,1,96 } };
const TfArray<16, float> quant9_scale = { 16, { 0.032109897583723068, 0.015411934815347195, 0.010245494544506073, 0.010753422044217587, 0.016312025487422943, 0.014192613773047924, 0.013651341199874878, 0.013457082211971283, 0.01301855780184269, 0.012988802045583725, 0.028167270123958588, 0.027268009260296822, 0.019156120717525482, 0.0099628539755940437, 0.022074654698371887, 0.018450368195772171, } };
const TfLiteAffineQuantization quant9 = { (TfLiteFloatArray*)&quant9_scale, (TfLiteIntArray*)&g0::quant8_zero, 0 };
const MODEL_SECTION(EI_MODEL_SECTION) ALIGN(16) int32_t tensor_data10[96] = { 21756, 51927, -1962, -416, 13732, -5085, 224, -979, 5445, 11732, -4649, 626, 990, 5438, 5452, -9950, -4483, -961, -1189, 14896, -7679, 17452, -966, 7282, 28039, 268, -7082, 16743, 13246, -18975, 1345, 23129, 23262, -12339, 2018, 87, -208, 1325, 3408, -8226, -5725, -866, -9062, 282, 29019, -657, 12291, -552, -15007, 605, -174, -766, -2479, 20415, -4516, 14291, 17943, 335, 32286, 718, -8561, -1696, 1766, 68, -1661, 11149, -1815, -8028, -3463, 3050, 213, -2330, 1850, -206, -2175, -7009, 633, -1995, 44399, -9802, -5285, -10491, 5, -175, 54913, -12909, -12232, -27567, -6366, 8175, -3770, 30555, 422, -2082, -3400, -177, };
const TfArray<96, float> quant10_scale = { 96, { 0.00010445364750921726, 0.00010784223559312522, 0.0001078745917766355, 0.00023243433679454029, 0.0002728210820350796, 0.00016622510156594217, 5.8273653849028051e-05, 0.00010332684178138152, 0.00025659630773589015, 0.00021653746080119163, 0.0002222684706794098, 0.00010734647366916761, 0.00026806551613844931, 0.00021272433514241129, 0.00046347302850335836, 0.00012825960584450513, 0.00019281997811049223, 0.00019754178356379271, 0.00017055263742804527, 7.4379786383360624e-05, 0.00011690169048961252, 4.7687230107840151e-05, 0.00013790505181532353, 0.00010028778342530131, 9.5463401521556079e-05, 0.00011522996646817774, 0.00015159721078816801, 0.00018480955623090267, 6.9431735028047115e-05, 0.00049184705130755901, 0.00037397834239527583, 0.00025859192828647792, 0.00011654382251435891, 0.00012250080180820078, 0.00021965753694530576, 0.00048128495109267533, 0.00037961796624585986, 0.00028868086519651115, 0.00025767280021682382, 8.4188453911338001e-05, 0.00021261275105644017, 0.00022586113482248038, 0.00030099885771051049, 8.3677892689593136e-05, 0.00037483611959032714, 9.1573267127387226e-05, 0.00010502229270059615, 0.00031640607630833983, 0.00063321448396891356, 0.00011021953832823783, 0.00045803427929058671, 0.00016476053860969841, 0.00022538352641277015, 0.00013519907952286303, 0.00019339262507855892, 0.00012856835382990539, 0.00016697014507371932, 0.00045559924910776317, 5.1084705773973837e-05, 0.00016968727868515998, 0.00035154464421793818, 0.00031658986699767411, 0.00010969259892590344, 0.00015284420805983245, 0.00012089617666788399, 0.00014585757162421942, 0.00027491006767377257, 0.00027094627148471773, 0.00020033652253914624, 0.00012308832083363086, 0.00017498181841801852, 0.0001003443103400059, 0.00028387259226292372, 0.0001376615691697225, 0.00035757193109020591, 0.00025790749350562692, 0.00016112011508084834, 9.9474411399569362e-05, 5.8153265854343772e-05, 0.00012697734928224236, 0.00026587152387946844, 0.00024212033895310014, 0.00014505794388242066, 0.00026319094467908144, 6.6466949647292495e-05, 0.00010115520126419142, 7.5633077358361334e-05, 0.00048158844583667815, 0.00025190337328240275, 0.00013082160148769617, 0.00027890063938684762, 3.812908471445553e-05, 0.0001454414741601795, 0.00010965077672153711, 0.00033494707895442843, 0.00024849412147887051, } };
const TfLiteAffineQuantization quant10 = { (TfLiteFloatArray*)&quant10_scale, (TfLiteIntArray*)&g0::quant6_zero, 0 };
const MODEL_SECTION(EI_MODEL_SECTION) ALIGN(16) int8_t tensor_data11[1*3*3*96] = { 
  /* [0][0][][] */ -47,-72,-11,127,21,75,74,-57,-11,-21,-16,-7,-31,2,36,0,-8,-39,28,22,28,-127,127,7,-70,10,51,-28,-125,-127,39,22,12,28,58,-17,-31,-9,30,-8,-12,27,-108,70,25,-71,36,46,-18,53,-26,20,4,-8,16,48,-94,-52,-59,-23,-9,3,10,41,68,-25,78,12,-9,15,19,127,22,25,23,-1,-11,18,127,-4,-14,12,-30,20,122,19,-73,-17,-4,-32,-16,-43,0,-24,-13,30, 127,-127,77,106,-43,127,33,-116,68,2,-19,127,127,-98,-14,13,10,127,127,-110,127,-74,78,66,-127,-112,-63,-34,-55,46,-59,-22,-86,51,-127,-85,-44,-15,-53,65,-1,127,127,83,-47,-120,-114,-49,-15,-127,42,86,69,-34,45,82,-47,40,-77,-118,-43,-40,-61,68,74,-60,28,28,-81,30,-18,87,117,127,12,19,2,59,-31,56,64,127,127,-21,-9,79,-106,127,-126,-96,4,-127,-90,-127,-38,111, -75,-13,32,-81,14,-26,66,-9,77,-35,-28,19,-19,-7,-10,-12,-10,-11,8,-6,-16,-109,28,-2,-112,98,6,-55,113,49,-14,11,2,12,16,-29,-14,31,20,14,25,13,-121,67,17,-23,38,14,-14,12,-16,4,-10,-3,-1,20,-66,5,-32,46,3,43,34,2,-6,-37,-31,22,10,3,-5,36,7,-27,-8,4,-16,-4,-82,2,-23,-23,-20,3,-110,6,-27,-22,-55,25,-26,-40,29,-25,-14,4, 
  /* [0][1][][] */ -64,-74,75,-35,-48,97,16,127,-49,-25,-1,-125,25,-118,76,31,-3,-58,-15,89,49,-78,46,55,-97,-16,127,-22,-24,62,120,-108,-127,89,-85,-57,-39,28,-27,96,-48,-25,-5,47,-47,127,-20,63,15,97,19,-1,16,-59,28,30,127,123,-74,-88,127,-32,-36,127,72,-37,-13,2,127,36,127,95,-41,105,-2,12,13,14,-27,10,-46,118,-83,110,3,36,-53,29,80,-127,-31,-8,127,-69,-22,3, 67,126,57,-112,127,85,88,39,-127,127,127,-41,-68,-127,-127,127,127,-63,-121,-49,98,97,-124,127,-94,-91,-42,127,-127,108,-127,-127,-82,127,105,127,127,-127,-104,127,-67,-95,108,-127,-127,-38,-127,-127,127,-113,87,44,127,127,127,-127,101,-127,-127,127,19,-79,-127,-102,-127,127,-127,127,-126,-127,-109,-85,-127,-79,127,127,-127,127,-73,127,127,28,-44,-127,57,127,90,43,127,16,127,6,-68,37,127,-127, -55,-14,-48,37,-56,-102,35,-27,16,-35,-30,94,1,93,12,12,-4,60,-5,125,4,-85,-44,10,-79,102,-70,-20,-66,-16,17,-64,-68,38,8,-17,-30,40,-64,42,127,-4,-41,29,-39,-59,18,43,8,121,-10,6,-38,-76,1,17,97,2,1,21,-31,127,90,-55,-42,14,37,-10,-73,120,-20,-89,-2,-52,-17,-21,23,13,72,-38,-73,-43,55,13,-49,-14,74,23,11,62,-42,22,-43,99,-25,-3, 
  /* [0][2][][] */ -68,4,-2,-21,11,-48,72,27,56,-32,-38,-3,16,19,-25,5,-4,64,12,1,-55,-85,1,-7,-25,-54,40,-69,84,39,26,25,15,-8,-13,-45,-8,33,-4,0,-14,-5,-68,101,5,28,9,36,-16,-30,8,-19,25,-3,13,12,-78,23,-15,12,14,3,-22,-3,-2,-46,-48,15,-34,15,27,31,13,-18,28,5,19,7,-76,-13,-8,-11,16,15,-127,7,12,-44,-61,-51,-28,-52,10,57,-18,-6, 122,35,-127,-35,-72,-28,41,32,-64,-29,-21,-108,-79,115,-12,47,3,-51,-6,-127,90,-52,-41,4,-113,127,-46,21,-42,-20,-9,-3,-63,20,27,5,-22,-30,127,51,11,-14,64,-37,-37,74,-71,-45,-33,-6,-127,-127,-50,-28,6,37,-70,-8,14,38,-7,-16,7,-44,-56,34,64,-21,114,109,-23,-72,12,-55,4,3,100,5,50,24,12,-99,-52,4,3,5,127,39,-61,36,-18,-110,44,83,-10,26, -54,17,-17,26,14,-75,-127,-2,-11,-11,-17,1,15,-23,19,3,-4,-14,8,14,-43,-71,12,0,18,-98,25,4,-48,-39,-6,17,41,-20,-4,-26,-36,5,44,-45,25,-1,-52,-36,3,64,24,15,-9,-3,10,-8,20,5,-5,-8,-66,-14,5,-41,-10,14,83,-11,34,0,-3,29,2,7,-4,19,-19,17,1,12,35,2,77,-13,3,-9,-9,-18,75,-1,43,-39,59,41,-18,-65,-6,6,-14,-15, 
};
const TfArray<4, int> tensor_dimension11 = { 4, { 1,3,3,96 } };
const TfArray<96, float> quant11_scale = { 96, { 0.0044392799027264118, 0.0045832949690520763, 0.0045846700668334961, 0.0098784593865275383, 0.011594896204769611, 0.0070645664818584919, 0.0024766302667558193, 0.0043913908302783966, 0.010905343107879162, 0.0092028416693210602, 0.0094464095309376717, 0.0045622251927852631, 0.011392784304916859, 0.00904078409075737, 0.019697602838277817, 0.0054510333575308323, 0.008194848895072937, 0.0083955256268382072, 0.0072484868578612804, 0.0031611407175660133, 0.0049683218821883202, 0.0020267071668058634, 0.0058609643019735813, 0.0042622308246791363, 0.004057194571942091, 0.0048972736112773418, 0.0064428811892867088, 0.0078544057905673981, 0.0029508485458791256, 0.02090349979698658, 0.015894079580903053, 0.010990156792104244, 0.0049531124532222748, 0.0052062841132283211, 0.0093354452401399612, 0.020454609766602516, 0.016133762896060944, 0.012268936261534691, 0.010951093398034573, 0.0035780093166977167, 0.009036041796207428, 0.0095990980044007301, 0.012792451307177544, 0.0035563104320317507, 0.015930535271763802, 0.0038918638601899147, 0.0044634472578763962, 0.013447257690131664, 0.026911614462733269, 0.0046843304298818111, 0.019466456025838852, 0.007002322468906641, 0.0095787998288869858, 0.0057459608651697636, 0.0082191862165927887, 0.0054641547612845898, 0.0070962309837341309, 0.01936296746134758, 0.0021710998844355345, 0.0072117093950510025, 0.014940647408366203, 0.013455069623887539, 0.00466193538159132, 0.0064958785660564899, 0.0051380875520408154, 0.0061989463865756989, 0.011683677323162556, 0.011515215970575809, 0.0085143018513917923, 0.0052312533371150494, 0.0074367271736264229, 0.0042646331712603569, 0.012064584530889988, 0.0058506163768470287, 0.015196806751191616, 0.010961067862808704, 0.0068476046435534954, 0.0042276624590158463, 0.0024715138133615255, 0.0053965370170772076, 0.011299539357423782, 0.010290114209055901, 0.00616496242582798, 0.011185614392161369, 0.0028248452581465244, 0.0042990958318114281, 0.0032144058495759964, 0.020467508584260941, 0.01070589292794466, 0.0055599180050194263, 0.011853276751935482, 0.0016204860294237733, 0.0061812624335289001, 0.0046601579524576664, 0.014235250651836395, 0.010560999624431133, } };
const TfLiteAffineQuantization quant11 = { (TfLiteFloatArray*)&quant11_scale, (TfLiteIntArray*)&g0::quant6_zero, 3 };
const MODEL_SECTION(EI_MODEL_SECTION) ALIGN(16) int32_t tensor_data12[96] = { 1587, 6732, 10570, 23203, 16775, -2397, -1353, 5444, 26849, -2675, 7047, 4400, 7023, 8033, 22690, 1061, 1592, 5086, 6027, 3801, -488, 312, 8257, -883, 3385, -13, 7093, 5044, 3776, 24179, 31289, 16834, 5604, -455, 7327, 2191, 1164, 3884, 19313, -510, 8644, 7043, 23089, -3704, 19482, 6415, 4619, 7935, 43332, 7448, -397, 6261, -2752, -43, -1466, 5767, -454, 12083, 3810, 5764, 5561, 10807, 4426, 5059, 8042, 6363, 3559, -4292, 5498, -1736, 3409, 7920, 13653, 4325, -3798, -4477, 5903, 187, 1494, -922, 11891, 15423, 3704, 9633, 1419, -107, 6439, 158538, 7824, 10863, 3603, -355, 5322, 5296, 4052, 9079, };
const TfArray<96, float> quant12_scale = { 96, { 0.00027603708440437913, 0.00022944375814404339, 0.00017781474161893129, 9.9479708296712488e-05, 0.00018260134675074369, 0.00041695093386806548, 0.00055202026851475239, 0.00030485002207569778, 8.5647385276388377e-05, 0.0005072467029094696, 0.00038811177364550531, 0.00021125786588527262, 0.00018317403737455606, 0.00028420609305612743, 0.00010455908341100439, 0.00051103596342727542, 0.00027449268964119256, 0.00023613881785422564, 0.00038163040881045163, 0.00032457165070809424, 0.00033878794056363404, 0.00072745454963296652, 0.00024409139587078243, 0.00070961681194603443, 0.00077012856490910053, 0.00031759767443872988, 0.00031298419344238937, 0.00027384512941353023, 0.00040898070437833667, 0.00014550999912898988, 9.1084912128280848e-05, 0.00014864851254969835, 0.00029366402304731309, 0.00042459301766939461, 0.00027264363598078489, 0.00025242168339900672, 0.00046119315084069967, 0.00039414729690179229, 0.00014155023382045329, 0.0010381417814642191, 0.0002103987499140203, 0.00022040640760678798, 0.00011755781451938674, 0.00029833195731043816, 0.00016645104915369302, 0.00024667734396643937, 0.00036934833042323589, 0.0003341527481097728, 9.5427538326475769e-05, 0.00028275663498789072, 0.00023430099827237427, 0.00027678429614752531, 0.00036633224226534367, 0.00031532155117020011, 0.0006638510967604816, 0.00019373628310859203, 0.00022919656476005912, 0.00015153209096752107, 0.00053660734556615353, 0.00026308622909709811, 0.00028337654657661915, 0.00012651470024138689, 0.00033145601628348231, 0.00019745840108953416, 0.00030974653782323003, 0.00030371607863344252, 0.00035527875297702849, 0.00031605374533683062, 0.00029809327679686248, 0.00041371313272975385, 0.00033639275352470577, 0.00020085586584173143, 0.00015401376003865153, 0.0002449209860060364, 0.00040646718116477132, 0.00029693238320760429, 0.00027786014834418893, 0.00045777534251101315, 0.00047409947728738189, 0.00038616705569438636, 0.00017325507360510528, 0.00010747299529612064, 0.00023872336896602064, 0.00020763235806953162, 0.00074591976590454578, 0.00032757894950918853, 0.00036729130079038441, 2.5016510335262865e-05, 0.00018012183136306703, 0.00020808563567698002, 0.00035256237606517971, 0.0005033269408158958, 0.00027413261705078185, 0.0003057581780012697, 0.00025426119100302458, 0.00018919649301096797, } };
const TfLiteAffineQuantization quant12 = { (TfLiteFloatArray*)&quant12_scale, (TfLiteIntArray*)&g0::quant6_zero, 0 };
const MODEL_SECTION(EI_MODEL_SECTION) ALIGN(16) int8_t tensor_data13[96*1*1*16] = { 
  /* [0][0][][] */ 5,76,-28,92,41,23,23,-10,37,38,-69,120,-11,-125,77,-127, 
  /* [1][0][][] */ 33,63,-7,1,33,-29,127,-121,31,92,-14,-9,7,-42,73,12, 
  /* [2][0][][] */ -127,46,-19,-10,-7,14,52,83,-11,85,105,-6,-42,19,29,-50, 
  /* [3][0][][] */ -44,54,42,42,-60,48,87,127,6,101,-83,-22,27,-89,-80,-52, 
  /* [4][0][][] */ 22,-6,26,99,-46,51,-5,48,35,3,-16,-23,16,2,-127,-10, 
  /* [5][0][][] */ 9,-39,80,-14,4,-31,-28,16,-67,97,-44,-127,-11,26,-74,-8, 
  /* [6][0][][] */ 44,-3,25,-9,35,44,-70,-64,-35,-27,31,-20,127,-29,-33,-1, 
  /* [7][0][][] */ 38,76,127,-4,-26,-21,21,22,-84,59,-105,-45,28,10,50,-18, 
  /* [8][0][][] */ 39,76,120,121,-28,111,-9,-2,83,24,95,-61,-23,36,-116,-127, 
  /* [9][0][][] */ 48,-74,69,43,29,-20,13,12,85,19,44,36,-37,23,-127,-45, 
  /* [10][0][][] */ -29,-111,-15,-19,-100,-21,2,45,101,127,37,-42,-36,59,73,-5, 
  /* [11][0][][] */ 29,-51,12,-127,37,-14,-88,-109,-95,32,-34,-49,-3,-63,35,-57, 
  /* [12][0][][] */ -14,-15,10,-44,-45,-65,-76,-11,-61,-87,-20,7,15,127,91,49, 
  /* [13][0][][] */ -108,-127,-72,48,23,-39,-24,-60,69,4,13,46,49,45,85,-10, 
  /* [14][0][][] */ 14,-78,51,41,16,16,-6,109,56,36,8,-65,36,20,-62,127, 
  /* [15][0][][] */ 27,-46,-1,54,9,-18,102,8,3,-127,0,-41,-8,-17,0,-21, 
  /* [16][0][][] */ 50,-91,-46,11,6,-20,34,-66,127,54,105,5,24,101,87,116, 
  /* [17][0][][] */ -64,-6,61,127,99,87,27,-4,37,-32,34,-1,14,79,-83,-32, 
  /* [18][0][][] */ 9,16,3,13,-48,-7,-2,26,-27,12,-43,-47,-10,-127,34,7, 
  /* [19][0][][] */ 82,-110,31,-46,127,7,-68,73,110,-64,64,32,-83,68,-12,113, 
  /* [20][0][][] */ 31,-15,84,-56,-34,24,-28,76,-47,-38,109,-10,8,52,-39,127, 
  /* [21][0][][] */ -72,36,-17,-45,-3,15,-70,-38,-10,111,-2,-15,-127,-29,37,-17, 
  /* [22][0][][] */ 27,-25,8,-46,6,-69,-6,4,-127,11,-15,-42,-17,-1,39,-24, 
  /* [23][0][][] */ 11,17,18,-12,-2,2,-15,9,-12,-11,50,-8,127,1,6,-25, 
  /* [24][0][][] */ -13,25,-3,-95,2,-10,36,-2,11,44,-20,-116,43,-127,62,-26, 
  /* [25][0][][] */ -95,86,-117,19,10,-66,-46,-112,-20,87,-56,-65,-127,9,38,-24, 
  /* [26][0][][] */ 62,13,26,-104,75,-18,5,5,127,-15,50,-11,-41,97,-14,52, 
  /* [27][0][][] */ 87,-41,30,-45,-26,-48,-3,-23,-43,14,-127,24,18,-20,-9,25, 
  /* [28][0][][] */ -100,-43,-127,-50,32,-21,33,-71,-29,31,-103,4,68,-36,-39,39, 
  /* [29][0][][] */ -72,-48,-30,127,-30,-23,26,-25,-8,3,-65,50,21,-64,51,-34, 
  /* [30][0][][] */ 31,-29,127,-3,63,41,-45,37,-15,-77,41,-25,16,27,-55,63, 
  /* [31][0][][] */ 25,-111,1,-64,16,-53,13,-58,-13,36,127,12,-8,94,112,123, 
  /* [32][0][][] */ -11,60,-44,30,-127,21,-62,-61,-47,-44,3,46,2,56,42,69, 
  /* [33][0][][] */ 25,-20,31,115,30,16,7,-61,-127,44,104,-27,10,-22,25,85, 
  /* [34][0][][] */ -14,-3,16,7,79,-15,-127,-22,-26,99,-60,-2,16,-1,12,-23, 
  /* [35][0][][] */ 127,-10,-25,-20,-2,-120,-31,-18,-8,8,-94,-16,103,27,24,64, 
  /* [36][0][][] */ 12,12,-127,13,52,-7,-32,45,-40,-22,-3,-1,-23,21,-20,-2, 
  /* [37][0][][] */ 22,-15,127,20,-75,2,17,-59,24,72,-66,23,21,-19,26,-18, 
  /* [38][0][][] */ -127,20,-3,12,35,74,5,-43,-5,-51,127,-9,-34,8,1,-40, 
  /* [39][0][][] */ -4,-3,12,22,25,-34,-127,37,16,38,9,-68,-6,-15,-9,13, 
  /* [40][0][][] */ 5,55,4,127,47,47,27,24,-53,-56,-15,67,33,48,-54,-61, 
  /* [41][0][][] */ 11,8,-51,-27,-68,-17,127,104,-46,63,-30,-8,-15,76,38,37, 
  /* [42][0][][] */ 24,-18,-40,-37,10,-3,-37,29,63,-75,127,16,-7,61,-23,44, 
  /* [43][0][][] */ -112,53,60,-16,27,31,-99,-127,-6,72,24,-25,-122,-45,41,-26, 
  /* [44][0][][] */ 12,-7,-13,15,3,8,6,-33,127,0,2,63,29,123,-33,19, 
  /* [45][0][][] */ -38,-29,5,-112,43,-50,-27,25,-11,-58,25,26,-1,102,9,127, 
  /* [46][0][][] */ -50,28,-36,100,-99,-50,0,-89,-127,18,-48,7,-23,45,14,-21, 
  /* [47][0][][] */ -25,-2,-90,127,13,68,-21,-24,22,9,42,58,-7,-21,36,-17, 
  /* [48][0][][] */ -17,16,12,-127,38,-24,-16,9,-21,26,28,3,-26,29,93,22, 
  /* [49][0][][] */ 9,45,53,127,-8,50,-79,12,18,-39,-89,-22,-2,-22,-45,-124, 
  /* [50][0][][] */ -8,75,42,-102,93,37,-42,58,127,-29,-15,30,27,-7,14,-41, 
  /* [51][0][][] */ 4,-25,22,-2,50,-10,-49,-127,7,-52,-21,-1,-11,-13,-20,-5, 
  /* [52][0][][] */ 26,24,-7,38,38,13,-88,98,-77,127,-50,-51,60,93,-16,-17, 
  /* [53][0][][] */ -39,77,-1,-99,-62,-41,47,-5,-116,-60,-61,61,-9,-95,-127,23, 
  /* [54][0][][] */ 9,-6,24,28,31,-22,8,-40,0,20,-24,-25,-17,127,-65,5, 
  /* [55][0][][] */ -122,115,72,-5,33,3,-9,-7,-23,32,95,-26,-27,-22,127,-7, 
  /* [56][0][][] */ 106,-2,4,-114,86,9,-31,37,66,-28,41,112,11,1,127,77, 
  /* [57][0][][] */ -16,-14,7,39,-32,20,49,127,-17,13,-35,-29,-28,60,10,12, 
  /* [58][0][][] */ 20,127,8,-103,8,37,-17,32,77,-23,-8,59,21,-66,45,57, 
  /* [59][0][][] */ 8,64,49,-127,-30,14,18,-9,0,7,6,-21,-8,-100,-56,-13, 
  /* [60][0][][] */ 82,24,105,-42,-32,127,54,-18,-14,55,-74,-6,33,16,13,-3, 
  /* [61][0][][] */ -5,1,-49,-1,-52,10,85,127,1,43,4,-21,-24,98,6,-14, 
  /* [62][0][][] */ -3,-6,-15,-34,-67,9,-38,8,-44,-22,16,-51,9,-127,66,5, 
  /* [63][0][][] */ 26,-14,-40,-115,45,-21,-89,-127,-81,63,-9,-9,33,-4,-11,-36, 
  /* [64][0][][] */ 11,-23,29,46,74,-14,-24,-127,18,-115,-12,-54,18,-34,10,27, 
  /* [65][0][][] */ -127,15,29,-28,16,72,37,-40,-52,24,42,-4,-1,24,-11,-18, 
  /* [66][0][][] */ 107,5,63,3,-30,-39,-14,58,-106,-26,59,-50,-17,5,-127,17, 
  /* [67][0][][] */ -15,20,-28,37,56,-73,-83,-101,26,-127,-37,-35,-75,21,-84,16, 
  /* [68][0][][] */ 4,38,-55,79,-74,-110,-8,-94,6,27,88,-20,-30,83,127,-50, 
  /* [69][0][][] */ -30,31,-60,39,-21,-113,9,80,48,25,58,-11,127,24,-20,4, 
  /* [70][0][][] */ 11,-10,-49,-31,-43,2,127,90,-19,27,-6,-10,19,46,30,23, 
  /* [71][0][][] */ 34,1,-52,-54,30,-32,15,83,-55,-45,-15,6,-11,-127,59,-1, 
  /* [72][0][][] */ 50,18,-20,23,22,-39,-42,-127,19,55,-39,-6,63,46,58,58, 
  /* [73][0][][] */ -2,-127,-29,-46,-75,-14,53,-43,-23,-6,-50,-39,6,-72,94,19, 
  /* [74][0][][] */ -45,2,59,117,-12,4,-104,127,47,-16,-36,-43,-6,2,-19,2, 
  /* [75][0][][] */ -49,18,-26,6,-16,102,104,127,9,53,15,-30,-127,91,80,46, 
  /* [76][0][][] */ 19,-2,-16,-42,75,-54,-97,-127,9,-2,10,24,48,-9,82,-62, 
  /* [77][0][][] */ -6,-15,-50,-21,-75,-29,9,-53,127,3,-93,-17,-9,32,16,-63, 
  /* [78][0][][] */ -106,-127,-31,70,51,32,-13,28,-7,-84,-101,38,14,-22,86,63, 
  /* [79][0][][] */ 32,-17,26,-66,127,-4,62,19,58,31,16,4,-14,-47,1,-44, 
  /* [80][0][][] */ -13,-35,61,-115,-30,-47,-9,38,-82,-44,-23,-29,46,127,-21,17, 
  /* [81][0][][] */ -14,29,77,106,51,127,-94,-34,83,2,-19,-39,54,37,-67,-21, 
  /* [82][0][][] */ -78,-38,20,-116,-14,-12,-8,-60,-31,-22,-50,-127,-12,-96,-84,-4, 
  /* [83][0][][] */ 35,8,9,-32,-59,23,-16,18,-92,-24,0,-83,37,-127,23,59, 
  /* [84][0][][] */ 127,40,-11,39,-41,-6,-35,19,0,-19,66,-20,-57,7,36,-47, 
  /* [85][0][][] */ -10,-40,18,-58,34,-28,-4,81,-88,-127,-45,-22,-77,79,122,-85, 
  /* [86][0][][] */ -22,25,36,29,-9,70,-49,9,-74,-17,42,33,-32,-127,-29,-9, 
  /* [87][0][][] */ 125,-25,37,-7,-28,-33,-3,11,4,34,-127,26,32,-22,-16,47, 
  /* [88][0][][] */ 33,100,-57,10,-34,-26,18,23,75,18,60,0,-2,-48,127,-73, 
  /* [89][0][][] */ 71,73,-127,-3,-40,-72,36,-79,49,44,30,-64,-63,-32,-21,-123, 
  /* [90][0][][] */ 7,-22,-3,-104,-62,15,127,-42,88,-53,22,-37,32,-7,-17,-25, 
  /* [91][0][][] */ 3,47,6,-92,-68,28,-4,-28,-96,-3,91,100,68,28,54,127, 
  /* [92][0][][] */ 35,48,17,5,72,-27,-59,-127,25,-42,32,-11,-42,-33,14,-36, 
  /* [93][0][][] */ 47,6,28,-127,-20,-14,-40,30,47,-51,84,20,-27,99,-1,25, 
  /* [94][0][][] */ -90,57,-106,-4,55,-127,-4,18,-43,-49,86,-18,-22,-8,-53,1, 
  /* [95][0][][] */ -4,62,24,-127,9,-17,-64,17,-15,-32,-77,-34,9,24,-71,-30, 
};
const TfArray<96, float> quant13_scale = { 96, { 0.00063040840905159712, 0.00052399944979697466, 0.00040609005372971296, 0.00022718992840964347, 0.00041702159796841443, 0.00095222488744184375, 0.0012606937671080232, 0.00069621088914573193, 0.00019559993233997375, 0.0011584407184273005, 0.00088636251166462898, 0.00048246682854369283, 0.00041832949500530958, 0.00064906466286629438, 0.00023879011860117316, 0.0011670945677906275, 0.00062688137404620647, 0.00053928949637338519, 0.00087156053632497787, 0.00074125075479969382, 0.00077371770748868585, 0.0016613473417237401, 0.00055745145073160529, 0.0016206098953261971, 0.001758805476129055, 0.00072532374178990722, 0.00071478757308796048, 0.00062540249200537801, 0.00093402259517461061, 0.00033231306588277221, 0.00020801805658265948, 0.00033948072814382613, 0.0006706644780933857, 0.00096967775607481599, 0.00062265852466225624, 0.00057647598441690207, 0.0010532644810155034, 0.00090014637680724263, 0.00032326983637176454, 0.0023708890657871962, 0.00048050479381345212, 0.00050336011918261647, 0.00026847637491300702, 0.00068132503656670451, 0.0003801378479693085, 0.00056335720000788569, 0.00084351090481504798, 0.00076313188765197992, 0.0002179356524720788, 0.00064575439319014549, 0.0005350923165678978, 0.00063211488304659724, 0.0008366228430531919, 0.00072012556483969092, 0.001516090938821435, 0.00044245136086829007, 0.00052343489369377494, 0.00034606619738042355, 0.0012254939647391438, 0.00060083146672695875, 0.00064717017812654376, 0.00028893194394186139, 0.00075697316788136959, 0.00045095186214894056, 0.00070739345392212272, 0.00069362123031169176, 0.0008113791118375957, 0.00072179775452241302, 0.0006807799800299108, 0.00094483047723770142, 0.00076824758434668183, 0.00045871094334870577, 0.0003517337900120765, 0.00055934605188667774, 0.00092828227207064629, 0.00067812873749062419, 0.00063457188662141562, 0.0010454589501023293, 0.001082739676348865, 0.00088192120892927051, 0.00039567676139995456, 0.00024544485495425761, 0.00054519204422831535, 0.00047418696340173483, 0.0017035178607329726, 0.00074811879312619567, 0.00083881313912570477, 5.713224527426064e-05, 0.00041135892388410866, 0.00047522215754725039, 0.00080517545575276017, 0.0011494888458400965, 0.00062605901621282101, 0.0006982849445194006, 0.00058067700592800975, 0.00043208347051404417, } };
const TfLiteAffineQuantization quant13 = { (TfLiteFloatArray*)&quant13_scale, (TfLiteIntArray*)&g0::quant6_zero, 0 };
const MODEL_SECTION(EI_MODEL_SECTION) ALIGN(16) int32_t tensor_data14[16] = { -1233, 10812, -11105, 23170, 18340, 7955, -4273, -4864, 28778, 3374, 31994, 21365, -11884, 15594, 37565, -24522, };
const TfArray<16, float> quant14_scale = { 16, { 0.00045432575279846787, 0.00023756093287374824, 0.00027328342548571527, 0.00023448366846423596, 0.00037298435927368701, 0.00030004774453118443, 0.0002241879265056923, 0.00035696264239959419, 0.00021777232177555561, 0.00029502963298000395, 0.00038912042509764433, 0.00066575512755662203, 0.00042564212344586849, 0.00045537747791968286, 0.00052140775369480252, 0.0003158468462061137, } };
const TfLiteAffineQuantization quant14 = { (TfLiteFloatArray*)&quant14_scale, (TfLiteIntArray*)&g0::quant8_zero, 0 };
const MODEL_SECTION(EI_MODEL_SECTION) ALIGN(16) int8_t tensor_data15[16*1*1*96] = { 
  /* [0][0][][] */ 3,18,-1,7,47,75,-33,-38,37,0,-2,1,-25,-4,21,72,-5,-12,-27,5,104,-62,1,-14,-22,-33,-37,-103,-10,7,51,51,127,0,-5,-14,10,-26,-19,11,-32,14,-9,-37,17,-22,-25,39,-8,11,19,0,-33,-15,-2,-4,30,15,-22,-34,-55,30,-4,-5,8,14,52,-4,6,13,-8,-46,-62,10,-3,-2,-5,-82,3,-20,31,-12,-84,-49,22,-3,4,18,-18,-4,25,-38,19,15,-10,122, 
  /* [1][0][][] */ 53,-127,26,82,26,-88,-6,-76,-47,-111,-18,3,11,-61,-48,-57,-71,1,64,3,-54,-115,-53,11,127,-73,-76,41,-43,100,-43,49,-15,14,-26,55,-9,-19,36,-45,-9,-94,88,-57,-73,17,44,-33,29,50,-18,-75,46,-81,59,-9,11,21,-49,-109,36,-82,6,-60,-4,-118,28,71,32,58,-44,32,-102,-2,-27,94,34,103,18,-18,48,8,-98,28,-89,43,-5,75,-39,14,5,-5,28,-42,19,-7, 
  /* [2][0][][] */ 5,29,-10,-32,26,16,-12,39,53,-10,5,81,36,3,67,-23,3,-38,39,-10,-23,-29,15,-56,-15,-11,-15,27,-12,9,122,-62,29,-87,2,78,36,127,-34,-22,11,-20,-14,49,-37,-84,-48,17,26,27,-57,-36,27,-1,-8,-40,-44,13,10,24,11,22,74,106,39,-82,43,-64,-7,-19,1,30,-42,-21,-39,32,10,61,7,-8,21,90,44,-9,-12,16,40,11,21,19,-13,-76,-26,35,-12,71, 
  /* [3][0][][] */ -28,-27,-51,16,38,-8,-5,2,-5,17,7,10,16,4,65,-21,64,-23,48,7,-18,5,-14,3,-9,14,16,-12,21,-56,48,-31,9,-18,-3,48,-11,-9,-22,22,29,-76,28,-24,-10,9,31,-4,-127,46,-29,35,-109,-42,-11,-52,13,23,-8,48,-13,15,5,10,-3,-74,-47,12,62,18,-7,39,-30,-14,-18,-39,-50,-58,25,-16,40,-42,22,67,43,56,53,9,14,6,-20,4,-7,4,-16,-16, 
  /* [4][0][][] */ 4,-14,17,-59,6,-4,-38,14,-11,-48,-22,6,30,54,4,17,56,-12,-3,6,-24,34,63,-7,-5,6,19,38,-7,-10,10,-29,-23,-10,13,28,52,-29,23,-11,-4,2,-69,-13,23,-30,-13,-9,8,74,-25,-17,-28,-10,7,0,-11,-27,1,36,15,6,13,-2,36,-111,33,-14,-25,7,9,20,-17,25,-15,18,-19,65,51,2,-9,-3,127,-24,49,0,-6,0,65,23,1,30,-31,35,-13,-36, 
  /* [5][0][][] */ -12,-12,-11,-8,1,-3,-3,113,63,-16,-5,-26,-2,25,34,23,-12,-13,28,-34,-61,-4,-13,-56,14,6,20,75,70,5,67,35,-56,11,10,2,-48,-60,-28,-23,-32,-23,-5,-8,53,15,20,-1,-3,26,-19,3,-33,-21,6,-2,-26,-18,0,23,-45,16,-26,-49,7,4,-33,14,-7,22,8,13,22,-2,7,1,-17,25,15,119,13,-58,30,22,5,3,24,-27,-1,-13,0,-127,-16,-2,-10,-114, 
  /* [6][0][][] */ -38,-8,-9,-62,-25,-8,-34,-5,9,35,-25,14,26,-75,-4,-9,-26,-69,34,41,-2,-24,-18,1,84,-20,-13,-28,34,-21,35,1,-44,10,-46,-43,16,10,6,24,8,-35,-65,-28,1,-3,53,-127,5,38,25,16,27,0,-5,-65,50,-7,-3,-2,4,-1,16,8,23,99,20,-33,-33,10,8,-35,34,-2,56,-1,-33,17,10,26,-13,-12,59,-41,-3,62,-4,-53,16,16,-53,-13,-36,-6,-5,7, 
  /* [7][0][][] */ 10,9,24,-21,2,21,-11,-36,9,-8,3,-11,-20,-90,38,8,0,-40,-19,2,16,-16,-33,13,-16,-11,6,-42,28,5,10,1,-14,7,0,-28,-4,-7,-31,24,24,-11,-18,32,0,18,-11,70,-4,18,-4,-10,-25,8,-6,-56,30,1,10,-2,-9,4,-10,1,-24,39,5,-34,-17,-1,-1,20,-2,-5,-5,21,45,7,-6,-26,6,-34,31,-7,-38,127,-8,5,-39,-14,1,7,-17,2,-4,-4, 
  /* [8][0][][] */ -69,13,-52,7,44,-19,-27,23,21,65,-49,3,0,19,46,-17,-20,20,-60,15,17,29,-48,-28,-36,-20,11,14,34,-87,-1,-2,5,29,15,-25,-36,18,-71,32,25,6,-30,-127,-32,-11,50,-30,-43,14,28,77,-96,69,3,-4,6,-1,-30,-27,2,-37,-17,10,-45,26,11,-40,-10,2,39,59,-6,18,23,14,-13,-81,1,-30,-15,-36,26,-10,-62,21,9,-45,-5,53,-27,-4,36,-47,-17,-16, 
  /* [9][0][][] */ 15,-43,-32,-36,15,-1,-17,25,3,-27,-4,-4,-40,-23,-7,2,19,2,40,-43,-27,11,-31,-33,22,8,35,19,-49,-48,-41,-4,-20,26,11,42,24,41,-43,9,17,3,-12,-87,-2,-28,37,-127,-29,2,-9,29,-11,4,-5,-15,-30,45,-26,25,2,6,-1,26,31,107,43,47,15,-11,9,2,2,-14,-43,-2,51,-7,5,8,-12,-6,3,-28,-2,20,13,6,-50,27,-30,8,1,-11,7,-12, 
  /* [10][0][][] */ 22,28,-25,29,69,-111,-14,-63,10,60,23,-11,2,16,24,-71,-8,41,-9,38,-74,-23,5,-53,-70,-16,-55,54,27,10,-1,46,-26,-16,49,-10,70,-33,0,-21,-26,47,38,-29,-55,-6,-31,3,-25,-20,-54,-8,-7,-3,3,-16,16,22,-33,-15,-1,-2,-42,23,11,34,38,50,14,12,28,53,-65,-28,-49,-11,4,15,-3,9,50,1,-71,-48,53,-38,105,10,-11,25,17,-29,88,53,1,-127, 
  /* [11][0][][] */ 46,43,-32,14,8,3,45,16,2,-14,-13,-14,25,4,45,-1,11,2,-92,-14,-2,30,-5,0,-46,-17,-4,15,-1,15,-5,-16,-5,6,24,38,23,19,-8,30,-3,25,44,-89,28,-57,1,-13,-127,15,-1,-42,30,23,-17,22,-21,-12,4,1,33,-16,-18,11,-31,42,-18,21,22,-6,36,6,-49,-32,4,27,-2,-34,-40,-1,16,-6,89,56,0,-23,-10,-8,7,29,-22,-1,13,22,-30,6, 
  /* [12][0][][] */ -26,8,14,-3,-22,31,12,15,127,0,-19,8,12,-1,-47,-50,32,20,16,62,52,41,-13,-30,-5,2,19,-12,-114,0,36,-42,10,-18,-4,-11,22,5,40,-18,-52,-6,-5,11,0,21,3,-11,23,9,-46,10,2,-10,10,4,84,-27,5,27,7,-11,12,-4,-4,28,-24,5,2,11,-5,-16,18,9,-72,-5,31,-3,4,-67,-36,-1,32,54,-13,-16,-29,-18,18,14,-1,56,-28,-12,9,17, 
  /* [13][0][][] */ 26,-12,-30,26,29,7,14,4,5,8,14,0,20,-13,16,-3,18,-67,-32,22,-11,-17,7,13,4,14,-2,-4,-7,-42,1,12,6,4,16,39,18,-10,4,20,1,9,22,34,24,9,-1,-127,18,-6,0,5,-10,2,10,5,-16,17,23,-7,-1,31,-5,6,-9,-20,-20,-60,3,19,-12,-41,-15,36,-14,27,-25,-1,14,8,29,-13,-20,24,20,30,14,16,-3,18,24,-17,2,11,-20,-21, 
  /* [14][0][][] */ -101,-53,41,43,14,-38,-44,0,-23,12,-24,13,53,16,-123,-7,64,2,-21,28,-13,-17,41,-2,-102,6,25,-16,-30,-83,-32,17,1,6,23,-75,3,29,13,-6,-4,30,-32,-39,20,127,70,60,-127,42,15,31,-41,-9,52,-2,43,17,67,71,23,41,7,54,-5,-22,-35,69,5,78,-43,-79,-88,20,4,55,10,32,92,-6,58,26,17,21,29,1,46,47,45,36,84,-3,-25,20,27,-18, 
  /* [15][0][][] */ 89,-24,37,25,-27,76,7,-40,-13,63,14,6,-107,-28,-18,31,-18,37,35,-1,22,15,-93,79,14,0,31,-25,19,44,-67,-72,4,-35,35,-16,21,-38,-92,-120,7,19,-16,8,7,65,-25,-27,93,-63,-18,36,48,-118,32,-111,18,-55,14,18,-127,1,25,14,74,-14,-62,48,-43,88,-31,-20,61,16,26,1,27,-67,69,-13,-35,-1,38,81,-47,4,-13,-64,-7,1,76,-1,-82,51,40,-26, 
};
const TfArray<16, float> quant15_scale = { 16, { 0.019308844581246376, 0.010096339508891106, 0.011614545248448849, 0.0099655557423830032, 0.015851834788918495, 0.012752029113471508, 0.0095279868692159653, 0.015170912258327007, 0.0092553235590457916, 0.012538759037852287, 0.016537617892026901, 0.028294593095779419, 0.018089789897203445, 0.019353542476892471, 0.022159827873110771, 0.013423490338027477, } };
const TfLiteAffineQuantization quant15 = { (TfLiteFloatArray*)&quant15_scale, (TfLiteIntArray*)&g0::quant8_zero, 0 };
const MODEL_SECTION(EI_MODEL_SECTION) ALIGN(16) int32_t tensor_data16[96] = { 9940, -8915, 4674, 56307, -1305, -3454, -9689, 2183, -3001, -52, 3136, -1765, 2794, -7478, 5937, -8168, -1335, 16772, 26853, 1776, -154, -3356, -391, -1173, 17362, 276, -1167, -3458, -4682, -7108, 7282, -9744, 213, -1845, -661, 11482, 938, -2644, 21604, 479, -144, 2160, -10049, -7635, -7270, 63434, -515, 17761, 34540, -13658, -62, 8242, 6384, -1276, -6880, 2421, -10955, 2041, 2501, -6745, -725, -1025, -13268, -507, 1259, 16426, 29218, 20735, -11478, 1240, -12856, -519, 45955, 10894, 108, 549, 18315, 33710, -320, -5065, -3236, -7961, 1118, -3106, 857, -766, -143, -1456, 1690, -3487, 24, -241, 850, -616, 397, 49239, };
const TfArray<96, float> quant16_scale = { 96, { 0.00018500961596146226, 0.00012896554835606366, 0.00022328025079332292, 3.7902886106166989e-05, 0.00016462663188576698, 0.0001950807636603713, 0.00031970225973054767, 8.3769111370202154e-05, 0.00011623284080997109, 0.00047524672118015587, 0.00016962956578936428, 0.00032220708089880645, 0.00010580709931673482, 0.00038117455551400781, 0.00018497352721169591, 9.6502968517597765e-05, 0.00010427457891637459, 0.00030091597000136971, 6.0967417084611952e-05, 0.0002538951812312007, 7.1570939326193184e-05, 0.00018266474944539368, 0.00013123301323503256, 0.00035672393278218806, 0.00019964991952292621, 0.0002528453478589654, 0.00012270559091120958, 0.00017628536443226039, 0.00010071759606944397, 0.00011708037345670164, 0.00012392362987156957, 0.00016834084817674011, 0.00012629438424482942, 0.00012783896818291396, 0.00019075951422564685, 0.0002069932670565322, 0.0004163997364230454, 0.00012250925647094846, 6.0521444538608193e-05, 0.00014356769679579884, 0.00024969808873720467, 0.00029635312967002392, 0.00034617702476680279, 0.00017114137881435454, 0.00020269407832529396, 6.8378954892978072e-05, 0.000190370948985219, 0.00019980446086265147, 7.8399833000730723e-05, 0.00017442715761717409, 0.00019708447507582605, 0.00016724923625588417, 0.00023025403788778931, 0.00022614160843659192, 0.0001961396774277091, 0.00040686078136786819, 0.00035218268749304116, 0.00022115881438367069, 0.00011004299449268728, 9.5816059911157936e-05, 0.00031511762063018978, 0.00014092477795202285, 0.0002749263949226588, 0.00012466806219890714, 0.00014941823610570282, 0.00016886307275854051, 7.7637305366806686e-05, 8.7302643805742264e-05, 0.00035477738128975034, 0.00027544065960682929, 0.00015633059956599027, 9.6768919320311397e-05, 0.00012578627502080053, 0.00015153129061218351, 0.00012973575212527066, 0.00024975815904326737, 0.00048923434223979712, 5.1305669330758974e-05, 0.00026884564431384206, 0.00036665835068561137, 0.00016708139446564019, 0.00026539026293903589, 0.0001544965198263526, 0.00014198152348399162, 0.00013067868712823838, 0.00010869633842958137, 0.00014661009481642395, 0.0001677895343163982, 0.0001712832017801702, 0.00010219714022241533, 0.00019776927365455776, 0.00011401886877138168, 0.00015052520029712468, 0.00044636911479756236, 0.0030030740890651941, 7.9985948104877025e-05, } };
const TfLiteAffineQuantization quant16 = { (TfLiteFloatArray*)&quant16_scale, (TfLiteIntArray*)&g0::quant6_zero, 0 };
const MODEL_SECTION(EI_MODEL_SECTION) ALIGN(16) int8_t tensor_data17[1*3*3*96] = { 
  /* [0][0][][] */ -18,8,-22,105,-17,18,-64,-53,15,-3,101,-10,3,-8,-5,56,6,18,-39,6,69,3,31,-33,1,14,43,50,20,14,23,49,-4,29,6,-15,6,48,-63,-26,22,8,27,16,-85,-54,26,-6,-12,-15,-6,-6,50,7,-9,1,0,-36,30,-29,25,-1,127,27,-13,-10,12,-55,65,34,1,-9,76,-31,70,4,15,-127,32,63,5,13,127,-12,36,28,-25,-16,34,-5,-13,82,3,20,-1,12, -50,17,-11,9,53,-12,-12,-127,38,16,-127,-5,-18,-13,3,95,18,-28,-20,-14,77,-97,127,25,-59,-34,-105,-14,28,35,-49,18,121,13,-14,-1,-23,127,-71,-127,9,-20,-29,16,47,-127,127,-46,-79,52,50,5,40,-63,32,56,39,42,-100,81,127,35,5,-21,43,-38,-96,1,35,-32,-19,44,-50,-49,106,-4,-31,-59,-30,63,-63,58,-11,9,-10,47,55,-39,-31,54,-12,74,-127,-31,24,-127, 1,-3,-27,-75,10,17,36,21,-4,1,5,62,-1,-12,-10,7,-12,18,-24,19,3,23,24,-31,1,-33,11,13,-8,8,47,-80,46,18,7,-23,14,4,-39,-20,8,2,-16,7,23,-34,20,-1,6,-8,6,-5,6,7,-6,8,-5,45,8,-2,8,-16,4,-17,-26,-17,24,-51,-109,-7,41,-20,-127,-22,-12,18,10,-11,8,11,-13,22,-34,-3,-41,19,27,36,-29,-14,26,-11,17,8,-1,-46, 
  /* [0][1][][] */ -41,55,-18,41,-85,-17,-11,-43,27,98,-43,-22,-30,-25,-6,61,127,-23,-97,-12,57,-127,-28,18,-35,-48,-127,-3,34,35,-49,28,-127,-74,-57,3,67,-3,-53,48,-20,87,2,-4,36,-49,-12,-33,127,50,-3,20,46,12,-36,-17,32,8,-127,127,-38,-88,20,127,-60,-35,-79,127,-38,127,-17,48,-35,-53,35,8,-37,-70,127,49,127,35,8,-1,127,26,-89,50,-37,-36,-102,43,98,102,31,-60, 127,127,127,127,-44,-127,127,25,127,-127,16,-127,-105,127,127,127,-14,-127,-70,-127,127,24,-64,127,127,127,-57,-127,127,127,-127,127,-10,-127,-122,127,-127,-45,100,106,-127,-127,127,127,127,-106,-107,127,-14,127,-127,-127,-127,127,127,-127,127,-127,-44,39,-106,-28,-71,-67,127,127,-70,127,127,-108,-127,127,-41,127,-127,-127,-127,127,-76,127,-39,127,77,127,-37,-127,-23,-104,-127,-127,-23,-127,-24,-127,-127,115, -24,66,-40,1,127,67,-22,48,5,26,-17,-4,-28,-30,-13,-8,-102,-21,-127,40,25,77,-12,-111,-34,-41,122,76,10,37,73,8,118,-49,127,-4,57,3,-96,15,34,24,-23,1,-24,-49,-13,-44,81,16,-14,38,-4,-3,-76,-13,24,20,127,-87,0,127,0,-37,-111,-28,-78,101,12,-16,111,21,-17,-57,12,47,-28,-8,-44,-1,-44,6,38,24,-91,33,127,-45,32,-21,127,-10,-117,37,36,16, 
  /* [0][2][][] */ -3,-38,-24,-63,-3,14,40,34,0,12,-23,53,24,-34,-7,7,36,1,13,23,-12,32,-17,-25,1,-25,9,4,-7,-5,51,-74,-39,67,-30,-26,31,-34,-69,21,9,9,-34,20,14,-75,-11,-2,-11,7,19,-9,10,4,-23,6,-2,44,-52,36,-7,-13,3,17,-7,-9,22,-51,-55,10,-19,-10,-118,-33,-2,15,15,-12,55,16,24,21,-43,16,11,25,-14,12,9,27,22,-8,16,40,-6,-28, -27,-8,-30,26,-44,71,-26,68,7,-5,51,-11,127,-7,-21,-16,-2,-41,-59,25,-22,81,-45,-109,-46,-47,101,70,15,44,54,0,-121,63,-13,-21,-29,-27,-127,0,45,-14,-13,38,-26,-39,-18,-49,-62,31,68,21,-10,-79,29,51,16,25,73,-52,20,-58,-12,0,20,-25,-127,-57,-9,-30,-63,23,36,-43,-32,-9,-45,26,-59,0,53,30,17,11,6,62,-88,127,17,127,-31,-19,110,-22,47,82, -8,-33,-27,28,10,62,-44,15,5,-4,-1,14,12,-50,-8,-14,-43,-7,17,20,-25,4,-22,4,-4,19,1,53,1,-2,37,30,16,44,19,-24,-6,-26,-27,11,11,-11,21,9,-75,-31,-13,3,-3,-14,-1,-5,-7,11,-18,-6,-1,-51,11,-28,-21,47,7,-29,-12,-1,33,-56,46,5,54,-20,33,-53,-19,21,12,9,-5,21,-28,32,86,-14,-18,52,40,-9,110,11,1,-21,7,-22,-8,-50, 
};
const TfArray<96, float> quant17_scale = { 96, { 0.0078629087656736374, 0.0054810354486107826, 0.0094894105568528175, 0.0016108726849779487, 0.0069966316223144531, 0.0082909325137734413, 0.013587345369160175, 0.0035601872950792313, 0.0049398955889046192, 0.02019798569381237, 0.0072092562913894653, 0.013693801127374172, 0.0044968016445636749, 0.01619991846382618, 0.0078613748773932457, 0.004101376049220562, 0.0044316696003079414, 0.012788928113877773, 0.0025911151897162199, 0.010790545493364334, 0.0030417647212743759, 0.0077632516622543335, 0.0055774026550352573, 0.015160767361521721, 0.0084851216524839401, 0.010745927691459656, 0.0052149873226881027, 0.0074921278282999992, 0.0042804977856576443, 0.0049759158864617348, 0.0052667539566755295, 0.0071544861420989037, 0.0053675114177167416, 0.0054331561550498009, 0.0081072794273495674, 0.0087972134351730347, 0.017696987837553024, 0.0052066436037421227, 0.002572161378338933, 0.0061016269028186798, 0.010612168349325657, 0.012595008127391338, 0.01471252366900444, 0.0072735087014734745, 0.0086144981905817986, 0.0029061054810881615, 0.0080907652154564857, 0.0084916893392801285, 0.0033319927752017975, 0.0074131540022790432, 0.0083760898560285568, 0.0071080923080444336, 0.0097857965156435966, 0.0096110180020332336, 0.0083359358832240105, 0.017291583120822906, 0.014967763796448708, 0.0093992492184042931, 0.0046768272295594215, 0.0040721823461353779, 0.013392498716711998, 0.0059893028810620308, 0.011684371158480644, 0.0052983928471803665, 0.0063502746634185314, 0.0071766804903745651, 0.0032995855435729027, 0.0037103623617440462, 0.015078038908541203, 0.011706228367984295, 0.0066440501250326633, 0.0041126790456473827, 0.0053459168411791325, 0.0064400797709822655, 0.0055137691088020802, 0.010614721104502678, 0.020792460069060326, 0.0021804908756166697, 0.01142593938857317, 0.015582979656755924, 0.0071009593084454536, 0.011279085651040077, 0.0065661016851663589, 0.0060342145152390003, 0.0055538443848490715, 0.0046195941977202892, 0.006230928935110569, 0.0071310549974441528, 0.0072795357555150986, 0.0043433783575892448, 0.0084051936864852905, 0.0048458017408847809, 0.0063973208889365196, 0.018970686942338943, 0.12763065099716187, 0.0033994026016443968, } };
const TfLiteAffineQuantization quant17 = { (TfLiteFloatArray*)&quant17_scale, (TfLiteIntArray*)&g0::quant6_zero, 3 };
const MODEL_SECTION(EI_MODEL_SECTION) ALIGN(16) int32_t tensor_data18[96] = { 15431, 1087, 7165, -585, 4032, 5040, 14700, 6157, -1217, 17320, 4961, 1658, 6963, 53969, -881, -2214, 9151, 13492, 1728, -186, -587, 18956, 3996, 3354, 7494, 6188, 4023, 3590, 47, -95, 7845, 9970, 12664, 1866, 6533, -613, 20421, 5545, 800, 4558, 1031, 15256, 14898, 3958, 3923, 10524, 13286, 4608, 4878, 3482, 180, -598, 14691, 5922, 7282, 14843, -344, 5586, 2901, 3728, 14892, 7371, 2526, 5744, 6135, 4891, 5418, -1043, 16073, 7322, 8549, -779, -2037, 3057, 1927, 3394, 21740, 19288, 12287, -2544, 5039, -4954, -1940, 603, 9833, 6915, 6653, 3861, 11907, 3248, 6265, 3290, 18600, 22543, -9729, 12855, };
const TfArray<96, float> quant18_scale = { 96, { 0.00016529973072465509, 0.00028271379414945841, 0.00019408503430895507, 0.0010042026406154037, 0.00040074688149616122, 0.00019141058146487921, 0.00021220825146883726, 0.00056374963605776429, 0.00040909406379796565, 0.00010476547322468832, 0.00028558014309965074, 0.00051983125740662217, 0.00038631056668236852, 8.9370158093515784e-05, 0.00023083545966073871, 0.00032014644239097834, 0.00024905445752665401, 0.0001740586303640157, 0.00027268443955108523, 0.00067556987050920725, 0.00049061159370467067, 0.00012988757225684822, 0.00038718059659004211, 0.00019641284598037601, 0.00023120453988667578, 0.00033953704405575991, 0.00035820491029880941, 0.00021608307724818587, 0.00081579765537753701, 0.00042573778773657978, 0.00018526545318309218, 0.0001867216924438253, 0.00015512632671743631, 0.00056151760509237647, 0.00024978973669931293, 0.00050099875079467893, 0.00011088114843005314, 0.00047582288971170783, 0.00055397360119968653, 0.00021723411919083446, 0.00048935902304947376, 0.00012681433872785419, 0.00014304668002296239, 0.00019467809761408716, 0.00029775794246234, 0.00031023804331198335, 0.00021181072224862874, 0.00032409469713456929, 0.00033429058385081589, 0.00026125425938516855, 0.00048786847037263215, 0.00099137402139604092, 0.00018457301484886557, 0.00027002158458344638, 0.00032088419538922608, 0.00012305824202485383, 0.00045914281508885324, 0.00031017384026199579, 0.00026250793598592281, 0.00043254042975604534, 0.0001151199612650089, 0.00019953989249188453, 0.0004111671878490597, 0.00047521898522973061, 0.00016911921557039022, 0.00021642772480845451, 0.00035805083462037146, 0.0003570013795979321, 0.00016785664774943143, 0.0001569200394442305, 0.00023662322200834751, 0.00055792508646845818, 0.00022354602697305381, 0.00045363060780800879, 0.00022172342869453132, 0.00037384426104836166, 0.00010750686487881467, 0.00023322348715737462, 0.00013724403106607497, 0.00046925261267460883, 0.00020469469018280506, 0.00042567390482872725, 0.00023686450731474906, 0.00043534956057555974, 0.00016846628568600863, 0.00022619502851739526, 0.0002272180572617799, 0.00035542072146199644, 0.00014039692177902907, 0.00047924095997586846, 0.00021729289437644184, 0.0005006493884138763, 0.00011518837709445506, 0.00012146683729952201, 0.00030067461193539202, 0.00025765298050828278, } };
const TfLiteAffineQuantization quant18 = { (TfLiteFloatArray*)&quant18_scale, (TfLiteIntArray*)&g0::quant6_zero, 0 };
const MODEL_SECTION(EI_MODEL_SECTION) ALIGN(16) int8_t tensor_data19[96*1*1*16] = { 
  /* [0][0][][] */ 55,-22,113,127,45,-67,10,-6,114,-10,-82,-62,46,100,-16,-71, 
  /* [1][0][][] */ 55,32,-17,7,81,-28,-6,29,52,54,-23,69,9,-8,109,-127, 
  /* [2][0][][] */ 33,-77,29,5,-41,35,-86,85,-72,-109,2,67,5,-111,80,-127, 
  /* [3][0][][] */ 127,119,-17,31,-121,-22,-53,-19,-1,-6,98,-63,-44,101,-40,-30, 
  /* [4][0][][] */ 0,-28,-3,15,-36,-9,-8,43,-48,-25,-11,-26,0,-127,24,4, 
  /* [5][0][][] */ 86,-20,-30,33,-20,-105,-14,21,-13,-8,-127,2,15,15,6,26, 
  /* [6][0][][] */ -127,-34,-30,41,-62,0,-28,15,-105,-24,-48,-37,8,15,-11,83, 
  /* [7][0][][] */ -38,5,-109,51,48,-127,-21,47,22,3,47,-9,0,3,-68,3, 
  /* [8][0][][] */ 12,-43,-9,-9,3,36,-56,-61,-13,13,-68,-3,-127,-1,-5,16, 
  /* [9][0][][] */ 13,-40,72,127,-2,36,-23,-72,119,-74,-15,2,24,68,-67,51, 
  /* [10][0][][] */ -62,-63,5,-15,61,27,46,75,106,-70,-127,23,91,-49,-89,65, 
  /* [11][0][][] */ 40,-20,-127,17,53,36,-22,54,-26,-46,-53,-27,4,18,-53,-21, 
  /* [12][0][][] */ 127,-30,12,-13,15,-52,-85,-60,51,26,-92,-18,-60,-36,-28,58, 
  /* [13][0][][] */ -16,-77,5,-92,115,40,-79,-127,12,-98,115,-50,-32,-52,21,-12, 
  /* [14][0][][] */ -47,45,-85,-57,80,-127,34,-83,40,60,-14,-97,22,89,-15,22, 
  /* [15][0][][] */ 32,-17,30,16,51,-55,-39,-14,3,-56,-51,-1,-127,-59,-8,59, 
  /* [16][0][][] */ -82,84,-19,-29,-14,32,39,41,-25,2,127,-14,-24,-34,18,5, 
  /* [17][0][][] */ 8,-29,-50,-37,-49,20,22,101,-2,127,-10,26,-8,92,92,18, 
  /* [18][0][][] */ -16,98,-38,-30,-1,8,51,-36,3,86,-33,92,18,-54,53,-127, 
  /* [19][0][][] */ 3,-20,31,31,2,35,-5,22,6,-12,-41,-6,-127,20,-7,29, 
  /* [20][0][][] */ 123,-75,2,-75,-8,45,25,-94,-42,32,-127,-51,49,15,28,-4, 
  /* [21][0][][] */ 43,-5,127,54,-8,73,26,11,28,49,-28,0,-27,89,-3,-26, 
  /* [22][0][][] */ 3,9,0,-18,-32,6,17,127,-17,-5,7,32,-25,18,-13,31, 
  /* [23][0][][] */ -14,19,-71,8,24,-127,22,28,-3,-33,-17,-9,-89,-6,12,48, 
  /* [24][0][][] */ 26,-54,10,-62,49,-17,-37,-9,18,22,56,100,-43,89,127,48, 
  /* [25][0][][] */ -127,-96,-36,5,-4,14,-3,-33,-74,-40,-56,5,27,75,33,55, 
  /* [26][0][][] */ 3,16,9,-18,-27,-8,-9,74,-76,-31,-19,21,-12,-127,26,0, 
  /* [27][0][][] */ -110,33,-48,59,59,-40,-14,5,39,-38,127,60,-32,-9,-16,-47, 
  /* [28][0][][] */ -16,-6,15,25,-4,-14,11,53,13,8,-13,-6,-127,-15,-11,43, 
  /* [29][0][][] */ -11,41,48,-42,26,-20,18,-40,-127,20,-39,-7,2,32,-95,27, 
  /* [30][0][][] */ -1,-25,-127,-50,19,-60,10,35,-15,-14,-1,-38,-38,-42,-3,0, 
  /* [31][0][][] */ 127,-53,-104,26,75,-6,-58,61,32,15,-93,-6,11,14,-51,24, 
  /* [32][0][][] */ -85,83,4,58,22,69,17,8,41,34,127,35,-15,-15,8,-36, 
  /* [33][0][][] */ -28,-5,127,-33,-70,53,7,-41,-15,21,18,15,-3,23,36,22, 
  /* [34][0][][] */ -20,-17,-49,-95,-2,5,14,-15,-7,-15,-28,-127,-31,1,35,42, 
  /* [35][0][][] */ 8,-21,19,77,38,-18,44,-17,-92,17,-8,24,-35,127,-40,-18, 
  /* [36][0][][] */ -95,44,2,16,14,54,28,127,24,46,127,5,32,59,41,-25, 
  /* [37][0][][] */ -43,22,127,-22,-95,-57,40,-15,21,16,-6,15,-6,-41,59,14, 
  /* [38][0][][] */ 14,-30,9,45,44,-10,-59,9,-9,-22,68,-13,127,58,-23,-5, 
  /* [39][0][][] */ -22,-38,-29,-41,-46,-127,39,40,8,-8,26,-45,-12,18,69,74, 
  /* [40][0][][] */ 61,-21,-7,-1,5,79,-28,8,15,4,12,11,127,14,-46,-31, 
  /* [41][0][][] */ 0,2,-14,-127,39,-1,-57,-109,2,-40,11,-11,-2,-19,-38,42, 
  /* [42][0][][] */ 94,81,-9,109,-122,-33,-104,-13,-95,-58,78,-127,-51,125,-52,18, 
  /* [43][0][][] */ 21,108,-48,127,13,15,55,-64,-53,79,-15,32,-19,-40,42,57, 
  /* [44][0][][] */ -17,-26,-127,70,87,114,-63,64,10,-13,47,-4,17,-21,-62,-32, 
  /* [45][0][][] */ 6,41,11,-127,-11,10,48,-27,-4,29,-22,31,-3,-92,12,-33, 
  /* [46][0][][] */ 7,33,81,-33,21,-11,-35,71,-7,-46,-33,18,-3,127,39,-20, 
  /* [47][0][][] */ 4,-37,42,-38,-33,25,-86,54,4,-38,16,38,12,-127,49,9, 
  /* [48][0][][] */ 14,-6,5,-127,5,-18,-22,-13,11,-35,24,12,0,32,0,58, 
  /* [49][0][][] */ 52,-22,7,127,84,15,20,59,-72,15,21,61,-13,56,96,7, 
  /* [50][0][][] */ -34,-11,65,-20,-10,107,-29,-40,8,-24,127,-2,88,2,-1,-27, 
  /* [51][0][][] */ 46,45,7,28,-3,-15,-49,10,16,-19,-19,127,11,40,5,-25, 
  /* [52][0][][] */ -31,74,96,21,10,-42,31,-67,-20,26,25,41,-8,85,-127,-11, 
  /* [53][0][][] */ -10,-18,-53,-127,-69,19,21,-29,-29,55,22,-8,39,-17,53,26, 
  /* [54][0][][] */ 6,14,-38,-65,10,9,1,24,48,-37,15,-40,5,127,13,45, 
  /* [55][0][][] */ 4,-77,-59,47,2,-56,-24,-119,70,-127,-8,18,-11,-45,-78,-43, 
  /* [56][0][][] */ 28,23,11,52,-7,-20,19,127,19,-19,18,-42,51,-17,-39,39, 
  /* [57][0][][] */ 55,-13,127,-31,-55,-9,-28,-15,2,-6,-38,-10,28,-5,59,-30, 
  /* [58][0][][] */ 105,75,-4,127,-114,-18,-13,64,11,2,82,-14,-77,-24,-5,-106, 
  /* [59][0][][] */ 127,-17,-12,22,-17,-14,-20,-9,-14,17,-105,3,4,-5,1,8, 
  /* [60][0][][] */ -127,35,-27,-6,-4,31,37,38,-1,7,107,30,-37,-16,2,4, 
  /* [61][0][][] */ -71,72,13,71,-15,-29,-127,-74,120,-116,56,23,58,-40,-125,-71, 
  /* [62][0][][] */ -19,-52,-93,64,39,87,-11,127,27,-19,30,-15,-35,9,-68,-21, 
  /* [63][0][][] */ -42,9,127,-46,-74,-69,36,-23,14,3,7,1,-2,-43,60,34, 
  /* [64][0][][] */ 30,89,-6,-25,66,10,101,-98,-32,97,-23,-45,-9,-127,-27,64, 
  /* [65][0][][] */ 12,-6,17,-26,110,24,2,-127,-34,-110,-54,-67,-22,-37,48,-1, 
  /* [66][0][][] */ -127,-6,-8,3,-27,20,1,-51,-70,-48,-60,41,49,19,53,63, 
  /* [67][0][][] */ 12,-64,-1,127,-14,-15,1,74,62,25,-34,-18,3,-3,-76,-17, 
  /* [68][0][][] */ -16,9,-10,127,-32,-29,-17,-47,-43,5,6,-4,-10,-74,-56,-35, 
  /* [69][0][][] */ 86,105,35,123,77,26,45,-97,31,127,13,53,12,8,57,-16, 
  /* [70][0][][] */ -21,-27,-9,-80,111,3,73,50,84,3,34,-32,-11,127,84,103, 
  /* [71][0][][] */ 23,67,33,96,56,-127,-41,71,46,-87,15,21,18,-44,-70,14, 
  /* [72][0][][] */ -127,-64,-53,21,-4,13,5,4,-74,-31,-86,39,25,-19,-28,125, 
  /* [73][0][][] */ -17,-17,-33,91,-9,-33,18,-14,69,35,-11,-12,6,127,-40,-40, 
  /* [74][0][][] */ 76,-44,-23,11,-80,-31,85,29,-28,-26,-127,-20,-104,18,71,79, 
  /* [75][0][][] */ -10,-10,-22,127,-39,-14,12,-31,-100,-4,-37,-38,-33,-54,-26,-32, 
  /* [76][0][][] */ -3,-6,-16,24,41,7,-2,-127,-10,-111,5,41,-34,-38,40,-43, 
  /* [77][0][][] */ 127,-11,73,47,-39,47,-45,-22,68,7,-3,58,60,13,-84,45, 
  /* [78][0][][] */ -13,-27,44,-4,23,-39,-73,24,48,-41,-51,-32,8,127,51,-20, 
  /* [79][0][][] */ -5,22,52,22,37,63,-42,-49,6,-50,79,-13,127,-19,-36,-36, 
  /* [80][0][][] */ -99,-65,-127,111,14,-21,41,0,-114,37,-104,31,42,-90,10,49, 
  /* [81][0][][] */ 70,39,-127,39,119,52,-14,-36,-21,-76,-19,-81,-5,-18,-95,35, 
  /* [82][0][][] */ 89,103,-13,30,-127,-28,-43,4,-49,27,102,-36,-40,67,-1,-32, 
  /* [83][0][][] */ 127,51,36,-33,2,26,3,40,28,19,113,-54,-62,-23,-41,-98, 
  /* [84][0][][] */ 17,-22,-70,-49,21,1,17,-127,-42,-32,48,-13,-45,-36,-10,-16, 
  /* [85][0][][] */ 14,-35,-48,-12,-36,3,90,127,-29,126,-28,-61,19,94,63,-10, 
  /* [86][0][][] */ 68,-58,37,14,28,-8,-24,5,6,12,-127,20,54,46,10,-4, 
  /* [87][0][][] */ 23,70,53,0,-44,95,-48,64,-40,-29,17,5,16,-127,-16,-24, 
  /* [88][0][][] */ 2,-29,-71,-36,78,-19,-23,-127,22,-8,-31,-38,-2,-40,14,-13, 
  /* [89][0][][] */ 39,-22,29,-107,29,-29,-62,127,73,-69,22,38,-2,38,47,46, 
  /* [90][0][][] */ -15,31,-24,52,59,18,63,-81,59,127,-16,51,27,34,-7,-31, 
  /* [91][0][][] */ 42,-31,-35,-9,-5,-127,-4,-6,-1,-1,-52,0,55,-3,-8,37, 
  /* [92][0][][] */ 3,57,127,64,59,53,6,37,-54,34,-43,62,46,97,-49,-4, 
  /* [93][0][][] */ 127,-39,-35,-20,-23,-65,21,66,-18,54,-124,2,0,52,10,50, 
  /* [94][0][][] */ 14,-50,62,114,86,-36,-25,76,32,-34,-19,42,-2,127,1,-94, 
  /* [95][0][][] */ -127,29,38,29,18,52,14,14,-3,-8,106,-9,-25,35,-3,-36, 
};
const TfArray<96, float> quant19_scale = { 96, { 0.00049615825992077589, 0.00084858440095558763, 0.00058255926705896854, 0.0030141817405819893, 0.0012028686469420791, 0.00057453173212707043, 0.00063695729477331042, 0.0016921323258429766, 0.0012279233196750283, 0.00031446060165762901, 0.00085718795889988542, 0.0015603085048496723, 0.0011595371179282665, 0.00026825052918866277, 0.00069286813959479332, 0.0009609410772100091, 0.00074755365494638681, 0.00052244868129491806, 0.00081848067929968238, 0.0020277684088796377, 0.001472603646107018, 0.00038986626896075904, 0.0011621485464274883, 0.00058954634005203843, 0.00069397594779729843, 0.0010191432666033506, 0.0010751760564744473, 0.00064858788391575217, 0.0024486714974045753, 0.001277880510315299, 0.00055608671391382813, 0.00056045770179480314, 0.00046562208444811404, 0.0016854328569024801, 0.00074976065661758184, 0.0015037814155220985, 0.00033281720243394375, 0.0014282143674790859, 0.0016627890290692449, 0.00065204279962927103, 0.0014688440132886171, 0.00038064175168983638, 0.00042936421232298017, 0.0005843393737450242, 0.0008937404491007328, 0.00093120028031989932, 0.00063576409593224525, 0.00097279198234900832, 0.0010033956496044993, 0.00078417221084237099, 0.0014643699396401644, 0.0029756755102425814, 0.00055400829296559095, 0.0008104878943413496, 0.00096315547125414014, 0.00036936759715899825, 0.0013781479792669415, 0.00093100761296227574, 0.00078793521970510483, 0.0012982991756871343, 0.00034554029116407037, 0.00059893238358199596, 0.0012341459514573216, 0.0014264016645029187, 0.00050762266619130969, 0.00064962235046550632, 0.0010747136548161507, 0.0010715635726228356, 0.00050383299821987748, 0.00047100603114813566, 0.00071024050703272223, 0.0016746495384722948, 0.00067098840372636914, 0.0013616026844829321, 0.00066551775671541691, 0.0011221186723560095, 0.00032268906943500042, 0.00070003594737499952, 0.00041194717050530016, 0.0014084932627156377, 0.0006144048529677093, 0.0012776887742802501, 0.0007109647267498076, 0.0013067309046164155, 0.00050566287245601416, 0.00067893957020714879, 0.00068201025715097785, 0.0010668191825971007, 0.00042141080484725535, 0.0014384739333763719, 0.00065221922704949975, 0.0015027327463030815, 0.00034574564779177308, 0.00036459087277762592, 0.00090249505592510104, 0.00077336275717243552, } };
const TfLiteAffineQuantization quant19 = { (TfLiteFloatArray*)&quant19_scale, (TfLiteIntArray*)&g0::quant6_zero, 0 };
const MODEL_SECTION(EI_MODEL_SECTION) ALIGN(16) int32_t tensor_data20[16] = { -43419, 1716, 426, -8896, 9815, -8499, -14170, -37674, 3805, 18978, 36365, -8848, -3023, -24128, 35947, -40567, };
const TfArray<16, float> quant20_scale = { 16, { 0.00067864445736631751, 0.00069271965185180306, 0.0010570503072813153, 0.0010107596172019839, 0.00079953961540013552, 0.00091488606994971633, 0.0011015214258804917, 0.00066996488021686673, 0.00073347461875528097, 0.00072294118581339717, 0.0007278633420355618, 0.00060970894992351532, 0.0012034284882247448, 0.0012665577232837677, 0.0004868737596552819, 0.00064006116008386016, } };
const TfLiteAffineQuantization quant20 = { (TfLiteFloatArray*)&quant20_scale, (TfLiteIntArray*)&g0::quant8_zero, 0 };
const MODEL_SECTION(EI_MODEL_SECTION) ALIGN(16) int8_t tensor_data21[16*1*1*48] = { 
  /* [0][0][][] */ -22,-9,-22,10,16,5,-3,114,-64,17,39,-5,10,-9,-4,22,14,-29,-11,-6,69,-1,13,126,-23,88,-1,-3,33,-12,20,-26,-10,39,19,-55,16,33,24,-18,-103,-11,17,36,39,25,-127,-41, 
  /* [1][0][][] */ -41,-14,14,17,-29,4,4,66,-61,-26,3,-42,-17,-28,-12,-5,-24,127,-11,14,11,-5,-27,-12,23,-39,13,27,-23,-98,-50,16,-20,1,32,-1,-4,-52,4,22,-20,-33,124,7,-1,-3,23,-18, 
  /* [2][0][][] */ -21,-6,-13,-39,-4,-66,8,-17,3,18,9,26,18,6,-13,5,-7,-11,-25,-18,-7,-5,-3,-127,-14,72,-15,10,6,-19,-3,1,-12,53,5,4,21,6,24,7,-42,7,-16,-4,7,-11,18,7, 
  /* [3][0][][] */ -6,47,3,-31,0,4,2,-7,-22,-5,-4,40,-127,-4,-6,-3,3,8,-14,1,-29,11,2,16,-7,-14,10,26,-9,19,4,14,3,4,16,21,-11,30,39,8,14,5,30,-28,14,-8,8,17, 
  /* [4][0][][] */ 38,-19,2,5,19,28,19,-28,-29,3,-9,-13,10,8,1,10,14,0,-81,9,-3,0,11,67,-1,-26,2,33,2,-76,23,4,6,-31,30,-127,8,40,-11,21,-22,7,14,-22,-14,-29,11,2, 
  /* [5][0][][] */ 26,2,-28,54,-2,-5,4,26,-1,0,41,8,7,46,6,-4,-32,25,25,-4,5,7,1,-28,-2,-49,-4,-16,4,-14,7,5,63,-127,0,29,-8,-23,18,1,-94,60,14,-6,-1,-5,-92,-13, 
  /* [6][0][][] */ 24,-9,2,7,-14,-3,-3,-11,-9,4,3,3,-21,11,8,7,4,-16,127,4,5,16,12,-32,2,5,25,-8,-9,-2,-3,4,5,-14,28,-37,-2,-41,75,10,5,3,-7,7,-5,3,0,-11, 
  /* [7][0][][] */ -45,-10,0,38,-18,65,-2,35,2,23,-14,127,66,-1,-9,-5,9,-18,-5,-10,-20,-10,-6,67,-7,-39,-43,-25,-10,0,-3,-18,4,10,-21,9,1,-56,86,-3,28,25,-53,-51,12,-3,1,3, 
  /* [8][0][][] */ -48,-40,-5,3,-5,-5,-2,37,-4,-70,11,47,44,11,18,11,-25,51,-33,4,-47,12,-14,-11,-11,7,1,44,-3,110,-4,26,-2,2,-15,-127,-103,60,26,20,14,-9,110,-27,5,24,19,26, 
  /* [9][0][][] */ -38,9,-17,19,21,-23,9,18,48,-31,13,53,-51,3,12,-2,-6,21,-39,-30,40,11,-12,-21,-1,17,43,-19,9,8,1,-1,0,4,59,-95,-10,-127,-80,8,-32,28,59,1,3,7,-9,-44, 
  /* [10][0][][] */ -11,-17,-39,-127,51,85,12,-19,-1,32,23,7,57,-53,-43,17,38,-40,57,-31,34,-29,41,58,-51,-124,-1,-42,52,35,41,-36,-19,-71,31,-2,16,-41,3,-29,-35,-68,-13,14,11,18,19,-33, 
  /* [11][0][][] */ 1,75,-11,58,31,-75,-79,-21,9,64,-33,-1,-8,40,-5,-81,15,48,8,-8,-58,-109,14,-4,11,-42,12,-23,52,-38,21,-92,31,-21,-37,-83,94,32,5,-127,-13,70,104,-66,-2,-57,39,29, 
  /* [12][0][][] */ 121,-1,-20,11,-5,23,9,105,21,-4,-54,-21,-2,11,0,-6,-23,5,-9,-6,0,0,-4,14,-5,15,-7,9,-4,18,3,16,10,-78,-11,6,-6,-14,-32,-3,-21,-84,3,-127,-54,-17,84,-4, 
  /* [13][0][][] */ 13,7,-6,7,9,-10,1,-1,-2,6,-3,24,-4,0,10,0,9,3,14,6,14,-13,7,-1,-1,0,13,127,12,-3,8,-7,3,-2,-38,26,9,-1,4,-14,-12,1,6,8,6,-4,-9,-13, 
  /* [14][0][][] */ 55,-46,42,-60,54,29,44,-86,-43,-51,-6,116,-56,1,63,8,58,34,-49,64,24,15,84,-15,22,56,-35,-112,19,-39,59,56,11,68,-127,-55,-49,43,93,2,-31,11,39,1,-6,7,8,-18, 
  /* [15][0][][] */ -6,-67,-69,-31,55,19,69,-51,-15,14,-22,-45,77,24,-96,71,63,43,80,-76,-96,-24,62,-11,-83,41,33,51,54,44,47,-41,33,46,96,127,-13,-103,-19,-32,95,66,106,-46,0,-16,-30,69, 
};
const TfArray<4, int> tensor_dimension21 = { 4, { 16,1,1,48 } };
const TfArray<16, float> quant21_scale = { 16, { 0.028842387720942497, 0.029440583661198616, 0.04492463544011116, 0.042957283556461334, 0.033980432897806168, 0.038882657885551453, 0.046814657747745514, 0.028473507612943649, 0.031172670423984528, 0.030724998563528061, 0.03093419224023819, 0.025912629440426826, 0.051145710051059723, 0.053828701376914978, 0.020692134276032448, 0.027202598750591278, } };
const TfLiteAffineQuantization quant21 = { (TfLiteFloatArray*)&quant21_scale, (TfLiteIntArray*)&g0::quant8_zero, 0 };
const MODEL_SECTION(EI_MODEL_SECTION) ALIGN(16) int32_t tensor_data22[48] = { 7702, 34107, -1225, 42376, 3469, 126895, -3349, 51975, 2669, 29720, 23510, -866, 3425, 29681, -1302, -1143, -988, 1416, 2010, -1052, 669, -1470, 1130, -17705, -5476, 47226, 132420, 105868, 3836, 1789, -1466, 1359, 24020, 495, 21035, -8428, 62484, 3452, 52935, 1182, 1015, 55865, -271, 5271, 45821, -509, 5609, 50321, };
const TfArray<1, int> tensor_dimension22 = { 1, { 48 } };
const TfArray<48, float> quant22_scale = { 48, { 6.1482125602196902e-05, 3.7099620385561138e-05, 0.00016501509526278824, 5.2924122428521514e-05, 0.00014484925486613065, 6.5350264776498079e-05, 0.00015173552674241364, 0.00011027602158719674, 8.5613974079024047e-05, 4.1512979805702344e-05, 4.3024403566960245e-05, 0.00010464466322446242, 4.0795297536533326e-05, 2.9961951440782286e-05, 0.00015600667393300682, 0.00018773009651340544, 0.00018105040362570435, 7.5524287240114063e-05, 0.00015168364916462451, 0.00014412420568987727, 9.944377961801365e-05, 0.00024286691041197628, 0.00010783484322018921, 0.00011315384472254664, 0.00010519825445953757, 9.2690388555638492e-05, 3.3810116292443126e-05, 6.4991589169949293e-05, 0.00011580404679989442, 0.00012332736514508724, 0.00011327031097607687, 0.00015456514665856957, 4.4826316297985613e-05, 0.00013509395648725331, 3.3980231819441542e-05, 6.7429464252199978e-05, 9.1166817583143711e-05, 9.1613110271282494e-05, 0.00010663716966519132, 8.8455271907150745e-05, 0.00010074440797325224, 0.00010130790178664029, 0.00010157145879929885, 7.8011122241150588e-05, 2.7716592740034685e-05, 0.00015352701302617788, 7.7744894952047616e-05, 3.2260577427223325e-05, } };
const TfArray<48, int> quant22_zero = { 48, { 0,0,0,0,0,0,0,0,0,0,0,0,0,0,0,0,0,0,0,0,0,0,0,0,0,0,0,0,0,0,0,0,0,0,0,0,0,0,0,0,0,0,0,0,0,0,0,0 } };
const TfLiteAffineQuantization quant22 = { (TfLiteFloatArray*)&quant22_scale, (TfLiteIntArray*)&quant22_zero, 0 };
const MODEL_SECTION(EI_MODEL_SECTION) ALIGN(16) int8_t tensor_data23[1*3*3*48] = { 
  /* [0][0][][] */ 72,-99,100,70,53,-34,106,-62,60,-92,-82,50,51,-44,-71,-91,101,79,52,78,64,-74,-83,52,-30,-41,-66,-65,-65,65,-64,-117,-15,43,68,62,-66,50,-52,-21,51,-73,59,62,-88,8,77,-33, 83,-95,127,85,-75,-69,-57,-82,97,-102,-62,79,77,-109,-93,90,-37,92,85,127,86,-114,53,72,-48,-78,-66,-81,54,81,-32,-127,-87,78,79,82,-84,78,-83,-13,75,-95,80,88,-73,-127,93,-98, 36,-47,69,37,22,-42,-46,-39,42,-26,7,38,29,-82,-55,1,-55,35,37,67,34,-55,30,25,-25,-49,-44,-24,32,31,85,-91,-87,45,33,34,-30,37,-39,-10,41,-40,33,44,-6,-10,37,-68, 
  /* [0][1][][] */ 94,-116,-43,93,56,-81,127,-89,88,-113,-74,85,84,-108,-13,-127,127,109,75,-39,85,107,-127,71,72,-79,-95,-100,-127,87,-71,-12,-90,72,106,96,-82,77,-82,87,83,-101,88,90,-93,103,94,-90, 127,-127,-63,127,-127,-127,-92,-127,127,-127,-127,127,127,-127,-19,96,-63,127,127,-51,127,127,70,127,127,-127,-127,-127,53,127,-29,15,-127,127,127,127,-127,127,-127,127,127,-127,127,127,-127,-13,127,-127, 63,-81,-34,66,39,-60,-47,-62,56,-40,-61,61,52,-56,-18,10,-60,48,60,-30,57,62,50,65,63,-65,-65,-45,37,51,127,11,-63,69,47,51,-43,59,-58,54,62,-58,53,62,-62,-64,61,-54, 
  /* [0][2][][] */ 47,-61,-48,49,26,-52,66,-43,42,-77,-7,44,57,-75,83,-80,77,53,40,-31,27,-14,-79,31,-22,-47,-48,-50,-74,35,-43,91,-75,39,47,41,-29,36,-43,-88,51,-51,40,47,-23,20,40,-74, 72,-82,-50,82,-58,-63,-72,-69,51,-78,-69,64,77,-50,127,33,-45,62,66,-45,56,-21,41,69,-46,-67,-76,-63,33,60,-26,120,-55,64,56,56,-50,62,-67,-104,70,-69,60,64,-85,50,64,-50, 39,-44,-28,48,29,-20,-16,-36,18,-27,-50,28,34,3,64,25,-34,22,33,-36,30,-3,38,42,-23,-32,-50,-26,35,34,62,65,2,33,14,22,-22,31,-28,-56,29,-29,26,28,-66,10,34,-4, 
};
const TfArray<4, int> tensor_dimension23 = { 4, { 1,3,3,48 } };
